svm_type c_svc
kernel_type polynomial
degree 3
gamma 0.25
coef0 0
nr_class 4
total_sv 2655
rho -0.44448587803688683 0.39406008474874543 0.29265150724201944 0.63842121141840913 1.4820357733513845 0.34849554423772977
label 2 3 4 1
probA -1.7171860097102594 -1.7417590977851958 -2.9963472957093393 -1.6019957948141912 -2.2364929398682962 -1.4806851686562634
probB 0.021077029168070232 0.1017775845446531 -0.26630182299616229 0.12916788955681924 -0.016004688470290566 -0.19110212247255817
nr_sv 403 799 1053 400
SV
0.21391054585171387 1 0.52682901287466855 1:0.093247246 2:0.0058456285 3:-0.12993645 4:-0.30427949 5:-0.46449899 6:-0.57416373 7:-0.70052395 8:-0.78938431 9:-0.81930633 10:-0.82334623 11:-0.8422821 12:-0.83402218 13:-0.84518881 14:-0.85448651 15:-0.83820116 16:-0.81624059 17:-0.87333536 18:-0.87478642 19:-0.85519591 20:-1 21:0.4313155 22:0.40191359 23:0.35914718 24:0.29827402 25:0.23412441 26:0.1993767 27:0.14781559 28:0.10530784 29:0.076854386 30:0.048918263 31:0.0054620724 32:-0.0060917561 33:-0.030837643 34:-0.066447577 35:-0.10291974 36:-0.14042657 37:-0.20862865 38:-0.24854971 39:-0.28993656 40:-0.36443289 41:0.76938375 42:0.79798155 43:0.84823081 44:0.90082754 45:0.93274781 46:0.97291713 47:0.99615512 48:1 49:0.9730151 50:0.92118276 51:0.85320624 52:0.82183867 53:0.78351353 54:0.72159135 55:0.63236169 56:0.53538745 57:0.45607807 58:0.377687 59:0.27532279 60:0.27113423 
1 1 0 1:-0.5209216 2:-0.50033787 3:-0.55385302 4:-0.55521311 5:-0.53685085 6:-0.67257628 7:-0.82247642 8:-0.83612602 9:-0.88888752 10:-0.88182305 11:-0.86787024 12:-0.86090197 13:-0.84365859 14:-0.83243501 15:-0.83348476 16:-0.83248758 17:-0.94180289 18:-0.97278196 19:-0.99424794 20:-1 21:0.16826053 22:0.13310523 23:0.069179162 24:0.031760994 25:-0.0070310597 26:-0.076856756 27:-0.13561055 28:-0.16300744 29:-0.1931521 30:-0.18054468 31:-0.16720991 32:-0.14926859 33:-0.12421539 34:-0.11387084 35:-0.11871985 36:-0.11977047 37:-0.06748201 38:-0.052854173 39:-0.026265453 40:0 41:0.85744267 42:0.76654834 43:0.69221134 44:0.6187351 45:0.52278873 46:0.51886277 47:0.55125531 48:0.51011114 49:0.50258332 50:0.52073368 51:0.53345041 52:0.56236479 53:0.59522781 54:0.60469333 55:0.59604507 56:0.59294665 57:0.80683887 58:0.86707361 59:0.94171703 60:1 
1 1 0 1:-0.50597319 2:-0.55666062 3:-0.55794884 4:-0.54055683 5:-0.66911059 6:-0.81109007 7:-0.82401843 8:-0.87399204 9:-0.86730085 10:-0.85408531 11:-0.84748523 12:-0.83115298 13:-0.82052246 14:-0.82151674 15:-0.82057225 16:-0.92411138 17:-0.95345353 18:-0.97378526 19:-0.97923338 20:-1 21:0.093999045 22:0.0334508 23:-0.0019902078 24:-0.038732506 25:-0.10486864 26:-0.16051791 27:-0.18646716 28:-0.21501899 29:-0.20307774 30:-0.19044758 31:-0.17345426 32:-0.14972486 33:-0.13992692 34:-0.1445197 35:-0.14551481 36:-0.095989253 37:-0.082134345 38:-0.056950562 39:-0.032072964 40:-1.7430501e-14 41:0.69397128 42:0.62356222 43:0.55396843 44:0.46309182 45:0.45937331 46:0.49005425 47:0.45108411 48:0.44395406 49:0.46114537 50:0.47319015 51:0.50057671 52:0.53170326 53:0.54066862 54:0.53247733 55:0.52954263 56:0.73213288 57:0.78918484 58:0.85988413 59:0.91508745 60:1 
1 1 0 1:-0.56212236 2:-0.56333876 3:-0.54691651 4:-0.66830225 5:-0.8023651 6:-0.81457259 7:-0.86175972 8:-0.85544162 9:-0.84296296 10:-0.83673091 11:-0.82130932 12:-0.81127154 13:-0.81221039 14:-0.81131856 15:-0.90908446 16:-0.93679052 17:-0.95598857 18:-0.96113292 19:-0.98074161 20:-1 21:-0.0049149247 22:-0.03837978 23:-0.073073366 24:-0.13552182 25:-0.18806815 26:-0.2125705 27:-0.2395303 28:-0.22825489 29:-0.21632897 30:-0.20028318 31:-0.17787691 32:-0.16862529 33:-0.17296198 34:-0.1739016 35:-0.12713754 36:-0.11405517 37:-0.090275603 38:-0.066785154 39:-0.036500544 40:0 41:0.55229251 42:0.4865792 43:0.40076977 44:0.3972586 45:0.4262288 46:0.3894316 47:0.38269911 48:0.39893185 49:0.41030503 50:0.43616454 51:0.46555551 52:0.47402097 53:0.46628642 54:0.46351536 55:0.65480939 56:0.70868019 57:0.77543737 58:0.82756261 59:0.90774052 60:1 
0 1 0.71752863339582951 1:-0.96035072 2:-0.96498519 3:-0.98265039 4:-1 5:-0.95999356 6:-0.94301099 7:-0.91823546 8:-0.7758688 9:-0.58318352 10:-0.49580266 11:-0.33114589 12:-0.28023203 13:-0.21184695 14:-0.16563901 15:-0.12549758 16:-0.038569031 17:0.069792013 18:0.12085288 19:0.12537531 20:0.079448005 21:-0.18044198 22:-0.15927976 23:-0.13199677 24:-0.099113944 25:-0.042203856 26:-0.00020499222 27:0.040882268 28:0.11088037 29:0.16759512 30:0.20425459 31:0.24918361 32:0.27106209 33:0.29561026 34:0.31586087 35:0.33090233 36:0.35369241 37:0.37817547 38:0.41236059 39:0.41053738 40:0.43104845 41:0.59946677 42:0.64642567 43:0.71865684 44:0.80177211 45:0.87558585 46:0.94260101 47:1 48:0.99762955 49:0.91837376 50:0.90431185 51:0.8295131 52:0.8223562 53:0.80306747 54:0.79736076 55:0.78730224 56:0.74595385 57:0.68655892 58:0.7038683 59:0.69569945 60:0.7826489 
1 0 0 1:-1 2:-0.92464791 3:-0.78265763 4:-0.73875252 5:-0.67978128 6:-0.63993428 7:-0.60531868 8:-0.53035663 9:-0.43691247 10:-0.39288059 11:-0.38898071 12:-0.42858571 13:-0.479482 14:-0.51479095 15:-0.59821047 16:-0.61240145 17:-0.63385618 18:-0.6542404 19:-0.66646268 20:-0.67601174 21:-0.35257284 22:-0.32095988 23:-0.28221575 24:-0.26334904 25:-0.24218015 26:-0.22471721 27:-0.21174635 28:-0.19209353 29:-0.17098079 30:-0.14150156 31:-0.14307378 32:-0.12538625 33:-0.095233206 34:-0.057275188 35:-0.013589777 36:0.012239643 37:0.0434034 38:0.080350702 39:0.11965634 40:0.16199413 41:0.29485431 42:0.28272815 43:0.21822613 44:0.21205444 45:0.19542098 46:0.19049985 47:0.18182597 48:0.14616957 49:0.094950888 50:0.10987747 51:0.10283314 52:0.17781321 53:0.28901558 54:0.40024057 55:0.57103092 56:0.63688073 57:0.72066298 58:0.81494181 59:0.90577536 60:1 
0.62088178623177537 1 0 1:-1 2:-0.91922431 3:-0.8218522 4:-0.71911423 5:-0.5814294 6:-0.41357443 7:-0.21395601 8:-0.10657312 9:0.052966016 10:0.16016756 11:0.208135 12:0.22808499 13:0.22500058 14:0.27625489 15:0.29237901 16:0.28804455 17:0.28778223 18:0.28041522 19:0.27054253 20:0.22577746 21:-0.028350222 22:0.030965919 23:0.088799157 24:0.14044288 25:0.1980827 26:0.25817253 27:0.31091232 28:0.34637305 29:0.38344564 30:0.40839711 31:0.41800374 32:0.42213008 33:0.41632742 34:0.43031829 35:0.43612095 36:0.44450258 37:0.44779076 38:0.45146578 39:0.45765529 40:0.47125932 41:0.94329956 42:0.98115615 43:0.99945051 44:1 45:0.97759481 46:0.92991949 47:0.83578064 48:0.79931923 49:0.71392527 50:0.65662665 51:0.62787248 52:0.61617517 53:0.60765425 54:0.58438168 55:0.5798629 56:0.60096062 57:0.60779929 58:0.62251634 59:0.64476805 60:0.71674118 
0 1 0 1:-1 2:-0.89852972 3:-0.79146775 4:-0.64798809 5:-0.47306849 6:-0.2650486 7:-0.15314621 8:0.013107556 9:0.12482097 10:0.17480724 11:0.19559688 12:0.19238266 13:0.24579414 14:0.26259688 15:0.25808 16:0.25780664 17:0.25012957 18:0.23984136 19:0.19319224 20:0.1816008 21:-0.0098184731 22:0.050448831 23:0.10426612 24:0.16433186 25:0.22695074 26:0.28191022 27:0.31886341 28:0.3574963 29:0.38349792 30:0.39350887 31:0.39780888 32:0.39176199 33:0.40634171 34:0.4123886 35:0.42112299 36:0.42454956 37:0.42837925 38:0.43482926 39:0.44900585 40:0.46580276 41:0.98036305 42:0.99942739 43:1 44:0.97665182 45:0.92696996 46:0.82886903 47:0.79087304 48:0.70188505 49:0.64217486 50:0.6122105 51:0.60002088 52:0.59114133 53:0.56688928 54:0.56218031 55:0.58416598 56:0.59129247 57:0.60662893 58:0.62981717 59:0.70481947 60:0.75000472 
0 1 0 1:-1 2:-0.88721591 3:-0.73606773 4:-0.55179924 5:-0.33266135 6:-0.21477815 7:-0.039638654 8:0.078045475 9:0.13070336 10:0.15260414 11:0.14921812 12:0.20548428 13:0.22318507 14:0.21842677 15:0.21813881 16:0.21005142 17:0.19921334 18:0.15007097 19:0.13786001 20:0.12929936 21:-0.00030160881 22:0.056392043 23:0.1196681 24:0.18563375 25:0.24353064 26:0.28245887 27:0.32315656 28:0.35054787 29:0.36109388 30:0.36562371 31:0.35925364 32:0.37461259 33:0.38098267 34:0.39018388 35:0.39379359 36:0.39782797 37:0.40462272 38:0.419557 39:0.43725165 40:0.44900089 41:0.99939678 42:1 43:0.97540394 44:0.92306674 45:0.81972263 46:0.77969588 47:0.68595177 48:0.62305027 49:0.59148441 50:0.57864329 51:0.56928916 52:0.54374091 53:0.53878026 54:0.561941 55:0.56944837 56:0.58560452 57:0.61003209 58:0.68904303 59:0.73664328 60:0.76870243 
1 1 0 1:-1 2:-0.83981887 3:-0.6445381 4:-0.41230406 5:-0.2873759 6:-0.1017697 7:0.022947488 8:0.078752317 9:0.10196193 10:0.098373564 11:0.15800231 12:0.17676094 13:0.17171827 14:0.1714131 15:0.16284239 16:0.1513566 17:0.099277381 18:0.086336668 19:0.077264414 20:0.075402778 21:1.7097435e-14 22:0.067057575 23:0.13696547 24:0.1983224 25:0.23957706 26:0.28270693 27:0.31173521 28:0.32291148 29:0.32771202 30:0.32096126 31:0.33723809 32:0.34398886 33:0.35373996 34:0.35756539 35:0.36184087 36:0.36904169 37:0.38486848 38:0.40362059 39:0.416072 40:0.42882344 41:1 42:0.97393402 43:0.91846905 44:0.80894887 45:0.76653003 46:0.66718357 47:0.60052294 48:0.56707064 49:0.5534621 50:0.54354895 51:0.51647388 52:0.51121678 53:0.53576165 54:0.54371768 55:0.56083936 56:0.58672677 57:0.67045957 58:0.72090452 59:0.75487959 60:0.7822441 
1 0 0 1:-0.35716595 2:-0.47077642 3:-0.53060396 4:-0.55091653 5:-0.52611787 6:-0.50908901 7:-0.49354062 8:-0.47741992 9:-0.46665337 10:-0.47499649 11:-0.50112787 12:-0.50007754 13:-0.49882684 14:-0.49791168 15:-0.48730826 16:-0.51163829 17:-0.59280052 18:-0.83803199 19:-0.9078323 20:-1 21:0.30263349 22:0.26461179 23:0.22974106 24:0.20505847 25:0.1749142 26:0.15212219 27:0.14067366 28:0.12607417 29:0.10359726 30:0.10821868 31:0.11861688 32:0.11777662 33:0.11651623 34:0.12019236 35:0.14004347 36:0.12502385 37:0.10086642 38:0.051816328 39:0.032070254 40:-0.0029055057 41:0.96243292 42:1 43:0.99008609 44:0.96103347 45:0.87594627 46:0.81333338 47:0.77488795 48:0.72956826 49:0.67384788 50:0.69143385 51:0.73836163 52:0.73563078 53:0.7318593 54:0.7382964 55:0.7673952 56:0.76168599 57:0.79453336 58:0.94166465 59:0.9719728 60:0.99418899 
0 0.77485477762650012 0 1:-1 2:-0.70627889 3:-0.63532262 4:-0.56358969 5:-0.5383274 6:-0.42497948 7:-0.36860907 8:-0.2902158 9:-0.27137185 10:-0.27128572 11:-0.27034269 12:-0.27230838 13:-0.22996014 14:-0.23500166 15:-0.228517 16:-0.2310088 17:-0.2405843 18:-0.22386758 19:-0.2390582 20:-0.28223951 21:0 22:0.067507272 23:0.095028222 24:0.12611071 25:0.14845124 26:0.17629597 27:0.19442742 28:0.21952005 29:0.20575958 30:0.20559769 31:0.20478825 32:0.20770223 33:0.19183721 34:0.18536169 35:0.17402954 36:0.16528759 37:0.1597834 38:0.19863651 39:0.25416407 40:0.28670355 41:1 42:0.84129344 43:0.82537907 44:0.81581111 45:0.83522989 46:0.77757142 47:0.75746391 48:0.7292559 49:0.682891 50:0.6824811 51:0.67991918 52:0.68771284 53:0.61363456 54:0.60572505 55:0.57657608 56:0.56158398 57:0.5601511 58:0.62114059 59:0.74738634 60:0.8556466 
1 0 0 1:-1 2:-0.91575606 3:-0.88608775 4:-0.75297072 5:-0.6867687 6:-0.59470279 7:-0.57257224 8:-0.5724711 9:-0.57136359 10:-0.57367212 11:-0.52393788 12:-0.52985871 13:-0.52224305 14:-0.52516945 15:-0.53641502 16:-0.51678271 17:-0.53462275 18:-0.58533535 19:-0.606728 20:-0.5738564 21:-0.14226801 22:-0.10576441 23:-0.079527437 24:-0.046826288 25:-0.025532516 26:0.0039365435 27:-0.012223908 28:-0.012414031 29:-0.013364646 30:-0.0099424328 31:-0.028574483 32:-0.036179402 33:-0.049488009 34:-0.059754649 35:-0.06621883 36:-0.020589319 37:0.044622857 38:0.082837573 39:0.15717565 40:0.2130718 41:0.71546397 42:0.70422725 43:0.72703288 44:0.65931814 45:0.63570367 46:0.60257588 47:0.54812443 48:0.54764304 49:0.5446343 50:0.55378725 51:0.46678891 52:0.4574999 53:0.42326703 54:0.40566015 55:0.40397736 56:0.47560408 57:0.62386846 58:0.75101049 59:0.9210793 60:1 
0 1 0 1:-1 2:-0.98178924 3:-0.9730462 4:-0.88011915 5:-0.80096583 6:-0.73321465 7:-0.69799813 8:-0.66547226 9:-0.63462328 10:-0.59720594 11:-0.56695668 12:-0.46191114 13:-0.37496121 14:-0.2729245 15:-0.044790659 16:-0.061070731 17:-0.081779728 18:-0.08233493 19:-0.055118353 20:-0.13292638 21:-0.15512137 22:-0.10894087 23:-0.073355902 24:-0.01358115 25:0.039796305 26:0.079979332 27:0.11176591 28:0.14974986 29:0.17393965 30:0.20112816 31:0.21652166 32:0.24830823 33:0.27289785 34:0.2940889 35:0.33227277 36:0.32827446 37:0.31248113 38:0.31448028 39:0.29828712 40:0.32527572 41:0.68975727 42:0.7639075 43:0.8263344 44:0.85295685 45:0.88055844 46:0.89317332 47:0.92152995 48:0.96497198 49:0.98250257 50:0.99946226 51:1 52:0.95852761 53:0.92075691 54:0.86110229 55:0.7093362 56:0.71761965 57:0.70674199 58:0.7112955 59:0.6516926 60:0.78347783 
0.85757416452435464 0 0 1:-1 2:-0.92850283 3:-0.89133918 4:-0.85701494 5:-0.82446031 6:-0.78497415 7:-0.7530524 8:-0.64219886 9:-0.55044144 10:-0.44276307 11:-0.20201564 12:-0.21919584 13:-0.24104984 14:-0.24163574 15:-0.21291435 16:-0.29502441 17:-0.35429625 18:-0.36803988 19:-0.41554782 20:-0.42002416 21:-0.11275183 22:-0.070347069 23:-0.036803004 24:0.003281099 25:0.028808343 26:0.057500122 27:0.073744732 28:0.1072888 29:0.13323798 30:0.15560069 31:0.19589576 32:0.19167638 33:0.17500983 34:0.17711952 35:0.16003104 36:0.18851185 37:0.21994622 38:0.23661277 39:0.27057877 40:0.28998792 41:0.77449634 42:0.7878087 43:0.81773318 44:0.86357714 45:0.882077 46:0.89997439 47:0.90054186 48:0.85677645 49:0.8169174 50:0.75396445 51:0.59380716 52:0.6025486 53:0.59106951 54:0.59587479 55:0.53297643 56:0.6720481 57:0.7941887 58:0.84126542 59:0.95670537 60:1 
1 0 0 1:-1 2:-0.99354316 3:-0.95297406 4:-0.92118024 5:-0.8800251 6:-0.83356656 7:-0.7758755 8:-0.80068113 9:-0.79175183 10:-0.76419057 11:-0.76330363 12:-0.72833803 13:-0.70191027 14:-0.726166 15:-0.74354309 16:-0.83079804 17:-0.90237685 18:-0.94402649 19:-0.984044 20:-0.97072053 21:-0.16165132 22:-0.15558726 23:-0.141149 24:-0.13017593 25:-0.12035792 26:-0.10952923 27:-0.092636477 28:-0.12613322 29:-0.14923443 30:-0.17377945 31:-0.18287555 32:-0.20814249 33:-0.22012624 34:-0.20756496 35:-0.19832448 36:-0.16944798 37:-0.12728828 38:-0.086861176 39:-0.040658769 40:0.014639736 41:0.67669736 42:0.68236865 43:0.67067605 44:0.66082837 45:0.63930926 46:0.6145081 47:0.59060254 48:0.54841469 49:0.49328298 50:0.41663166 51:0.39755253 52:0.31205304 53:0.26165779 54:0.31103607 55:0.34689413 56:0.49190208 57:0.64780029 58:0.77030413 59:0.90272646 60:1 
1 1 0 1:-0.30359762 2:-0.32267597 3:-0.47218186 4:-0.63325516 5:-0.66270186 6:-0.69063292 7:-0.71191844 8:-0.70562842 9:-0.72508584 10:-0.76259165 11:-0.76497035 12:-0.7821777 13:-0.79047244 14:-0.82098291 15:-0.84016623 16:-0.82935977 17:-0.85783777 18:-0.88563672 19:-0.89134956 20:-1 21:0.33650177 22:0.28369854 23:0.24104979 24:0.18337242 25:0.12691359 26:0.085483369 27:0.033289414 28:-0.00082959143 29:-0.032308436 30:-0.066224352 31:-0.079222068 32:-0.10562368 33:-0.11719977 34:-0.13080676 35:-0.17000299 36:-0.22828963 37:-0.25448815 38:-0.3143995 39:-0.39380742 40:-0.43117586 41:0.97660115 42:0.89007305 43:0.95428143 44:1 45:0.91652904 46:0.86159966 47:0.77849727 48:0.70396924 49:0.66046897 50:0.63014295 51:0.60652621 52:0.57093034 53:0.5560729 54:0.5593694 55:0.50016025 56:0.37278051 57:0.34886147 58:0.25683772 59:0.10373471 60:0.13764829 
0.7900037675830468 1 0 1:-0.28018352 2:-0.42488637 3:-0.58078501 4:-0.6092857 5:-0.63631945 6:-0.65692114 7:-0.65083319 8:-0.66966553 9:-0.70596642 10:-0.7082687 11:-0.72492324 12:-0.73295151 13:-0.76248179 14:-0.78104883 15:-0.77058954 16:-0.79815265 17:-0.82505853 18:-0.83058784 19:-0.93574776 20:-1 21:0.30671053 22:0.26543191 23:0.2096075 24:0.15496247 25:0.11486324 26:0.064346075 27:0.03132318 28:0.00085562909 29:-0.0319707 30:-0.04455085 31:-0.070104281 32:-0.081308477 33:-0.094478321 34:-0.13241534 35:-0.18882945 36:-0.21418631 37:-0.27217294 38:-0.3490298 39:-0.38519773 40:-0.4278523 41:0.89360458 42:0.95575019 43:1 44:0.91921064 45:0.86604593 46:0.78561329 47:0.71347956 48:0.67137678 49:0.64202502 50:0.61916699 51:0.58471468 52:0.57033456 53:0.57352515 54:0.51621816 55:0.39293064 56:0.36978002 57:0.28071264 58:0.13252824 59:0.1653523 60:0.1442954 
1 1 0 1:-0.46803925 2:-0.60489813 3:-0.8468953 4:-0.89801062 5:-0.92751571 6:-0.95258654 7:-0.9654538 8:-1 9:-0.96573214 10:-0.96283679 11:-0.91210575 12:-0.88868738 13:-0.85620276 14:-0.85715175 15:-0.86391293 16:-0.86938096 17:-0.89593552 18:-0.97210254 19:-0.98637573 20:-0.99486926 21:0.18796229 22:0.15270334 23:0.076552348 24:0.030444488 25:-0.0033540339 26:-0.056972677 27:-0.096612918 28:-0.13729632 29:-0.18632504 30:-0.23055521 31:-0.27457674 32:-0.29105874 33:-0.31171339 34:-0.31129612 35:-0.30900116 36:-0.30336807 37:-0.27311631 38:-0.2222099 39:-0.18966317 40:-0.16233227 41:0.84396383 42:0.91030481 43:1 44:0.95889959 45:0.92080764 46:0.83864118 47:0.77222796 48:0.72540735 49:0.59308205 50:0.50172637 51:0.36295227 52:0.30656991 53:0.23277598 54:0.23455951 55:0.24591061 56:0.26264482 57:0.3497029 58:0.52768275 59:0.60704939 60:0.67020473 
0 0.21205826960604918 0 1:-1 2:-0.86083041 3:-0.75746965 4:-0.59001734 5:-0.4511166 6:-0.36055629 7:-0.25784065 8:-0.2065649 9:-0.17993627 10:-0.073633185 11:-0.035057971 12:-0.058630846 13:-0.060666458 14:-0.041026401 15:0.014956471 16:0.050241001 17:0.059694901 18:0.053736371 19:0.033453806 20:-0.11894542 21:-0.05267379 22:0.020794145 23:0.076407323 24:0.15572928 25:0.23300232 26:0.26519943 27:0.33398415 28:0.37027906 29:0.40189077 30:0.45194263 31:0.4756514 32:0.45194263 33:0.45106452 34:0.46189446 35:0.4762368 36:0.48443243 37:0.48706674 38:0.48384703 39:0.47682221 40:0.44052729 41:0.89465242 42:0.9024187 43:0.9102843 44:0.90147589 45:0.91712125 46:0.89095515 47:0.92580894 48:0.94712303 49:0.9837178 50:0.97751844 51:0.98636077 52:0.9625161 53:0.9627955 54:0.96481532 55:0.93751714 56:0.91862386 57:0.91443858 58:0.91395769 59:0.92019061 60:1 
0 0.92755600682207662 0 1:0.23605333 2:0.19282522 3:0.14407541 4:0.058953455 5:-0.020000312 6:-0.21857924 7:-0.37403639 8:-0.48634415 9:-0.54804095 10:-0.59394974 11:-0.64254311 12:-0.67729921 13:-0.69411436 14:-0.72543892 15:-0.73751872 16:-0.74288992 17:-0.72801508 18:-0.73741386 19:-0.80781539 20:-1 21:0.53996985 22:0.5233285 23:0.4986993 24:0.46186644 25:0.43468556 26:0.37133748 27:0.3129818 28:0.25562461 29:0.20436924 30:0.15799534 31:0.11794515 32:0.078449678 33:0.036624412 34:-0.0077525271 35:-0.046804234 36:-0.088962326 37:-0.13433775 38:-0.18759007 39:-0.24261748 40:-0.3155066 41:0.84388636 42:0.85383177 43:0.85332318 44:0.86477942 45:0.88937143 46:0.9612542 47:1 48:0.99759337 49:0.95677943 50:0.90994042 51:0.87843342 52:0.83419857 53:0.76736319 54:0.70993386 55:0.64391025 56:0.56496527 57:0.45933959 58:0.36223371 59:0.32258043 60:0.36898679 
1 1 0 1:0.23517406 2:0.18898194 3:0.10832594 4:0.033514527 5:-0.15464586 6:-0.30194687 7:-0.40836235 8:-0.46682219 9:-0.51032235 10:-0.55636625 11:-0.58929885 12:-0.60523179 13:-0.63491288 14:-0.64635891 15:-0.65144831 16:-0.63735389 17:-0.64625956 18:-0.71296743 19:-0.89506898 20:-1 21:0.54833731 22:0.52500029 23:0.49009989 24:0.46434507 25:0.40432058 26:0.34902656 27:0.29467864 28:0.24611242 29:0.20217155 30:0.16422261 31:0.12679929 32:0.087168406 33:0.045119725 34:0.008116886 35:-0.031829361 36:-0.074824137 37:-0.12528255 38:-0.17742292 39:-0.24648788 40:-0.31176845 41:0.86150056 42:0.86101865 43:0.87187383 44:0.89517562 45:0.96328702 46:1 47:0.99771963 48:0.95904702 49:0.91466544 50:0.88481147 51:0.84289742 52:0.7795686 53:0.72515233 54:0.66259268 55:0.58778959 56:0.48770561 57:0.39569445 58:0.35812159 59:0.40209323 60:0.3764631 
1 1 0 1:0.24128972 2:0.17763396 3:0.017531488 4:-0.10780444 5:-0.19835155 6:-0.24809404 7:-0.28510758 8:-0.32428555 9:-0.35230734 10:-0.36586441 11:-0.39111955 12:-0.40085878 13:-0.40518926 14:-0.39319656 15:-0.40077424 16:-0.45753483 17:-0.61248194 18:-0.70176596 19:-0.89669106 20:-1 21:0.56613467 22:0.54422034 23:0.49314652 24:0.44609778 25:0.39985406 26:0.35852989 27:0.32114135 28:0.28885125 29:0.25700837 30:0.22328713 31:0.18750862 32:0.15602354 33:0.12203396 34:0.085450434 35:0.042516226 36:-0.0018491227 37:-0.06061532 38:-0.11616145 39:-0.19433749 40:-0.26097496 41:0.89097963 42:0.91080672 43:0.96876155 44:1 45:0.99805968 46:0.96515381 47:0.92739028 48:0.90198804 49:0.86632409 50:0.81243867 51:0.7661368 52:0.71290585 53:0.64925718 54:0.56409742 55:0.48580669 56:0.45383659 57:0.4912513 58:0.46944306 59:0.50801608 60:0.47805008 
1 1 0 1:0.20701763 2:0.05263572 3:-0.068221871 4:-0.15553368 5:-0.20349883 6:-0.23918986 7:-0.27696798 8:-0.30398853 9:-0.31706119 10:-0.34141395 11:-0.35080519 12:-0.35498095 13:-0.34341675 14:-0.35072367 15:-0.40545617 16:-0.55486692 17:-0.64096077 18:-0.82892107 19:-0.92853871 20:-1 21:0.56050564 22:0.51125672 23:0.46588906 24:0.42129766 25:0.38145003 26:0.3453974 27:0.31426105 28:0.28355594 29:0.25103958 30:0.21653946 31:0.18617936 32:0.15340425 33:0.11812788 34:0.076727737 35:0.033947591 36:-0.022718853 37:-0.076280286 38:-0.15166304 39:-0.21591951 40:-0.26810094 41:0.91399365 42:0.96987772 43:1 44:0.99812901 45:0.96639889 46:0.92998467 47:0.90549007 48:0.87110042 49:0.81914036 50:0.77449288 51:0.72316391 52:0.66178944 53:0.5796725 54:0.50417915 55:0.47335136 56:0.50942922 57:0.4884002 58:0.52559498 59:0.49669969 60:0.46379812 
1 1 0.047942182651894413 1:0.086046423 2:-0.030548882 3:-0.11478146 4:-0.16105503 5:-0.19548734 6:-0.23193314 7:-0.25800076 8:-0.27061239 9:-0.29410629 10:-0.30316633 11:-0.30719482 12:-0.29603846 13:-0.30308769 14:-0.35588994 15:-0.50003142 16:-0.583089 17:-0.7644205 18:-0.86052492 19:-0.92946598 20:-1 21:0.52849323 22:0.48472556 23:0.44170676 24:0.40326443 25:0.36848328 26:0.33844501 27:0.30882278 28:0.27745317 29:0.24416977 30:0.21488038 31:0.18326115 32:0.14922887 33:0.10928879 34:0.068017368 35:0.013349381 36:-0.0383231 37:-0.11104733 38:-0.17303767 39:-0.22337881 40:-0.27696509 41:0.97094004 42:1 43:0.99819499 44:0.9675839 45:0.9324539 46:0.90882316 47:0.87564632 48:0.82551874 49:0.78244584 50:0.73292709 51:0.67371712 52:0.5944962 53:0.52166527 54:0.49192468 55:0.52673018 56:0.50644279 57:0.54232583 58:0.51444959 59:0.48270836 60:0.44606982 
1 1 0 1:0.053778789 2:-0.023561217 3:-0.066048313 4:-0.097663102 5:-0.13112661 6:-0.15506118 7:-0.16664082 8:-0.18821227 9:-0.19653094 10:-0.20022979 11:-0.18998633 12:-0.19645874 13:-0.24494029 14:-0.37728697 15:-0.45354812 16:-0.62004164 17:-0.70828204 18:-0.7715818 19:-0.83634416 20:-1 21:0.52688939 22:0.48739074 23:0.45209406 24:0.42015898 25:0.39257868 26:0.36538037 27:0.33657768 28:0.30601779 29:0.27912508 30:0.25009319 31:0.2188457 32:0.18217383 33:0.14427957 34:0.094084948 35:0.046640718 36:-0.020132642 37:-0.077050437 38:-0.12327227 39:-0.17247369 40:-0.2257243 41:1 42:0.99834269 43:0.97023644 44:0.93798106 45:0.91628397 46:0.88582192 47:0.83979617 48:0.80024784 49:0.75478111 50:0.70041617 51:0.62767773 52:0.5608064 53:0.53349942 54:0.56545687 55:0.54682955 56:0.57977635 57:0.55418117 58:0.52503725 59:0.49139677 60:0.54855139 
1 1 0.0078767076468907113 1:0.13445751 2:0.10649029 3:0.08648691 4:0.076809191 5:0.058780791 6:0.051828435 7:0.048737115 8:0.057298116 9:0.051888782 10:0.011370192 11:-0.099238917 12:-0.16297438 13:-0.30212181 14:-0.37586897 15:-0.42877192 16:-0.48289724 17:-0.61967307 18:-0.7744728 19:-0.92841406 20:-1 21:0.56722875 22:0.54417844 23:0.52144738 24:0.49737545 25:0.47183494 26:0.44935929 27:0.4250958 28:0.39898062 29:0.36833201 30:0.33666177 31:0.29471148 32:0.25505983 33:0.19925381 34:0.1516846 35:0.11305458 36:0.071934348 37:0.027430004 38:-0.0249919 39:-0.083798932 40:-0.13334753 41:1 42:0.9818666 43:0.95640786 44:0.91794171 45:0.88488908 46:0.84689014 47:0.80145448 48:0.74066313 49:0.68477523 50:0.66195335 51:0.68866187 52:0.67309404 53:0.70062942 54:0.67923817 55:0.65488107 56:0.62676594 57:0.67453307 58:0.724489 59:0.76081619 60:0.73330494 
1 1 0 1:-1 2:-0.83166902 3:-0.82645051 4:-0.80638748 5:-0.7649475 6:-0.79388982 7:-0.70514722 8:-0.66016245 9:-0.63230843 10:-0.60499062 11:-0.61903538 12:-0.60765503 13:-0.59650321 14:-0.7030727 15:-0.73374278 16:-0.70127376 17:-0.6778387 18:-0.63211149 19:-0.58095677 20:-0.62628492 21:-0.36900469 22:-0.294378 23:-0.27071068 24:-0.26282157 25:-0.24683014 26:-0.1994955 27:-0.1638879 28:-0.15216085 29:-0.13339757 30:-0.11783257 31:-0.092885938 32:-0.058770879 33:-0.017406371 34:0.052742718 35:0.039949571 36:0.070866343 37:0.082166956 38:0.11628201 39:0.1429344 40:0.18685754 41:0.26199062 42:0.24291302 43:0.28502915 44:0.28074434 45:0.27128722 46:0.39489883 47:0.37737141 48:0.35584075 49:0.36551329 50:0.36932547 51:0.4332635 52:0.49011327 53:0.56169047 54:0.80855814 55:0.81364192 56:0.84300645 57:0.84217261 58:0.86467552 59:0.86682558 60:1 
1 1 0 1:-1 2:-0.99437292 3:-0.97273912 4:-0.92805472 5:-0.95926298 6:-0.86357255 7:-0.81506583 8:-0.78503106 9:-0.75557447 10:-0.77071883 11:-0.75844749 12:-0.74642257 13:-0.86133561 14:-0.89440691 15:-0.85939583 16:-0.83412598 17:-0.7848187 18:-0.72965897 19:-0.77853595 20:-0.77955088 21:-0.42064336 22:-0.39512307 23:-0.38661631 24:-0.36937287 25:-0.3183323 26:-0.27993692 27:-0.26729173 28:-0.24705943 29:-0.23027582 30:-0.20337606 31:-0.16659007 32:-0.12198704 33:-0.046345838 34:-0.060140587 35:-0.026803277 36:-0.014617916 37:0.022168081 38:0.050907141 39:0.098269112 40:0.11022456 41:0.15871329 42:0.20412677 43:0.1995065 44:0.18930897 45:0.32259838 46:0.30369871 47:0.28048236 48:0.29091219 49:0.29502283 50:0.3639667 51:0.42526736 52:0.50244848 53:0.76864393 54:0.77412573 55:0.80578927 56:0.80489015 57:0.82915486 58:0.83147325 59:0.97507417 60:1 
0.080042988813784993 0 0 1:-0.076949948 2:-0.034656837 3:-0.034656837 4:0.032699737 5:0.014582797 6:0.065998922 7:0.023809969 8:-0.00033972661 9:-0.018308362 10:-0.018091925 11:-0.015732852 12:-0.00028435418 13:-0.00096520885 14:-0.00091569956 15:0.00043187938 16:-0.26003134 17:-0.43592831 18:-0.70425278 19:-0.91843088 20:-1 21:0.28227931 22:0.30138995 23:0.30138995 24:0.32464123 25:0.31674216 26:0.32655229 27:0.31081786 28:0.29629378 29:0.28100527 30:0.28062306 31:0.2878214 32:0.27813868 33:0.28081416 34:0.28055936 35:0.27858459 36:0.23157242 37:0.18436915 38:0.1258269 39:0.040784562 40:-0.0019595633 41:0.64150857 42:0.63743674 43:0.63743674 44:0.61658271 45:0.61890153 46:0.58710566 47:0.59782576 48:0.59292729 49:0.5803189 50:0.57933804 51:0.59137565 52:0.5565617 53:0.56259354 54:0.56203441 55:0.5567373 56:0.72317619 57:0.80466661 58:0.95590658 59:1 60:0.99608087 
0 1 0 1:-1 2:-0.94162985 3:-0.86617138 4:-0.75330225 5:-0.66219939 6:-0.64765071 7:-0.67281116 8:-0.65334376 9:-0.63639982 10:-0.64664522 11:-0.62364067 12:-0.65296289 13:-0.57902814 14:-0.53558133 15:-0.48638871 16:-0.51409172 17:-0.59629184 18:-0.66460152 19:-0.68465051 20:-0.87303291 21:-0.10736639 22:-0.022312169 23:0.053590649 24:0.09638692 25:0.13972151 26:0.14725796 27:0.13945235 28:0.14591216 29:0.15317945 30:0.14994955 31:0.16152338 32:0.15129534 33:0.17928787 34:0.21993087 35:0.25680564 36:0.23715704 37:0.1967832 38:0.13272338 39:0.098540191 40:0.023714008 41:0.78526722 42:0.89700551 43:0.97335268 44:0.94607609 45:0.94164241 46:0.94216663 47:0.95171585 48:0.94516808 49:0.94275873 50:0.94654431 51:0.94668743 52:0.95555358 53:0.93760388 54:0.97544306 55:1 56:0.9884058 57:0.98985824 58:0.93004827 59:0.88173089 60:0.92046092 
1 1 0 1:-0.29898317 2:-0.28386621 3:-0.27070878 4:-0.27866461 5:-0.26080096 6:-0.28357046 7:-0.22615812 8:-0.19242049 9:-0.1542211 10:-0.17573323 11:-0.23956385 12:-0.29260817 13:-0.30817675 14:-0.45446078 15:-0.59570082 16:-0.65005995 17:-0.69812303 18:-0.79486573 19:-0.91509947 20:-1 21:0.33176144 22:0.33677766 23:0.34242091 24:0.3399128 25:0.3489002 26:0.34095785 27:0.3626948 28:0.39425519 29:0.42288945 30:0.40763178 31:0.3762804 32:0.32653621 33:0.29999204 34:0.24188748 35:0.18754509 36:0.11815404 37:0.04959902 38:0.00027284897 39:-0.066819104 40:-0.11635428 41:0.96250605 42:0.95742153 43:0.9555506 44:0.95849021 45:0.95860135 46:0.96548615 47:0.95154773 48:0.98093087 49:1 50:0.99099679 51:0.99212465 52:0.94568059 53:0.90816083 54:0.93823575 55:0.970791 56:0.88636803 57:0.79732107 58:0.79541143 59:0.78146126 60:0.76729143 
0 0.45341852888512141 0 1:-0.93335163 2:-0.94423912 3:-0.95567873 4:-0.96143151 5:-0.99920892 6:-0.99817683 7:-0.99684549 8:-1 9:-0.9653528 10:-0.92949344 11:-0.92752702 12:-0.92674808 13:-0.92386007 14:-0.92422598 15:-0.87666877 16:-0.81963581 17:-0.77362498 18:-0.75654913 19:-0.96797971 20:-0.9947057 21:-0.032720069 22:-0.041880224 23:-0.057005132 24:-0.049762219 25:-0.012056462 26:-0.014186731 27:0.0015772573 28:-0.019512403 29:-0.045075627 30:-0.067869503 31:-0.079585981 32:-0.078094793 33:-0.059561455 34:-0.065526207 35:-0.038258768 36:-0.014399758 37:0.0098853053 38:0.015210977 39:-0.023346887 40:-0.029311639 41:0.86791149 42:0.86047867 43:0.84166846 44:0.86190708 45:0.97509599 46:0.96980336 47:1 48:0.96097519 49:0.87520154 50:0.79375443 51:0.76835506 52:0.77055849 53:0.80473716 54:0.79317357 55:0.80015124 56:0.79083629 57:0.79339559 58:0.78697108 59:0.92128594 60:0.93608242 
0.61467486457486964 0 0 1:-0.98213351 2:-0.99132597 3:-1 4:-0.99554194 5:-0.98746398 6:-0.99146095 7:-0.98638998 8:-0.98720221 9:-0.96739825 10:-0.95022013 11:-0.8856803 12:-0.55223919 13:-0.24164008 14:-0.14071871 15:-0.12748817 16:-0.13060984 17:-0.12962876 18:-0.13385401 19:-0.22950181 20:-0.21571368 21:-0.2483784 22:-0.23423546 23:-0.21992213 24:-0.20151928 25:-0.18345722 26:-0.16948468 27:-0.14614032 28:-0.11291294 29:-0.077640806 30:-0.053614858 31:-0.006585342 32:0.083384166 33:0.15426923 34:0.17863597 35:0.18528145 36:0.19397169 37:0.23401493 38:0.28274842 39:0.34409126 40:0.39214316 41:0.48537672 42:0.52285505 43:0.56015574 44:0.59250339 45:0.62054955 46:0.65249159 47:0.69410935 48:0.76137633 49:0.81211664 50:0.84299041 51:0.87250961 52:0.71900752 53:0.55017855 54:0.49799066 55:0.49805107 56:0.51855321 57:0.59765862 58:0.69935084 59:0.91768434 60:1 
1 0.86188666889752241 0 1:-0.99165644 2:-1 3:-0.99571179 4:-0.98794159 5:-0.99178627 6:-0.9869085 7:-0.98768979 8:-0.96864033 9:-0.95211667 10:-0.89003571 11:-0.56929822 12:-0.2705325 13:-0.17345608 14:-0.1607296 15:-0.16373234 16:-0.16278864 17:-0.16685292 18:-0.25885667 19:-0.24559385 20:-0.23787163 21:-0.26340998 22:-0.24964197 23:-0.23194023 24:-0.21456631 25:-0.20112611 26:-0.17867113 27:-0.14670967 28:-0.11278135 29:-0.089670759 30:-0.044432999 31:0.042108801 32:0.11029325 33:0.13373165 34:0.14012395 35:0.1484831 36:0.18700075 37:0.23387756 38:0.29288334 39:0.33910453 40:0.38106419 41:0.46483648 42:0.50071607 43:0.53183132 44:0.55880896 45:0.58953406 46:0.62956624 47:0.69427044 48:0.74307762 49:0.77277515 50:0.80116971 51:0.65351583 52:0.491119 53:0.44091939 54:0.4409775 55:0.46069853 56:0.53679015 57:0.63460804 58:0.84462335 59:0.9238029 60:1 
0.72259488472389466 0.72507296000803434 0 1:-1 2:-0.9959116 3:-0.98850347 4:-0.992169 5:-0.98751852 6:-0.9882634 7:-0.97010158 8:-0.95434787 9:-0.89515968 10:-0.5893675 11:-0.30452327 12:-0.2119703 13:-0.19983683 14:-0.20269965 15:-0.20179992 16:-0.20567482 17:-0.2933915 18:-0.28074668 19:-0.27338429 20:-0.2828183 21:-0.28460617 22:-0.26772928 23:-0.25116492 24:-0.23835099 25:-0.21694234 26:-0.18647018 27:-0.15412281 28:-0.13208909 29:-0.088959262 30:-0.0064500238 31:0.058557255 32:0.080903507 33:0.08699794 34:0.094967582 35:0.13169044 36:0.17638295 37:0.23263925 38:0.27670668 39:0.31671116 40:0.35859085 41:0.43078766 42:0.46045305 43:0.48617362 44:0.51546702 45:0.55363384 46:0.61532304 47:0.66185597 48:0.69016969 49:0.71724116 50:0.57646746 51:0.42163778 52:0.37377731 53:0.37383271 54:0.39263481 55:0.46518081 56:0.55844071 57:0.75867 58:0.83416005 59:0.90680661 60:1 
0 1 0 1:-1 2:-0.99292983 3:-0.99642814 4:-0.99198982 5:-0.99270072 6:-0.97536746 7:-0.96033246 8:-0.9038445 9:-0.61200293 10:-0.34015363 11:-0.25182304 12:-0.24024311 13:-0.24297533 14:-0.24211664 15:-0.24581476 16:-0.32952971 17:-0.31746176 18:-0.31043525 19:-0.31943887 20:-0.32748633 21:-0.30503823 22:-0.28922956 23:-0.27700021 24:-0.25656825 25:-0.22748627 26:-0.19661462 27:-0.17558611 28:-0.13442391 29:-0.055678845 30:0.0063627238 31:0.027689513 32:0.03350591 33:0.041111968 34:0.076159489 35:0.11881307 36:0.17250289 37:0.21455991 38:0.25273934 39:0.29270843 40:0.33625683 41:0.38992355 42:0.41447072 43:0.44242772 44:0.47885332 45:0.53772819 46:0.58213822 47:0.60916024 48:0.63499668 49:0.50064524 50:0.35287908 51:0.30720206 52:0.30725493 53:0.32519926 54:0.39443562 55:0.4834409 56:0.67453548 57:0.74658158 58:0.81591393 59:0.90485572 60:1 
1 0.23443368408085591 0 1:-1 2:-0.96461552 3:-0.78180374 4:-0.61151527 5:-0.55618432 6:-0.54893056 7:-0.55064204 8:-0.55010416 9:-0.55242069 10:-0.60486037 11:-0.59730091 12:-0.59289945 13:-0.59853939 14:-0.60358038 15:-0.65872735 16:-0.69502117 17:-0.71729549 18:-0.72024299 19:-0.7246749 20:-0.72988439 21:-0.50842892 22:-0.48264461 23:-0.4333181 24:-0.39445479 25:-0.38109553 26:-0.3774521 27:-0.3726876 28:-0.35073357 29:-0.32401504 30:-0.29038333 31:-0.26403849 32:-0.24012261 33:-0.21508567 34:-0.18780662 35:-0.13819984 36:-0.083268048 37:-0.030298104 38:0.023045526 39:0.073586514 40:0.13505781 41:-0.016857848 42:-0.00067370856 43:-0.08483247 44:-0.17739431 45:-0.20600674 46:-0.20597363 47:-0.19473316 48:-0.15136298 49:-0.095609401 50:0.0240937 51:0.069223926 52:0.11265423 53:0.16836805 54:0.22796715 55:0.38232767 56:0.52848508 57:0.65669928 58:0.76633404 59:0.87184793 60:1 
1 0 0 1:-1 2:-0.82308742 3:-0.65829403 4:-0.60474856 5:-0.59772888 6:-0.59938513 7:-0.5988646 8:-0.60110638 9:-0.65185387 10:-0.64453835 11:-0.64027893 12:-0.64573686 13:-0.65061519 14:-0.70398261 15:-0.73910526 16:-0.7606608 17:-0.76351319 18:-0.76780208 19:-0.77284346 20:-0.74686322 21:-0.53358193 22:-0.48584715 23:-0.44823792 24:-0.43530975 25:-0.43178389 26:-0.42717314 27:-0.40592755 28:-0.38007121 29:-0.34752477 30:-0.32203006 31:-0.29888592 32:-0.2746569 33:-0.24825812 34:-0.20025212 35:-0.14709294 36:-0.09583229 37:-0.044210018 38:0.0047000506 39:0.064187713 40:0.12656839 41:-0.067163852 42:-0.14860687 43:-0.23818182 44:-0.26587095 45:-0.2658389 46:-0.25496116 47:-0.2129905 48:-0.15903604 49:-0.043195669 50:0.00047824012 51:0.042507083 52:0.096423057 53:0.15409894 54:0.30347837 55:0.44491939 56:0.56899621 57:0.67509315 58:0.77720219 59:0.90121889 60:1 
1 0 0 1:-0.71484192 2:-0.62587354 3:-0.56835505 4:-0.50708223 5:-0.45796596 6:-0.49360426 7:-0.58587961 8:-0.57855602 9:-0.60156993 10:-0.63660462 11:-0.63695402 12:-0.63906719 13:-0.64105011 14:-0.64343225 15:-0.74011838 16:-0.85946941 17:-0.90844909 18:-0.96011931 19:-0.98717649 20:-1 21:-0.23870456 22:-0.21432143 23:-0.19969156 24:-0.18393631 25:-0.17405801 26:-0.17968489 27:-0.20069189 28:-0.19493997 29:-0.20781927 30:-0.2283261 31:-0.23220239 32:-0.22294931 33:-0.23057685 34:-0.22494998 35:-0.18956318 36:-0.1419223 37:-0.10691063 38:-0.069773256 39:-0.036137045 40:2.8421709e-14 41:0.2374328 42:0.19723068 43:0.16897194 44:0.13920961 45:0.10984993 46:0.13423448 47:0.18449582 48:0.18867607 49:0.18593139 50:0.17995242 51:0.17254923 52:0.19316857 53:0.17989641 54:0.19353229 55:0.36099201 56:0.5756248 57:0.69462782 58:0.8205728 59:0.9149024 60:1 
1 0.043455805254812588 0 1:-0.7846624 2:-0.90013026 3:-0.91861939 4:-0.9252997 5:-0.94498599 6:-0.95940954 7:-0.98253097 8:-0.99849709 9:-0.99397107 10:-0.97077785 11:-0.94044642 12:-0.88092483 13:-0.87890981 14:-0.87601855 15:-0.85155931 16:-0.88083158 17:-0.89343535 18:-0.92953465 19:-1 20:-0.92794223 21:0.10354435 22:0.049934872 23:0.01354932 24:-0.0010910197 25:-0.02305153 26:-0.047595629 27:-0.078598703 28:-0.11519955 29:-0.14491083 30:-0.17440681 31:-0.21143826 32:-0.2506227 33:-0.25492868 34:-0.27602799 35:-0.29691201 36:-0.28334817 37:-0.2755974 38:-0.21251475 39:-0.15438399 40:-0.081397591 41:0.9917511 42:1 43:0.94571803 44:0.92311766 45:0.89888293 46:0.86421828 47:0.82533356 48:0.76809798 49:0.70414941 50:0.62196423 51:0.5175699 52:0.37967944 53:0.36905244 54:0.32396256 55:0.25773529 56:0.31413525 57:0.34224056 58:0.50450514 59:0.69123201 60:0.76514705 
1 0 0 1:-0.98568919 2:-0.9987688 3:-0.99506104 4:-0.97606092 5:-0.95121309 6:-0.9024524 7:-0.90080167 8:-0.89843312 9:-0.87839586 10:-0.902376 11:-0.91270114 12:-0.94227406 13:-1 14:-0.94096954 15:-0.82527776 16:-0.74273904 17:-0.74626465 18:-0.83033076 19:-0.85934382 20:-0.830361 21:-0.24517859 22:-0.27516238 23:-0.29950217 24:-0.32366558 25:-0.35400212 26:-0.38610242 27:-0.38962992 28:-0.4069147 29:-0.4240231 30:-0.41291145 31:-0.40656195 32:-0.354884 33:-0.30726268 34:-0.24747147 35:-0.18291813 36:-0.12982918 37:-0.087675493 38:-0.029648036 39:0.036316308 40:0.084819502 41:0.49533201 42:0.44844403 43:0.3960567 44:0.32872976 45:0.24320885 46:0.13024757 47:0.12154183 48:0.084603731 49:0.030349674 50:0.076553093 51:0.099577253 52:0.23250607 53:0.38547464 54:0.4460266 55:0.4594415 56:0.48308068 57:0.57091366 58:0.77103468 59:0.93197643 60:1 
0 1 0 1:-1 2:-0.95018747 3:-0.85256161 4:-0.78291176 5:-0.78588683 6:-0.85682555 7:-0.88130806 8:-0.85685107 9:-0.88269782 10:-0.84794847 11:-0.79112563 12:-0.73967633 13:-0.69367111 14:-0.67199649 15:-0.64787495 16:-0.57311577 17:-0.51859474 18:-0.55393948 19:-0.58226189 20:-0.69649948 21:-0.41543745 22:-0.36498297 23:-0.31050999 24:-0.26571117 25:-0.23014002 26:-0.18117387 27:-0.12551023 28:-0.084581076 29:-0.0089737715 30:0.058447703 31:0.10443719 32:0.12914351 33:0.14402684 34:0.150129 35:0.15786833 36:0.17989566 37:0.19522549 38:0.18421182 39:0.17572833 40:0.13762701 41:0.1691251 42:0.22022153 43:0.23154162 44:0.25148941 45:0.32560678 46:0.4944778 47:0.6302876 48:0.68768891 49:0.86475028 50:0.96484388 51:1 52:0.99796335 53:0.98172478 54:0.97225449 55:0.96361162 56:0.93290709 57:0.90904571 58:0.92236312 59:0.93371854 60:0.97175349 
1 1 0 1:-0.68122406 2:-0.74549414 3:-0.76767516 4:-0.74551726 5:-0.76893428 6:-0.73745156 7:-0.68597039 8:-0.63935761 9:-0.59767714 10:-0.57804006 11:-0.55618608 12:-0.48845469 13:-0.43905894 14:-0.47108107 15:-0.49674102 16:-0.60023963 17:-0.76504539 18:-0.88942687 19:-0.93679408 20:-1 21:-0.1777206 22:-0.13335754 23:-0.082926594 24:-0.045845014 25:0.022654777 26:0.083738252 27:0.12540446 28:0.14778825 29:0.16127246 30:0.16680099 31:0.17381278 32:0.19376941 33:0.20765815 34:0.19767983 35:0.18999383 36:0.15547425 37:0.10059352 38:0.055286567 39:0.028857514 40:-0.0037742765 41:0.32578287 42:0.47877906 43:0.60182197 44:0.65382723 45:0.81424383 46:0.90492806 47:0.93677931 48:0.93493412 49:0.92022207 50:0.91164204 51:0.90381164 52:0.87599351 53:0.85437524 54:0.86644074 55:0.87672868 56:0.91118814 57:0.96623242 58:1 59:0.99450911 60:0.99245145 
0 1 0 1:-0.40771398 2:-0.43903862 3:-0.46413965 4:-0.5653839 5:-0.72659994 6:-0.84827219 7:-0.89460767 8:-0.95643687 9:-0.98960809 10:-1 11:-0.97642136 12:-0.97190033 13:-0.88089537 14:-0.78309579 15:-0.71721068 16:-0.80285614 17:-0.80865998 18:-0.81096055 19:-0.81412268 20:-0.87541569 21:0.2249166 22:0.21515562 23:0.20763704 24:0.17386935 25:0.120184 26:0.075863906 27:0.050010519 28:0.0180895 29:-0.011852943 30:-0.060393996 31:-0.0919193 32:-0.11526649 33:-0.16961137 34:-0.21551432 35:-0.24664391 36:-0.29821878 37:-0.31233261 38:-0.30389069 39:-0.29953783 40:-0.27619063 41:0.85754718 42:0.86934987 43:0.87941373 44:0.9131226 45:0.96696793 46:1 47:0.99462871 48:0.99261587 49:0.96590221 50:0.87921201 51:0.79258276 52:0.74136734 53:0.54167264 54:0.35206715 55:0.22392287 56:0.20641859 57:0.18399475 58:0.20317917 59:0.21504703 60:0.32303442 
0 0.47640439766072851 0 1:-0.43903862 2:-0.46413965 3:-0.5653839 4:-0.72659994 5:-0.84827219 6:-0.89460767 7:-0.95643687 8:-0.98960809 9:-1 10:-0.97642136 11:-0.97190033 12:-0.88089537 13:-0.78309579 14:-0.71721068 15:-0.80285614 16:-0.80865998 17:-0.81096055 18:-0.81412268 19:-0.87541569 20:-0.90804884 21:0.21515562 22:0.20763704 23:0.17386935 24:0.120184 25:0.075863906 26:0.050010519 27:0.0180895 28:-0.011852943 29:-0.060393996 30:-0.0919193 31:-0.11526649 32:-0.16961137 33:-0.21551432 34:-0.24664391 35:-0.29821878 36:-0.31233261 37:-0.30389069 38:-0.29953783 39:-0.27619063 40:-0.25587726 41:0.86934987 42:0.87941373 43:0.9131226 44:0.96696793 45:1 46:0.99462871 47:0.99261587 48:0.96590221 49:0.87921201 50:0.79258276 51:0.74136734 52:0.54167264 53:0.35206715 54:0.22392287 55:0.20641859 56:0.18399475 57:0.20317917 58:0.21504703 59:0.32303442 60:0.39629432 
0.76344103556587339 1 0 1:-0.46413965 2:-0.5653839 3:-0.72659994 4:-0.84827219 5:-0.89460767 6:-0.95643687 7:-0.98960809 8:-1 9:-0.97642136 10:-0.97190033 11:-0.88089537 12:-0.78309579 13:-0.71721068 14:-0.80285614 15:-0.80865998 16:-0.81096055 17:-0.81412268 18:-0.87541569 19:-0.90804884 20:-0.91448042 21:0.20763704 22:0.17386935 23:0.120184 24:0.075863906 25:0.050010519 26:0.0180895 27:-0.011852943 28:-0.060393996 29:-0.0919193 30:-0.11526649 31:-0.16961137 32:-0.21551432 33:-0.24664391 34:-0.29821878 35:-0.31233261 36:-0.30389069 37:-0.29953783 38:-0.27619063 39:-0.25587726 40:-0.23530007 41:0.87941373 42:0.9131226 43:0.96696793 44:1 45:0.99462871 46:0.99261587 47:0.96590221 48:0.87921201 49:0.79258276 50:0.74136734 51:0.54167264 52:0.35206715 53:0.22392287 54:0.20641859 55:0.18399475 56:0.20317917 57:0.21504703 58:0.32303442 59:0.39629432 60:0.44388028 
1 1 1 1:-1 2:-0.752681 3:-0.26657761 4:-0.28382174 5:-0.32552382 6:-0.32592052 7:-0.34971453 8:-0.36052742 9:-0.36100327 10:-0.36417925 11:-0.36397662 12:-0.37794185 13:-0.38816745 14:-0.38869979 15:-0.38808624 16:-0.35672106 17:-0.35410206 18:-0.32200293 19:-0.31483597 20:-0.32867216 21:0 22:0.057134915 23:0.13072469 24:0.11244151 25:0.092177663 26:0.092025303 27:0.082731357 28:0.078617643 29:0.078465283 30:0.076332247 31:0.076789326 32:0.062467507 33:0.056068397 34:0.055306598 35:0.054240079 36:0.042813096 37:0.0054849519 38:-0.019502051 39:-0.031690833 40:-0.024072844 41:1 42:0.86695083 43:0.52802698 44:0.50870477 45:0.50987914 46:0.50997113 47:0.51517725 48:0.5177627 49:0.51793384 50:0.51684374 51:0.51755528 52:0.50287687 53:0.50030425 54:0.49931299 55:0.4965664 56:0.44234726 57:0.36507197 58:0.28299883 59:0.2514543 60:0.28052647 
0 1 0 1:0.10126438 2:0.067066044 3:0.047609039 4:-0.01107381 5:-0.068946451 6:-0.11079474 7:-0.13170868 8:-0.15535304 9:-0.15908053 10:-0.17067871 11:-0.17068631 12:-0.19820578 13:-0.31239081 14:-0.39721385 15:-0.44645179 16:-0.49432953 17:-0.5870737 18:-0.69958971 19:-0.86534246 20:-1 21:0.55063219 22:0.52049252 23:0.49136594 24:0.45856689 25:0.42982022 26:0.40499932 27:0.37916531 28:0.36941424 29:0.36713477 30:0.35383786 31:0.33762828 32:0.29393842 33:0.23619182 34:0.17578584 35:0.12145845 36:0.066244596 37:0.021288362 38:-0.035445139 39:-0.11231397 40:-0.16423525 41:1 42:0.97391899 43:0.93512284 44:0.92820758 45:0.9285869 46:0.92079337 47:0.89003931 48:0.89418152 49:0.89335008 50:0.87835442 51:0.84594288 52:0.78608263 53:0.78477446 54:0.74878554 55:0.68936869 56:0.62681872 57:0.62965042 58:0.62869943 59:0.64071453 60:0.6715295 
0 1 0 1:-1 2:-0.99633727 3:-0.94406411 4:-0.93529841 5:-0.95160938 6:-0.93086739 7:-0.9130186 8:-0.90854338 9:-0.77858637 10:-0.69326489 11:-0.60638739 12:-0.60764992 13:-0.61594892 14:-0.61996983 15:-0.63184037 16:-0.61978849 17:-0.62676831 18:-0.64201965 19:-0.67998991 20:-0.71033976 21:0 22:-0.053325492 23:-0.10962729 24:-0.1039227 25:-0.14980743 26:-0.17981852 27:-0.17287381 28:-0.17064158 29:-0.13418182 30:-0.10268258 31:-0.082840532 32:-0.083336583 33:-0.08854512 34:-0.080608302 35:-0.067710974 36:-0.074407664 37:-0.071679383 38:-0.064734667 39:-0.049109058 40:-0.02728281 41:1 42:0.88968629 43:0.72480953 44:0.72745301 45:0.65199452 46:0.57123035 47:0.56727099 48:0.56726023 49:0.51022273 50:0.48789974 51:0.44070632 52:0.44097675 53:0.43885868 54:0.45875323 55:0.49641843 56:0.47097316 57:0.48340955 58:0.51255032 59:0.5817718 60:0.65577414 
0 1 0 1:-1 2:-0.94456786 3:-0.93527243 4:-0.95256911 5:-0.93057364 6:-0.9116462 7:-0.90690053 8:-0.76908994 9:-0.6786123 10:-0.58648461 11:-0.58782344 12:-0.59662396 13:-0.60088787 14:-0.61347577 15:-0.60069556 16:-0.6080972 17:-0.62427021 18:-0.66453509 19:-0.69671905 20:-0.69732566 21:0 22:-0.059704237 23:-0.053654909 24:-0.10231255 25:-0.13413727 26:-0.12677287 27:-0.12440574 28:-0.085742649 29:-0.052339838 30:-0.031298697 31:-0.031824725 32:-0.037348025 33:-0.028931569 34:-0.015254827 35:-0.022356212 36:-0.019463055 37:-0.012098656 38:0.0044712424 39:0.027616497 40:0.069698779 41:1 42:0.82515939 43:0.82796261 44:0.74794401 45:0.66229909 46:0.65810046 47:0.65808904 48:0.59760464 49:0.57393263 50:0.52388722 51:0.52417399 52:0.52192791 53:0.54302473 54:0.58296612 55:0.55598314 56:0.56917109 57:0.60007289 58:0.67347758 59:0.75195204 60:0.83672322 
1 0 0 1:-1 2:-0.98767554 3:-0.98431963 4:-0.96430954 5:-0.94112906 6:-0.91053142 7:-0.81750426 8:-0.71212663 9:-0.68184946 10:-0.63710669 11:-0.63198404 12:-0.62574277 13:-0.67961423 14:-0.68228303 15:-0.71274267 16:-0.77594775 17:-0.85104712 18:-0.89608397 19:-0.89413556 20:-0.89392736 21:-0.51466835 22:-0.47668068 23:-0.46289256 24:-0.45290321 25:-0.43222103 26:-0.40900634 27:-0.37355118 28:-0.35258761 29:-0.34245757 30:-0.33204613 31:-0.32824736 32:-0.3157255 33:-0.28266215 34:-0.25367897 35:-0.19585329 36:-0.13901247 37:-0.080483315 38:-0.028285439 39:0.015752123 40:0.053036321 41:-0.029336701 42:0.034314189 43:0.058534516 44:0.058503127 45:0.076687002 46:0.092518733 47:0.070401905 48:0.0069514065 49:-0.0030656699 50:-0.026985568 51:-0.024510685 52:-0.0057082276 53:0.11428992 54:0.1749251 55:0.3210361 56:0.49792281 57:0.69008049 58:0.83951309 59:0.92563981 60:1 
1 0 0 1:-1 2:-0.99501616 3:-0.97836427 4:-0.93031216 5:-0.90027623 6:-0.88402054 7:-0.84597259 8:-0.76071803 9:-0.68408652 10:-0.58329406 11:-0.49240565 12:-0.41089079 13:-0.38280658 14:-0.33500509 15:-0.48179049 16:-0.61330357 17:-0.64776607 18:-0.68712835 19:-0.69616135 20:-0.68437529 21:-0.45413715 22:-0.43663918 23:-0.41003268 24:-0.37943121 25:-0.3538634 26:-0.31607098 27:-0.29641573 28:-0.26589416 29:-0.24008665 30:-0.21531784 31:-0.18000231 32:-0.14844204 33:-0.13086417 34:-0.10505667 35:-0.059034614 36:-0.0067804069 37:0.027096939 38:0.068804425 39:0.11506618 40:0.15781236 41:0.091725706 42:0.1217378 43:0.15829891 44:0.17144975 45:0.19254943 46:0.25187857 47:0.25314112 48:0.22892971 49:0.20391321 50:0.15265838 51:0.13240104 52:0.1140067 53:0.12107823 54:0.12489175 55:0.36372126 56:0.59974275 57:0.70195994 58:0.8247372 59:0.9262937 60:1 
1 0 0 1:-1 2:-0.98392041 3:-0.93751976 4:-0.9085161 5:-0.89281909 6:-0.85607877 7:-0.77375425 8:-0.69975642 9:-0.602428 10:-0.51466325 11:-0.43594989 12:-0.40883089 13:-0.36267224 14:-0.50441291 15:-0.63140614 16:-0.66468423 17:-0.70269371 18:-0.71141626 19:-0.70003526 20:-0.67606205 21:-0.46081336 22:-0.43512128 23:-0.40557152 24:-0.38088243 25:-0.34438886 26:-0.32540913 27:-0.29593652 28:-0.27101597 29:-0.24709841 30:-0.2129966 31:-0.18252101 32:-0.16554726 33:-0.1406267 34:-0.096186339 35:-0.045728008 36:-0.013014961 37:0.02725912 38:0.071930945 39:0.11320802 40:0.16196898 41:0.078373275 42:0.11367786 43:0.12637672 44:0.14675125 45:0.20404136 46:0.20526052 47:0.1818812 48:0.15772448 49:0.10823117 50:0.088670038 51:0.07090788 52:0.077736378 53:0.08141883 54:0.31204023 55:0.53995012 56:0.6386543 57:0.75721195 58:0.85527815 59:0.9264513 60:1 
0 1 0 1:-1 2:-0.75194008 3:-0.41024034 4:-0.47017557 5:-0.53398613 6:-0.55484397 7:-0.62429017 8:-0.6729349 9:-0.72418194 10:-0.79048963 11:-0.8722401 12:-0.90760752 13:-0.90845796 14:-0.95440998 15:-0.95044626 16:-0.91616938 17:-0.87072506 18:-0.81976216 19:-0.80836547 20:-0.88759857 21:0 22:0.041001279 23:0.096182168 24:0.076194044 25:0.027334186 26:0.018450576 27:-0.017425544 28:-0.04732231 29:-0.071752239 30:-0.11104513 31:-0.15341312 32:-0.18980176 33:-0.22550704 34:-0.27761283 35:-0.32032249 36:-0.34423991 37:-0.36815732 38:-0.38780377 39:-0.39890828 40:-0.37840764 41:1 42:0.83394264 43:0.60260468 44:0.62256365 45:0.58865451 46:0.59174512 47:0.58943908 48:0.57829028 49:0.58067746 50:0.56839937 51:0.56541386 52:0.52800401 53:0.45744389 54:0.39918433 55:0.30980128 56:0.22768956 57:0.13441042 58:0.044154623 59:0.010548912 60:0.13078329 
0 1 0 1:-0.77356825 2:-0.39142915 3:-0.45845756 4:-0.52981996 5:-0.55314627 6:-0.63081127 7:-0.68521299 8:-0.742525 9:-0.81668006 10:-0.9081055 11:-0.94765857 12:-0.94860967 13:-1 14:-0.99556718 15:-0.95723371 16:-0.90641116 17:-0.84941691 18:-0.83667146 19:-0.92528161 20:-0.92119107 21:0.11321587 22:0.17492729 23:0.15257362 24:0.097931311 25:0.087996346 26:0.047874371 27:0.014439392 28:-0.012881762 29:-0.056824877 30:-0.10420702 31:-0.14490216 32:-0.18483308 33:-0.24310547 34:-0.29086973 35:-0.31761771 36:-0.3443657 37:-0.36633725 38:-0.37875596 39:-0.35582912 40:-0.36060554 41:1 42:0.74128373 43:0.7636048 44:0.72568259 45:0.72913896 46:0.72656001 47:0.71409178 48:0.71676148 49:0.7030303 50:0.69969146 51:0.65785424 52:0.5789435 53:0.51378905 54:0.41382772 55:0.32199828 56:0.21767977 57:0.11674241 58:0.079159538 59:0.21362338 60:0.19997998 
0.061326467247926619 1 0 1:-0.30985575 2:-0.38586872 3:-0.4667966 4:-0.49324959 5:-0.58132487 6:-0.64301865 7:-0.70801282 8:-0.79210768 9:-0.89578788 10:-0.94064268 11:-0.94172126 12:-1 13:-0.994973 14:-0.95150128 15:-0.89386643 16:-0.82923262 17:-0.81477875 18:-0.91526629 19:-0.91062745 20:-0.89917249 21:0.33241562 22:0.30706564 23:0.24509903 24:0.23383237 25:0.18833241 26:0.15041577 27:0.11943247 28:0.069599178 29:0.015865891 30:-0.03028407 31:-0.075567364 32:-0.14165064 33:-0.19581726 34:-0.22615057 35:-0.25648387 36:-0.28140052 37:-0.29548384 38:-0.26948386 39:-0.27490053 40:-0.21856724 41:0.97468699 42:1 43:0.95699465 44:0.96091433 45:0.95798969 46:0.9438502 47:0.94687776 48:0.93130604 49:0.92751966 50:0.88007454 51:0.79058653 52:0.71669872 53:0.60333848 54:0.49920014 55:0.38089868 56:0.26643158 57:0.22381107 58:0.37629857 59:0.3608264 60:0.46203801 
0.38620271241493087 0 0 1:-0.6531688 2:-0.71581239 3:-0.7930454 4:-0.82645844 5:-0.8272619 6:-0.87067465 7:-0.86692996 8:-0.83454718 9:-0.79161408 10:-0.74346734 11:-0.73270042 12:-0.80755518 13:-0.80409963 14:-0.79556665 15:-0.83241877 16:-0.87213009 17:-0.93437617 18:-0.9771508 19:-1 20:-0.99611236 21:-0.036791768 22:-0.073913371 23:-0.11394014 24:-0.14831798 25:-0.18205021 26:-0.23127669 27:-0.27162626 28:-0.29422202 29:-0.31681777 30:-0.33537858 31:-0.34586946 32:-0.32650167 33:-0.33053663 34:-0.28857308 35:-0.26436333 36:-0.22562775 37:-0.16671738 38:-0.12071887 39:-0.05535257 40:0.0019438179 41:0.57958526 42:0.56798565 43:0.56516511 44:0.52982249 45:0.46316147 46:0.40812127 47:0.32367745 48:0.24610315 49:0.15797853 50:0.072710186 51:0.040961496 52:0.15455184 53:0.14302637 54:0.2184205 55:0.3036921 56:0.42087459 57:0.60094141 58:0.73571306 59:0.88929486 60:1 
1 0.45621085111375054 0 1:-0.72623258 2:-0.80063372 3:-0.83282162 4:-0.83359561 5:-0.87541657 6:-0.87180919 7:-0.84061378 8:-0.79925488 9:-0.75287352 10:-0.74250139 11:-0.81461147 12:-0.81128263 13:-0.80306252 14:-0.8385634 15:-0.87681864 16:-0.93678237 17:-0.9779886 18:-1 19:-0.99625491 20:-0.96386146 21:-0.10786981 22:-0.14642894 23:-0.17954625 24:-0.21204165 25:-0.25946315 26:-0.29833324 27:-0.32010049 28:-0.34186774 29:-0.35974798 30:-0.3698542 31:-0.35119656 32:-0.35508357 33:-0.31465868 34:-0.29133662 35:-0.25402134 36:-0.19727101 37:-0.15295911 38:-0.089989571 39:-0.034794047 40:0.018069272 41:0.51049296 42:0.50777584 43:0.47372911 44:0.40951232 45:0.35649026 46:0.27514271 47:0.2004128 48:0.11551941 49:0.033377559 50:0.0027929853 51:0.11221835 52:0.10111549 53:0.17374517 54:0.25589015 55:0.36877596 56:0.54224034 57:0.67207037 58:0.82002086 59:0.92666682 60:1 
0 1 0 1:-0.93894866 2:-0.97874287 3:-1 4:-0.99638324 5:-0.96509983 6:-0.90907087 7:-0.80749335 8:-0.72696783 9:-0.6612563 10:-0.51736029 11:-0.3928843 12:-0.32572363 13:-0.25195128 14:-0.17444344 15:-0.045383956 16:-0.038028732 17:0.09599735 18:0.14783035 19:0.18158187 20:0.13767149 21:-0.22477836 22:-0.18198491 23:-0.12117316 24:-0.067869038 25:-0.016817202 26:0.04249302 27:0.094295619 28:0.13633831 29:0.16937185 30:0.21141454 31:0.25495875 32:0.28799229 33:0.32928422 34:0.36682233 35:0.40210816 36:0.40661273 37:0.44640314 38:0.46667372 39:0.48919659 40:0.52448242 41:0.48939195 42:0.61477306 43:0.75765368 44:0.86064517 45:0.93146542 46:0.99405691 47:0.99608459 48:0.99964444 49:1 50:0.94018937 51:0.9028018 52:0.90170821 53:0.91051972 54:0.90808811 55:0.84960028 56:0.8512542 57:0.79680892 58:0.78551709 59:0.7968113 60:0.91129334 
0 1 0 1:-1 2:-0.84042371 3:-0.70238362 4:-0.62790449 5:-0.5460932 6:-0.46013937 7:-0.31701633 8:-0.30885961 9:-0.16022877 10:-0.10274755 11:-0.065318141 12:-0.11401341 13:-0.11541436 14:-0.12134681 15:-0.11844328 16:-0.12321336 17:-0.12822665 18:-0.1278373 19:-0.1134344 20:-0.14697433 21:-0.078858685 22:-0.032234624 23:0.016054582 24:0.052687773 25:0.098479262 26:0.14010789 27:0.1792388 28:0.18423423 29:0.22836057 30:0.25084003 31:0.27581721 32:0.31494812 33:0.31827841 34:0.32910185 35:0.32410641 36:0.33076699 37:0.34492073 38:0.34658587 39:0.37489334 40:0.42651283 41:0.84228263 42:0.77595446 43:0.73449279 44:0.73328003 45:0.74305172 46:0.74035514 47:0.67549392 48:0.67732807 49:0.61694992 50:0.60442761 51:0.61695256 52:0.74390965 53:0.75197118 54:0.77955051 55:0.76665611 56:0.78474734 57:0.81806811 58:0.82100904 59:0.86322107 60:1 
1 1 0 1:-0.21855994 2:-0.25321057 3:-0.29531862 4:-0.30017027 5:-0.3333388 6:-0.3828849 7:-0.40410886 8:-0.41812816 9:-0.40717453 10:-0.35957908 11:-0.33890414 12:-0.32857532 13:-0.34165953 14:-0.33951917 15:-0.43986039 16:-0.59767496 17:-0.66251027 18:-0.76724365 19:-0.87890717 20:-1 21:0.38569523 22:0.37156195 23:0.35234069 24:0.34951403 25:0.3325541 26:0.30824486 27:0.29693824 28:0.28280496 29:0.26584502 30:0.23362115 31:0.22231452 32:0.26527969 33:0.28280496 34:0.28619694 35:0.25736506 36:0.19800529 37:0.14486416 38:0.079851075 39:0.0052273639 40:-0.039999128 41:0.9899504 42:0.99633446 43:1 44:0.99919833 45:0.998447 46:0.99937461 47:0.99798533 48:0.98373807 49:0.93886457 50:0.82682137 51:0.78353319 52:0.8591347 53:0.90726945 54:0.91191306 55:0.95459051 56:0.99368553 57:0.95223859 58:0.9269458 59:0.8893619 60:0.92000174 
0.25509782050179003 0.20773131264347905 0 1:-0.10224286 2:-0.12998757 3:-0.17143173 4:-0.18918509 5:-0.20091191 6:-0.19174945 7:-0.15193695 8:-0.13464285 9:-0.12600303 10:-0.13694767 11:-0.13515731 12:-0.21909042 13:-0.35109866 14:-0.4053319 15:-0.49293896 16:-0.58634292 17:-0.68763427 18:-0.78531678 19:-0.9043757 20:-1 21:0.44120306 22:0.42701647 23:0.40668235 24:0.39722462 25:0.38540246 26:0.37121586 27:0.34426134 28:0.33480361 29:0.37074298 30:0.38540246 31:0.38823978 32:0.36412257 33:0.31446949 34:0.27001816 35:0.21563622 36:0.15321521 37:0.11538429 38:0.08795688 39:0.042086894 40:-2.1538327e-14 41:0.98464898 42:0.9840205 43:0.98479643 44:0.98363433 45:0.97171682 46:0.93418118 47:0.84045963 48:0.80425007 49:0.86748898 50:0.90775259 51:0.91163686 52:0.94733556 53:0.98003764 54:0.94536823 55:0.9242114 56:0.89277334 57:0.91840286 58:0.96123054 59:0.98854949 60:1 
1 0 0 1:-0.090010718 2:-0.084282881 3:-0.072149131 4:-0.059985525 5:-0.065532016 6:-0.066902573 7:-0.072972548 8:-0.026860258 9:-0.014180346 10:-0.0075303538 11:-0.0040366968 12:0.015271252 13:0.011959145 14:0.011959145 15:-0.0019446611 16:-0.42556201 17:-0.61757823 18:-0.75552723 19:-0.91049573 20:-1 21:0.22891563 22:0.22565197 23:0.23684165 24:0.22938186 25:0.23917283 26:0.25082875 27:0.25688983 28:0.27647177 29:0.28113414 30:0.28299908 31:0.28393156 32:0.28812769 33:0.28719521 34:0.28719521 35:0.28346532 36:0.22005713 37:0.16364249 38:0.10676161 39:0.044752134 40:-0.0083988483 41:0.54784197 42:0.53558682 43:0.54583243 44:0.51874925 45:0.54387768 46:0.56856007 47:0.5867522 48:0.5798038 49:0.57644862 50:0.57352852 51:0.57189981 52:0.56098412 53:0.56243128 54:0.56243128 55:0.5688753 56:0.86567627 57:0.94486321 58:0.96905046 59:1 60:0.9832023 
1 0 0 1:0.0022378572 2:0.013349391 3:0.024488265 4:0.019409042 5:0.018153948 6:0.012595343 7:0.054822869 8:0.066434553 9:0.072524312 10:0.075723643 11:0.093404979 12:0.090371904 13:0.090371904 14:0.077639434 15:-0.31028996 16:-0.48612964 17:-0.61245702 18:-0.75437009 19:-0.836334 20:-1 21:0.28606202 22:0.29630902 23:0.28947769 24:0.29844381 25:0.30911776 26:0.31466822 27:0.33260047 28:0.33687005 29:0.33857788 30:0.3394318 31:0.34327442 32:0.34242051 33:0.34242051 34:0.33900484 35:0.28093852 36:0.22927657 37:0.17718767 38:0.12040222 39:0.071728984 40:-1.9428903e-14 41:0.56988618 42:0.57926864 43:0.55446711 44:0.57747858 45:0.60008158 46:0.6167411 47:0.61037807 48:0.60730555 49:0.60463146 50:0.60313996 51:0.59314387 52:0.59446911 53:0.59446911 54:0.60037025 55:0.87216701 56:0.94468279 57:0.96683236 58:0.99517454 59:0.97979197 60:1 
1 0 0 1:0.071457726 2:0.081940582 3:0.077160497 4:0.075979322 5:0.070748088 6:0.11048864 7:0.12141646 8:0.12714757 9:0.13015848 10:0.14679848 11:0.14394403 12:0.14394403 13:0.13196144 14:-0.23312104 15:-0.39860471 16:-0.5174921 17:-0.65104727 18:-0.72818395 19:-0.88221092 20:-1 21:0.33775258 22:0.33132357 23:0.33976164 24:0.34980696 25:0.35503052 26:0.37190666 27:0.37592479 28:0.37753204 29:0.37833566 30:0.38195198 31:0.38114835 32:0.38114835 33:0.37793385 34:0.32328732 35:0.27466798 36:0.22564682 37:0.17220573 38:0.12639908 39:0.058894542 40:-0.0066009329 41:0.60404743 42:0.58070656 43:0.60236278 44:0.62363459 45:0.63931296 46:0.63332467 47:0.63043311 48:0.6279165 49:0.62651285 50:0.61710547 51:0.61835267 52:0.61835267 53:0.62390626 54:0.87969567 55:0.94794067 56:0.96878575 57:0.99545873 58:0.98098212 59:1 60:0.98679813 
1 0 0 1:0.15045436 2:0.14603101 3:0.14493798 4:0.14009715 5:0.17687191 6:0.1869842 7:0.1922876 8:0.1950738 9:0.21047198 10:0.20783056 11:0.20783056 12:0.19674221 13:-0.14109455 14:-0.29422836 15:-0.40424332 16:-0.5278314 17:-0.59921146 18:-0.74174356 19:-0.85074217 20:-1 21:0.38122617 22:0.38903451 23:0.39833016 24:0.40316389 25:0.41878058 26:0.42249884 27:0.42398614 28:0.4247298 29:0.42807623 30:0.42733258 31:0.42733258 32:0.42435797 33:0.37378965 34:0.32879872 35:0.28343596 36:0.23398312 37:0.19159497 38:0.12912822 39:0.068520601 40:-0.0017544909 41:0.61199798 42:0.63203802 43:0.65172233 44:0.66623064 45:0.66068925 46:0.65801348 47:0.65568469 48:0.65438579 49:0.64568048 50:0.64683459 51:0.64683459 52:0.65197373 53:0.88867385 54:0.9518258 55:0.97111524 56:0.99579764 57:0.9824014 58:1 59:0.98778338 60:0.99649102 
0 0.78396794237182565 0 1:0.078885383 2:0.043006154 3:0.030687285 4:0.024519887 5:0.018231678 6:0.0052712455 7:0.0073350563 8:0.018061855 9:0.041437382 10:0.077545352 11:0.13394803 12:0.13337106 13:-0.061330733 14:-0.27705841 15:-0.39597302 16:-0.47437024 17:-0.55052145 18:-0.70645267 19:-0.87274827 20:-1 21:0.53944269 22:0.50691968 23:0.47811358 24:0.45240491 25:0.42886444 26:0.4030009 27:0.38085428 28:0.36025637 29:0.34074256 30:0.3215385 31:0.30295392 32:0.30156008 33:0.2628422 34:0.21034076 35:0.16697675 36:0.12361273 37:0.087217926 38:0.030844702 39:-0.027232108 40:-0.082830975 41:1 42:0.9708332 43:0.92553987 44:0.88028994 45:0.83949721 46:0.80073056 47:0.7543735 48:0.70245089 49:0.64004774 50:0.56553164 51:0.47195981 52:0.46974909 53:0.58701514 54:0.69773994 55:0.72992651 56:0.7215957 57:0.7249573 58:0.76814207 59:0.81828405 60:0.83433805 
1 0.23969422641341259 0 1:0.11488035 2:0.10312851 3:0.097244999 4:0.091246233 5:0.078882362 6:0.080851177 7:0.091084227 8:0.11338379 9:0.14782973 10:0.20163622 11:0.20108581 12:0.015346038 13:-0.1904518 14:-0.30389284 15:-0.37868147 16:-0.45132748 17:-0.60008126 18:-0.75872236 19:-0.88011677 20:-1 21:0.55744018 22:0.52996001 23:0.5054347 24:0.48297778 25:0.45830473 26:0.4371775 27:0.41752771 28:0.39891211 29:0.380592 30:0.36286286 31:0.36153317 32:0.32459746 33:0.27451264 34:0.23314464 35:0.19177665 36:0.15705708 37:0.10327869 38:0.047875121 39:-0.0051645584 40:-0.057465524 41:1 42:0.9567915 43:0.91362439 44:0.87470934 45:0.8377271 46:0.79350383 47:0.74397119 48:0.68444043 49:0.61335426 50:0.52408949 51:0.52198053 52:0.63384888 53:0.73947708 54:0.77018212 55:0.76223477 56:0.76544164 57:0.80663864 58:0.85447261 59:0.86978765 60:0.88506895 
1 0 0 1:0.19338353 2:0.18782426 3:0.18215609 4:0.17047361 5:0.17233392 6:0.18200302 7:0.20307362 8:0.2356212 9:0.28646234 10:0.28594226 11:0.11043886 12:-0.084017182 13:-0.19120633 14:-0.26187326 15:-0.33051566 16:-0.47107141 17:-0.62096959 18:-0.73567378 19:-0.84895009 20:-1 21:0.59669176 22:0.57351808 23:0.55229879 24:0.52898551 25:0.50902263 26:0.49045576 27:0.47286609 28:0.45555562 29:0.43880356 30:0.43754716 31:0.40264702 32:0.35532244 33:0.31623429 34:0.27714614 35:0.24434002 36:0.19352542 37:0.14117522 38:0.091058632 39:0.041640043 40:-0.022436602 41:1 42:0.95921189 43:0.92244149 44:0.8874974 45:0.84571133 46:0.7989085 47:0.74265856 48:0.67549005 49:0.59114478 50:0.58915205 51:0.69485518 52:0.79466207 53:0.82367492 54:0.81616555 55:0.81919569 56:0.85812226 57:0.90332004 58:0.91779105 59:0.93223018 60:0.9551268 
1 0.83619843625270862 0 1:0.25969794 2:0.25425819 3:0.2430465 4:0.24483184 5:0.25411129 6:0.27433278 7:0.30556875 8:0.35436108 9:0.35386196 10:0.18543104 11:-0.0011887644 12:-0.10405838 13:-0.17187756 14:-0.23775378 15:-0.37264539 16:-0.51650293 17:-0.62658474 18:-0.73529621 19:-0.88025908 20:-1 21:0.62984897 22:0.60948479 23:0.58711099 24:0.56795258 25:0.55013392 26:0.53325309 27:0.5166402 28:0.50056322 29:0.49935744 30:0.46586372 31:0.42044624 32:0.38293328 33:0.34542031 34:0.31393621 35:0.26516936 36:0.21492878 37:0.1668318 38:0.11940469 39:0.057910226 40:-0.0070675884 41:1 42:0.96471139 43:0.93117547 44:0.89107332 45:0.84615656 46:0.79217339 47:0.72771166 48:0.64676535 49:0.64485292 50:0.74629641 51:0.84208125 52:0.86992493 53:0.86271818 54:0.86562621 55:0.90298411 56:0.94636049 57:0.96024835 58:0.9741056 59:0.99607953 60:0.98586482 
0 1 0.74512811151543989 1:-0.99384556 2:-0.99683952 3:-1 4:-0.99910504 5:-0.98356488 6:-0.98954567 7:-0.98970289 8:-0.98991811 9:-0.96368395 10:-0.96113308 11:-0.96509358 12:-0.93454853 13:-0.6927001 14:-0.47865059 15:-0.44992281 16:-0.38048369 17:-0.16611379 18:0.010927808 19:0.016150057 20:-0.079680461 21:-0.038644998 22:-0.02994125 23:-0.014274504 24:-0.016885628 25:-0.031682 26:-0.013404129 27:-0.011663379 28:-0.013404129 29:-0.031682 30:-0.017756003 31:-0.0020892564 32:0.032725736 33:0.10235572 34:0.15109671 35:0.16502271 36:0.2033192 37:0.25989356 38:0.2860048 39:0.29122705 40:0.27294918 41:0.91655556 42:0.93695702 43:0.97145099 44:0.96533378 45:0.92020088 46:0.96273741 47:0.96637613 48:0.96310985 49:0.90031995 50:0.92562108 51:0.96091507 52:1 53:0.89741154 54:0.780844 55:0.77996822 56:0.78712208 57:0.6859009 58:0.5610818 59:0.56630405 60:0.62557882 
0 1 0 1:-1 2:-0.99910504 3:-0.98356488 4:-0.98954567 5:-0.98970289 6:-0.98991811 7:-0.96368395 8:-0.96113308 9:-0.96509358 10:-0.93454853 11:-0.6927001 12:-0.47865059 13:-0.44992281 14:-0.38048369 15:-0.16611379 16:0.010927808 17:0.016150057 18:-0.079680461 19:-0.16942868 20:-0.20462749 21:-0.014274504 22:-0.016885628 23:-0.031682 24:-0.013404129 25:-0.011663379 26:-0.013404129 27:-0.031682 28:-0.017756003 29:-0.0020892564 30:0.032725736 31:0.10235572 32:0.15109671 33:0.16502271 34:0.2033192 35:0.25989356 36:0.2860048 37:0.29122705 38:0.27294918 39:0.25031944 40:0.22943044 41:0.97145099 42:0.96533378 43:0.92020088 44:0.96273741 45:0.96637613 46:0.96310985 47:0.90031995 48:0.92562108 49:0.96091507 50:1 51:0.89741154 52:0.780844 53:0.77996822 54:0.78712208 55:0.6859009 56:0.5610818 57:0.56630405 58:0.62557882 59:0.67006755 60:0.66348837 
0 1 0 1:-0.99962567 2:-0.99978369 3:-1 4:-0.97363293 5:-0.97106913 6:-0.9750497 7:-0.94434989 8:-0.70127614 9:-0.48614215 10:-0.45726882 11:-0.38747789 12:-0.17202188 13:0.0059166892 14:0.011165396 15:-0.085150645 16:-0.17535357 17:-0.21073071 18:-0.21921752 19:-0.22064443 20:-0.24689228 21:-0.018538525 22:-0.016788956 23:-0.018538525 24:-0.036909 25:-0.022912448 26:-0.0071663259 27:0.027825056 28:0.097807819 29:0.14679575 30:0.16079231 31:0.19928283 32:0.25614382 33:0.28238736 34:0.28763606 35:0.26926559 36:0.24652119 37:0.22552636 38:0.20978024 39:0.21590373 40:0.23427421 41:0.96254862 42:0.96620578 43:0.96292295 44:0.89981493 45:0.92524424 46:0.96071705 47:1 48:0.89689177 49:0.77973365 50:0.77885343 51:0.78604354 52:0.68430953 53:0.55885803 54:0.56410673 55:0.62368182 56:0.66839596 57:0.66178344 58:0.638778 59:0.65245189 60:0.7154407 
0.0062653146373538304 1 0 1:-0.99978369 2:-1 3:-0.97363293 4:-0.97106913 5:-0.9750497 6:-0.94434989 7:-0.70127614 8:-0.48614215 9:-0.45726882 10:-0.38747789 11:-0.17202188 12:0.0059166892 13:0.011165396 14:-0.085150645 15:-0.17535357 16:-0.21073071 17:-0.21921752 18:-0.22064443 19:-0.24689228 20:-0.24689228 21:-0.016788956 22:-0.018538525 23:-0.036909 24:-0.022912448 25:-0.0071663259 26:0.027825056 27:0.097807819 28:0.14679575 29:0.16079231 30:0.19928283 31:0.25614382 32:0.28238736 33:0.28763606 34:0.26926559 35:0.24652119 36:0.22552636 37:0.20978024 38:0.21590373 39:0.23427421 40:0.23427421 41:0.96620578 42:0.96292295 43:0.89981493 44:0.92524424 45:0.96071705 46:1 47:0.89689177 48:0.77973365 49:0.77885343 50:0.78604354 51:0.68430953 52:0.55885803 53:0.56410673 54:0.62368182 55:0.66839596 56:0.66178344 57:0.638778 58:0.65245189 59:0.7154407 60:0.7154407 
0 1 0 1:-1 2:-0.97363293 3:-0.97106913 4:-0.9750497 5:-0.94434989 6:-0.70127614 7:-0.48614215 8:-0.45726882 9:-0.38747789 10:-0.17202188 11:0.0059166892 12:0.011165396 13:-0.085150645 14:-0.17535357 15:-0.21073071 16:-0.21921752 17:-0.22064443 18:-0.24689228 19:-0.24689228 20:-0.31041581 21:-0.018538525 22:-0.036909 23:-0.022912448 24:-0.0071663259 25:0.027825056 26:0.097807819 27:0.14679575 28:0.16079231 29:0.19928283 30:0.25614382 31:0.28238736 32:0.28763606 33:0.26926559 34:0.24652119 35:0.22552636 36:0.20978024 37:0.21590373 38:0.23427421 39:0.23427421 40:0.20978024 41:0.96292295 42:0.89981493 43:0.92524424 44:0.96071705 45:1 46:0.89689177 47:0.77973365 48:0.77885343 49:0.78604354 50:0.68430953 51:0.55885803 52:0.56410673 53:0.62368182 54:0.66839596 55:0.66178344 56:0.638778 57:0.65245189 58:0.7154407 59:0.7154407 60:0.72997629 
1 1 0.03839660404761927 1:-0.99856533 2:-0.99596915 3:-1 4:-0.96891237 5:-0.72276792 6:-0.5049162 7:-0.47567813 8:-0.40500554 9:-0.18682774 10:-0.0066413123 11:-0.0013262994 12:-0.098859077 13:-0.19020152 14:-0.22602557 15:-0.23461959 16:-0.23606452 17:-0.26264395 18:-0.26264395 19:-0.32696996 20:-0.34131248 21:-0.050008008 22:-0.03583464 23:-0.019889602 24:0.015543817 25:0.086410655 26:0.13601744 27:0.15019081 28:0.18916757 29:0.24674688 30:0.27332194 31:0.27863695 32:0.26003441 33:0.23700268 34:0.21574263 35:0.1997976 36:0.20599844 37:0.22460099 38:0.22460099 39:0.1997976 40:0.19182508 41:0.89854931 42:0.92429987 43:0.9602208 44:1 45:0.89558923 46:0.77695109 47:0.77605974 48:0.78334068 49:0.68032149 50:0.55328519 51:0.5586002 52:0.61892789 53:0.66420689 54:0.65751083 55:0.63421478 56:0.64806141 57:0.71184593 58:0.71184593 59:0.72656515 60:0.72496264 
1 1 0 1:0.27124995 2:0.275092 3:0.20458863 4:0.13856005 5:0.11266397 6:0.10645163 7:0.10540713 8:0.086193695 9:0.086193695 10:0.039694448 11:0.029326692 12:-0.22402799 13:-0.38572501 14:-0.46640759 15:-0.56527278 16:-0.65532827 17:-0.66932925 18:-0.71850611 19:-0.81590714 20:-1 21:0.47362657 22:0.47746862 23:0.46402143 24:0.44737252 25:0.4320043 26:0.42047813 27:0.42496053 28:0.43840773 29:0.43840773 30:0.42047813 31:0.41471505 32:0.35772456 33:0.3071375 34:0.26231352 35:0.2123668 36:0.16818316 37:0.15537631 38:0.12271884 39:0.060605606 40:-0.023919614 41:0.67600319 42:0.67984524 43:0.72345423 44:0.75618499 45:0.75134462 46:0.73450464 47:0.74451393 48:0.79062176 49:0.79062176 50:0.80126182 51:0.80010341 52:0.93947711 53:1 54:0.99103462 55:0.99000637 56:0.99169458 57:0.98008186 58:0.96394378 59:0.93711835 60:0.95216077 
1 0 0.14441090433108145 1:0.32992681 2:0.26475658 3:0.20372266 4:0.17978546 5:0.17404304 6:0.17307755 7:0.15531749 8:0.15531749 9:0.11233563 10:0.10275213 11:-0.13143784 12:-0.28090347 13:-0.35548292 14:-0.44686957 15:-0.53011291 16:-0.54305481 17:-0.58851174 18:-0.67854499 19:-0.84871236 20:-1 21:0.51699489 22:0.50456489 23:0.48917537 24:0.47496966 25:0.46431538 26:0.46845871 27:0.48088871 28:0.48088871 29:0.46431538 30:0.45898824 31:0.40630873 32:0.35954826 33:0.31811494 34:0.27194638 35:0.23110496 36:0.21926687 37:0.18907973 38:0.13166499 39:0.053533576 40:-0.010392123 41:0.70406297 42:0.74437321 43:0.77462809 44:0.77015387 45:0.75458772 46:0.76383987 47:0.80645993 48:0.80645993 49:0.81629513 50:0.81522435 51:0.94405529 52:1 53:0.9917128 54:0.99076233 55:0.99232284 56:0.98158854 57:0.96667121 58:0.94187496 59:0.95577951 60:0.97921575 
1 0 0 1:0.31118828 2:0.29205491 3:0.2874649 4:0.28669317 5:0.27249729 6:0.27249729 7:0.23814122 8:0.23048098 9:0.043289359 10:-0.076180811 11:-0.1357933 12:-0.20884005 13:-0.27537773 14:-0.28572238 15:-0.32205681 16:-0.39402176 17:-0.53003915 18:-0.65096567 19:-0.87008121 20:-1 21:0.539355 22:0.52800016 23:0.51948403 24:0.52279586 25:0.53273134 26:0.53273134 27:0.51948403 28:0.51522596 29:0.47311842 30:0.43574207 31:0.40262378 32:0.36572054 33:0.33307537 34:0.323613 35:0.29948396 36:0.25359147 37:0.19113984 38:0.14004305 39:0.056301092 40:-2.1538327e-14 41:0.76752172 42:0.76394541 43:0.75150315 44:0.75889854 45:0.7929654 46:0.7929654 47:0.80082683 48:0.79997094 49:0.90294748 50:0.94766494 51:0.94104085 52:0.94028113 53:0.94152847 54:0.93294838 55:0.92102473 56:0.90120471 57:0.91231883 58:0.93105178 59:0.98268339 60:1 
1 0 0 1:0.32078102 2:0.31637726 3:0.31563685 4:0.30201698 5:0.30201698 6:0.26905498 7:0.26170557 8:0.082109571 9:-0.032512887 10:-0.089706497 11:-0.15978924 12:-0.22362704 13:-0.23355194 14:-0.26841203 15:-0.33745688 16:-0.46795512 17:-0.58397484 18:-0.79419938 19:-0.91884649 20:-1 21:0.54715238 22:0.5389818 23:0.54215925 24:0.55169159 25:0.55169159 26:0.5389818 27:0.53489652 28:0.49449757 29:0.45863782 30:0.42686336 31:0.39145754 32:0.360137 33:0.35105859 34:0.32790863 35:0.28387831 36:0.22396076 37:0.17493731 38:0.09459333 39:0.040576754 40:-0.0057231689 41:0.77352374 42:0.76158635 43:0.76868165 44:0.80136619 45:0.80136619 46:0.80890863 47:0.80808747 48:0.90688556 49:0.94978853 50:0.94343323 51:0.94270433 52:0.94390105 53:0.93566912 54:0.92422929 55:0.9052135 56:0.91587665 57:0.93384947 58:0.98338604 59:1 60:0.98855366 
1 0 0 1:0.35829691 2:0.3576019 3:0.34481721 4:0.34481721 5:0.31387643 6:0.30697768 7:0.13839449 8:0.030800662 9:-0.022885844 10:-0.088671127 11:-0.1485944 12:-0.15791071 13:-0.19063318 14:-0.25544421 15:-0.37794032 16:-0.48684572 17:-0.68417932 18:-0.80118309 19:-0.87736027 20:-1 21:0.56725138 22:0.57023398 23:0.5791818 24:0.5791818 25:0.56725138 26:0.5634166 27:0.52549491 28:0.49183408 29:0.46200802 30:0.42877328 31:0.39937332 32:0.39085159 33:0.36912118 34:0.32779079 35:0.27154738 36:0.22553005 37:0.15011274 38:0.099408456 39:0.055947638 40:-0.0079653291 41:0.77620584 42:0.78286606 43:0.81354639 44:0.81354639 45:0.82062633 46:0.81985552 47:0.91259532 48:0.95286749 49:0.94690189 50:0.94621769 51:0.94734103 52:0.93961388 53:0.92887554 54:0.91102579 55:0.92103508 56:0.93790581 57:0.98440481 58:1 59:0.98925555 60:0.98406934 
0 1 0 1:-0.9199983 2:-0.94222247 3:-0.99344201 4:-1 5:-0.95847314 6:-0.89628197 7:-0.73492415 8:-0.68419142 9:-0.62872087 10:-0.63532147 11:-0.73255877 12:-0.77505059 13:-0.7509466 14:-0.76508522 15:-0.78857671 16:-0.79207136 17:-0.77522739 18:-0.7554497 19:-0.67261189 20:-0.73486787 21:0.040000849 22:0.021319829 23:-0.018239979 24:-0.044613184 25:-0.07757969 26:-0.11604061 27:-0.16549037 28:-0.18856693 29:-0.15889707 30:-0.16219372 31:-0.18966581 32:-0.22263232 33:-0.25340106 34:-0.24021445 35:-0.19625911 36:-0.18087474 37:-0.16878702 38:-0.15230377 39:-0.11384285 40:-0.056700903 41:1 42:0.98486212 43:0.95696205 44:0.91077363 45:0.80331376 46:0.66420075 47:0.4039434 48:0.30705757 49:0.31092673 50:0.31093403 51:0.35322714 52:0.32978596 53:0.24414448 54:0.28465631 55:0.39605848 56:0.43032187 57:0.43765334 58:0.45084216 59:0.4449262 60:0.62146606 
1 1 0 1:-0.83645035 2:-0.85875259 3:-0.86207033 4:-0.84607907 5:-0.82730262 6:-0.74865841 7:-0.80776272 8:-1 9:-0.99150876 10:-0.93140022 11:-0.92070511 12:-0.92707414 13:-0.94909645 14:-0.98674181 15:-0.98110711 16:-0.97732169 17:-0.94299959 18:-0.80809446 19:-0.72748134 20:-0.80622862 21:-0.33815075 22:-0.29642061 23:-0.28181506 24:-0.27033927 25:-0.25469047 26:-0.2181766 27:-0.16392742 28:-0.082553654 29:-0.039780263 30:0.0071661412 31:0.013425662 32:0.0082093947 33:-0.0043096465 34:-0.024131462 35:-0.018915195 36:0.011339155 37:0.02803121 38:0.077064121 39:0.10105895 40:0.082280388 41:0.16014886 42:0.26591138 43:0.29844021 44:0.30540053 45:0.31792168 46:0.31230521 47:0.47990788 48:0.83489269 49:0.91194823 50:0.9457325 51:0.94755644 52:0.94349293 53:0.94047716 54:0.93847888 55:0.94327672 56:1 57:0.99906201 58:0.9622227 59:0.92959924 60:0.9707894 
0.67677786473727841 1 1 1:-1 2:-0.99410349 3:-0.99092108 4:-0.99074244 5:-0.98922877 6:-0.95303601 7:-0.89797561 8:-0.75029699 9:-0.54699784 10:-0.46230328 11:-0.33936987 12:-0.13096802 13:-0.1789717 14:-0.2017756 15:-0.20387983 16:-0.22270063 17:-0.22222786 18:-0.16289845 19:-0.13448762 20:-0.17514181 21:-0.014800399 22:-0.0053540942 23:0.0026006891 24:0.0035950371 25:0.0006119933 26:0.023481996 27:0.048837868 28:0.10153831 29:0.15175288 30:0.1781031 31:0.20793353 32:0.24820463 33:0.22434028 34:0.20047593 35:0.17263418 36:0.14578679 37:0.13136874 38:0.11197896 39:0.091594828 40:0.078171131 41:0.9703992 42:0.9833953 43:0.99612246 44:0.99793252 45:0.99045276 46:1 47:0.99565134 48:0.9533736 49:0.8505036 50:0.81850948 51:0.75523694 52:0.62737727 53:0.62765226 54:0.60272745 55:0.5491482 56:0.51427421 57:0.48496535 58:0.38685637 59:0.31767727 60:0.33148407 
0 1 0 1:-1 2:-0.99680818 3:-0.99662902 4:-0.99511087 5:-0.95881108 6:-0.90358787 7:-0.75547257 8:-0.55157227 9:-0.46662727 10:-0.34333035 11:-0.13431226 12:-0.18245789 13:-0.20532922 14:-0.20743967 15:-0.22631612 16:-0.22584196 17:-0.16633711 18:-0.13784227 19:-0.17861667 20:-0.25816021 21:-0.0083268996 22:-0.00034859411 23:0.00064869408 24:-0.0023431705 25:0.020594458 26:0.046025306 27:0.09888158 28:0.14924463 29:0.17567277 30:0.20559142 31:0.24598159 32:0.22204667 33:0.19811175 34:0.17018769 35:0.1432609 36:0.12880023 37:0.10935311 38:0.088908698 39:0.075445308 40:0.056995476 41:0.9833462 42:0.99611099 43:0.9979264 44:0.99042453 45:1 46:0.99563848 47:0.95323573 48:0.85006154 49:0.81797281 50:0.75451318 51:0.62627544 52:0.62655123 53:0.60155273 54:0.54781504 55:0.51283793 56:0.48344241 57:0.38504332 58:0.31565966 59:0.32950729 60:0.37215117 
0 1 0 1:-1 2:-0.99982055 3:-0.99829997 4:-0.96194216 5:-0.90663068 6:-0.75827862 7:-0.5540524 8:-0.46897162 9:-0.34547761 10:-0.13612542 11:-0.184348 12:-0.20725589 13:-0.20936971 14:-0.22827634 15:-0.22780142 16:-0.16820145 17:-0.13966106 18:-0.18050064 19:-0.26017133 20:-0.28295821 21:-0.0019476107 22:-0.00094872843 23:-0.0039453753 24:0.019028918 25:0.044500417 26:0.097441179 27:0.14788474 28:0.17435512 29:0.20432159 30:0.24477632 31:0.22080314 32:0.19682997 33:0.16886126 34:0.14189144 35:0.12740765 36:0.10792944 37:0.087452356 38:0.073967445 39:0.055488122 40:0.039506005 41:0.99610478 42:0.99792309 43:0.99040922 44:1 45:0.99563151 46:0.95316098 47:0.84982187 48:0.81768185 49:0.75412078 50:0.62567805 51:0.62595429 52:0.60091583 53:0.54709224 54:0.51205922 55:0.48261671 56:0.38406033 57:0.31456577 58:0.32843553 59:0.37114757 60:0.36197022 
0.59709020062873108 1 0.61152576019753913 1:-1 2:-0.94361558 3:-0.79238578 4:-0.58419797 5:-0.49746679 6:-0.37157724 7:-0.15816402 8:-0.20732203 9:-0.23067429 10:-0.23282912 11:-0.25210249 12:-0.25161836 13:-0.19086227 14:-0.16176825 15:-0.20340004 16:-0.28461619 17:-0.30784508 18:-0.32029358 19:-0.34040253 20:-0.43960345 21:0 22:0.025965596 23:0.079933305 24:0.13135537 25:0.15833922 26:0.18888698 27:0.23012646 28:0.20568825 29:0.18125004 30:0.1527388 31:0.12524582 32:0.11048107 33:0.090625021 34:0.069750719 35:0.056004227 36:0.037166441 37:0.020874303 38:0.0035639053 39:-0.016801268 40:-0.063641167 41:1 42:0.99554677 43:0.95225239 44:0.84690871 45:0.81414524 46:0.74935121 47:0.61841694 48:0.61869854 49:0.59317438 50:0.53830672 51:0.50259412 52:0.47258049 53:0.37211231 54:0.30126969 55:0.3154085 56:0.35894907 57:0.34959369 58:0.32742139 59:0.30679999 60:0.31232111 
1 0 0 1:-0.42690234 2:-0.42697235 3:-0.42743215 4:-0.42772306 5:-0.43871155 6:-0.43377647 7:-0.3669781 8:-0.34011861 9:-0.33863414 10:-0.33203479 11:-0.33019016 12:-0.32394654 13:-0.33351898 14:-0.33653276 15:-0.50153429 16:-0.59879544 17:-0.67030783 18:-0.80044904 19:-0.91435154 20:-1 21:0.28505498 22:0.28651382 23:0.27411363 24:0.2573369 25:0.23983074 26:0.20773613 27:0.17491209 28:0.15084113 29:0.14646459 30:0.15521766 31:0.15302939 32:0.14208805 33:0.12604074 34:0.12531132 35:0.10196978 36:0.080087083 37:0.05820439 38:0.014439003 39:-0.036620614 40:-0.07309177 41:0.99701229 42:1 43:0.97565942 44:0.94239686 45:0.91837304 46:0.84924872 47:0.71680228 48:0.64180086 49:0.63156331 50:0.64247012 51:0.63624895 52:0.60812263 53:0.58560045 54:0.58715539 55:0.70547385 56:0.7589696 57:0.78671661 58:0.82932705 59:0.84111031 60:0.85381646 
1 0 0 1:-0.32576564 2:-0.32619283 3:-0.3264631 4:-0.33667225 5:-0.33208718 6:-0.27002643 7:-0.24507192 8:-0.24369273 9:-0.23756144 10:-0.23584763 11:-0.23004684 12:-0.23894036 13:-0.24174039 14:-0.39503934 15:-0.48540233 16:-0.55184277 17:-0.67275384 18:-0.7785779 19:-0.85815182 20:-1 21:0.33711718 22:0.32559646 23:0.3100096 24:0.29374506 25:0.26392672 26:0.2334307 27:0.21106694 28:0.20700081 29:0.21513308 30:0.21310001 31:0.20293467 32:0.1880255 33:0.18734781 34:0.16566175 35:0.14533107 36:0.12500039 37:0.084339019 38:0.036900758 39:0.0030162859 40:-0.060008832 41:1 42:0.97738575 43:0.94648231 44:0.92416236 45:0.85994062 46:0.73688782 47:0.66720581 48:0.65769435 49:0.6678276 50:0.66204766 51:0.63591618 52:0.61499136 53:0.61643602 54:0.72636285 55:0.77606446 56:0.80184354 57:0.84143187 58:0.85237942 59:0.86418439 60:0.87998234 
1 0 0 1:0.15917098 2:0.17692676 3:0.17790809 4:0.18227067 5:0.18349008 6:0.1876175 7:0.18128953 8:0.17929723 9:0.070221029 10:0.0059254104 11:-0.041348699 12:-0.12738007 13:-0.20267666 14:-0.25929558 15:-0.36022425 16:-0.41510833 17:-0.51754516 18:-0.70647509 19:-0.85125314 20:-1 21:0.51739385 22:0.50148146 23:0.49858829 24:0.50437462 25:0.50292804 26:0.49569513 27:0.48508687 28:0.48460468 29:0.46917448 30:0.45470867 31:0.44024286 32:0.41131123 33:0.37755767 34:0.35344799 35:0.30860397 36:0.26183118 37:0.20782549 38:0.13549643 39:0.069918088 40:2.1982416e-14 41:0.87561672 42:0.82603615 43:0.8192685 44:0.82647857 45:0.82236599 46:0.80377276 47:0.78888421 48:0.78991212 49:0.86812793 50:0.90349192 51:0.92183441 52:0.95000254 53:0.957792 54:0.96619155 55:0.9774322 56:0.9387707 57:0.93319614 58:0.97746795 59:0.99108932 60:1 
1 0 0 1:0.24588205 2:0.24677416 3:0.25074011 4:0.25184866 5:0.25560083 6:0.24984818 7:0.24803701 8:0.14887759 9:0.090427477 10:0.047451345 11:-0.030758395 12:-0.099209307 13:-0.15068066 14:-0.24243329 15:-0.29232753 16:-0.3854512 17:-0.55720436 18:-0.68881976 19:-0.82404314 20:-1 21:0.54092951 22:0.53829938 23:0.54355964 24:0.54224457 25:0.53566925 26:0.52602545 27:0.5255871 28:0.51155975 29:0.49840912 30:0.48525848 31:0.45895721 32:0.42827239 33:0.40635466 34:0.36558769 35:0.3230673 36:0.27397159 37:0.20821841 38:0.14860219 39:0.085040782 40:-1.9984014e-14 41:0.83597696 42:0.8298246 43:0.83637916 44:0.83264048 45:0.81573768 46:0.80220273 47:0.80313719 48:0.87424192 49:0.90639076 50:0.92306562 51:0.94867281 52:0.95575409 53:0.96338998 54:0.97360868 55:0.93846213 56:0.93339438 57:0.97364118 58:0.98602414 59:0.9941247 60:1 
0 1 0 1:-0.17739826 2:-0.2873163 3:-0.45615073 4:-0.56173185 5:-0.65583133 6:-0.76087706 7:-0.81558198 8:-0.83490785 9:-0.8839699 10:-0.93845403 11:-0.96941385 12:-0.98307722 13:-1 14:-0.98400634 15:-0.94881777 16:-0.93110217 17:-0.87960439 18:-0.86817407 19:-0.86259247 20:-0.93613963 21:0.390495 22:0.33737109 23:0.27192463 24:0.21058569 25:0.14705608 26:0.073942249 27:0.010686466 28:-0.040794431 29:-0.097752019 30:-0.14156555 31:-0.18784359 32:-0.23658614 33:-0.28341185 34:-0.32174869 35:-0.36090703 36:-0.3995177 37:-0.44168822 38:-0.4882401 39:-0.49015694 40:-0.47372687 41:0.95838826 42:0.96205848 43:1 44:0.98290323 45:0.94994348 46:0.90876156 47:0.83695492 48:0.75331899 49:0.68846586 50:0.65532294 51:0.59372668 52:0.50990495 53:0.4331763 54:0.34050897 55:0.22700371 56:0.13206677 57:-0.0037720535 58:-0.10830612 59:-0.11772141 60:-0.011314099 
1 0 0 1:-0.71061954 2:-0.7312509 3:-0.74035606 4:-0.75163326 5:-0.74097522 6:-0.71752584 7:-0.70572032 8:-0.67140262 9:-0.66378556 10:-0.66006602 11:-0.70907724 12:-0.79265621 13:-0.8247415 14:-0.85224607 15:-0.85224421 16:-0.91209485 17:-0.93109321 18:-0.95936366 19:-1 20:-0.99237236 21:-0.17957966 22:-0.21041896 23:-0.2429006 24:-0.27410486 25:-0.29965221 26:-0.325747 27:-0.35147684 28:-0.37957892 29:-0.41060071 30:-0.41187807 31:-0.40092921 32:-0.378849 33:-0.35768119 34:-0.32027257 35:-0.29509018 36:-0.24363052 37:-0.18578402 38:-0.12629519 39:-0.063886658 40:0.0038138213 41:0.35146021 42:0.31041298 43:0.25455487 44:0.20342354 45:0.1416708 46:0.066031837 47:0.0027666434 48:-0.08775522 49:-0.15741585 50:-0.16369012 51:-0.092781176 52:0.034958219 53:0.10937912 54:0.21170093 55:0.26206384 56:0.42483381 57:0.55952518 58:0.70677328 59:0.87222668 60:1 
1 1 1 1:-1 2:-0.89055505 3:-0.92712104 4:-0.94896672 5:-0.95151413 6:-0.89473572 7:-0.79591028 8:-0.75514994 9:-0.76080356 10:-0.74194256 11:-0.69460794 12:-0.69568698 13:-0.6165551 14:-0.58166113 15:-0.52556403 16:-0.51587924 17:-0.51585833 18:-0.52161006 19:-0.49772925 20:-0.50602818 21:0 22:0.038173415 23:0.0083504346 24:-0.019086708 25:-0.0620318 26:-0.12963056 27:-0.18848124 28:-0.2250641 29:-0.23937913 30:-0.26641863 31:-0.2791431 32:-0.27834782 33:-0.26244223 34:-0.24176496 35:-0.22705229 36:-0.21194198 37:-0.21432782 38:-0.2190995 39:-0.19921751 40:-0.18649304 41:1 42:0.96690188 43:0.94382191 44:0.9107933 45:0.82745053 46:0.6354746 47:0.4189478 48:0.30502175 49:0.28204531 50:0.20910531 51:0.13632174 52:0.13899133 53:0.09167064 54:0.0981312 55:0.071459441 56:0.091995275 57:0.087202687 58:0.083411062 59:0.099294223 60:0.1330421 
1 1 0 1:-0.93644852 2:-0.97456955 3:-0.99734425 4:-1 5:-0.94080698 6:-0.83777882 7:-0.79528508 8:-0.80117913 9:-0.78151603 10:-0.73216843 11:-0.73329335 12:-0.65079625 13:-0.61441835 14:-0.55593562 15:-0.54583897 16:-0.54581717 17:-0.5518135 18:-0.52691712 19:-0.53556898 20:-0.57271654 21:0.031775739 22:0.00068448435 23:-0.02791947 24:-0.072690878 25:-0.14316439 26:-0.2045178 27:-0.24265641 28:-0.25758021 29:-0.28576961 30:-0.29903522 31:-0.29820611 32:-0.28162411 33:-0.26006751 34:-0.24472916 35:-0.22897625 36:-0.23146355 37:-0.23643815 38:-0.21571065 39:-0.20244505 40:-0.1862776 41:1 42:0.97593852 43:0.94150531 44:0.85461824 45:0.6544782 46:0.42874322 47:0.30997227 48:0.28601871 49:0.20997681 50:0.134098 51:0.13688112 52:0.087548027 53:0.094283333 54:0.066477311 55:0.087886468 56:0.082890066 57:0.078937195 58:0.095495816 59:0.13067888 60:0.20016134 
0 1 0 1:-0.97425988 2:-0.99731191 3:-1 4:-0.94008618 5:-0.83580341 6:-0.79279221 7:-0.79875804 8:-0.7788555 9:-0.72890698 10:-0.7300456 11:-0.64654391 12:-0.60972303 13:-0.55052814 14:-0.54030855 15:-0.54028648 16:-0.54635583 17:-0.52115627 18:-0.52991349 19:-0.5675134 20:-0.61298513 21:0.01287006 22:-0.016082212 23:-0.061398811 24:-0.1327305 25:-0.19483102 26:-0.23343405 27:-0.24853958 28:-0.27707226 29:-0.2904994 30:-0.2896602 31:-0.27287628 32:-0.25105717 33:-0.23553204 34:-0.21958731 35:-0.2221049 36:-0.22714008 37:-0.20616017 38:-0.19273303 39:-0.1763687 40:-0.1549692 41:1 42:0.96514749 43:0.87720238 44:0.67462518 45:0.44614137 46:0.32592411 47:0.30167887 48:0.22471099 49:0.14790818 50:0.15072519 51:0.10079136 52:0.10760868 53:0.079464062 54:0.10113392 55:0.096076679 56:0.092075674 57:0.10883593 58:0.14444743 59:0.214776 60:0.30304673 
0 1 0 1:-0.99726424 2:-1 3:-0.93902358 4:-0.83289133 5:-0.78911732 6:-0.79518895 7:-0.77493343 8:-0.72409906 9:-0.72525787 10:-0.64027526 11:-0.60280134 12:-0.54255662 13:-0.53215577 14:-0.53213332 15:-0.53831031 16:-0.51266383 17:-0.52157636 18:-0.55984312 19:-0.6061213 20:-0.64299395 21:0.0013678812 22:-0.044752423 23:-0.1173492 24:-0.18055109 25:-0.21983876 26:-0.2352122 27:-0.26425091 28:-0.27791618 29:-0.2770621 30:-0.25998051 31:-0.23777443 32:-0.22197396 33:-0.20574645 34:-0.20830869 35:-0.21343316 36:-0.19208117 37:-0.1784159 38:-0.16176134 39:-0.13998231 40:-0.095570165 41:1 42:0.91049515 43:0.70432519 44:0.47178914 45:0.3494398 46:0.32476456 47:0.24643162 48:0.1682667 49:0.17113367 50:0.12031424 51:0.12725247 52:0.098608698 53:0.12066288 54:0.11551595 55:0.11144398 56:0.12850149 57:0.16474457 58:0.23632043 59:0.32615668 60:0.45185362 
1 1 0 1:-1 2:-0.97249746 3:-0.78902561 4:-0.72311125 5:-0.57256059 6:-0.50226799 7:-0.37670655 8:-0.14762614 9:-0.0097869025 10:0.11798137 11:0.16252427 12:0.17005348 13:0.17021867 14:0.18209773 15:0.14173332 16:0.11533557 17:0.13351833 18:0.13384167 19:0.058859032 20:0.038026385 21:-0.026061977 22:0.013751268 23:0.074956704 24:0.10882767 25:0.16052547 26:0.19558489 27:0.23718082 28:0.28650171 29:0.32037268 30:0.34711291 31:0.36256283 32:0.37801275 33:0.37563584 34:0.38692616 35:0.37028779 36:0.35602633 37:0.34533023 38:0.34651869 39:0.32274959 40:0.31027081 41:0.94787605 42:1 43:0.93893902 44:0.94076659 45:0.89361153 46:0.89343778 47:0.85106819 48:0.72062956 49:0.65053225 50:0.57624446 51:0.56260139 52:0.58597201 53:0.581053 54:0.59175459 55:0.59884225 56:0.59671709 57:0.55714213 58:0.5591957 59:0.58664014 60:0.58251523 
1 1 0.0089952445154519601 1:-1 2:-0.81397 3:-0.74713659 4:-0.59448681 5:-0.52321411 6:-0.39590198 7:-0.1636275 8:-0.023866363 9:0.10568338 10:0.15084734 11:0.15848154 12:0.15864903 13:0.17069372 14:0.12976651 15:0.10300069 16:0.12143697 17:0.12176482 18:0.045736702 19:0.024613585 20:-0.009710755 21:0 22:0.062058824 23:0.096402056 24:0.14882067 25:0.18436893 26:0.22654483 27:0.2765534 28:0.31089663 29:0.33800971 30:0.35367504 31:0.36934038 32:0.36693033 33:0.37837807 34:0.36150771 35:0.3470474 36:0.33620217 37:0.3374072 38:0.31330668 39:0.30065391 40:0.2861936 41:1 42:0.93808764 43:0.9399407 44:0.89212816 45:0.89195198 46:0.84899164 47:0.71673429 48:0.64565962 49:0.57033604 50:0.55650274 51:0.58019922 52:0.57521162 53:0.58606242 54:0.59324891 55:0.59109411 56:0.55096737 57:0.55304957 58:0.58087666 59:0.57669424 60:0.58209796 
1 1 1 1:-0.96457554 2:-0.9391303 3:-0.94353737 4:-0.945597 5:-0.94055648 6:-0.99919437 7:-1 8:-0.99783172 9:-0.97689309 10:-0.94970836 11:-0.95314546 12:-0.95319304 13:-0.92421647 14:-0.89952116 15:-0.82998541 16:-0.73687919 17:-0.66690103 18:-0.57926554 19:-0.43296464 20:-0.47999347 21:-0.07861984 22:-0.090480544 23:-0.088701438 24:-0.086329298 25:-0.13139997 26:-0.17765672 27:-0.18418011 28:-0.15512138 29:-0.1082716 30:-0.088108403 31:-0.092852685 32:-0.083957157 33:-0.047188974 34:-0.0038974037 35:0.028126498 36:0.076162349 37:0.1461405 38:0.18528083 39:0.23390971 40:0.26000326 41:0.80733586 42:0.75816921 43:0.76613449 44:0.7729384 45:0.67775653 46:0.64388093 47:0.63163979 48:0.68758895 49:0.76034988 50:0.77349155 51:0.76744009 52:0.78527872 53:0.82983852 54:0.89172635 55:0.8862384 56:0.88920389 57:0.95918204 58:0.94982719 59:0.90078407 60:1 
0 1 0 1:-0.9419507 2:-0.94615357 3:-0.94811777 4:-0.9433108 5:-0.9992317 6:-1 7:-0.99793218 8:-0.97796375 9:-0.95203863 10:-0.95531647 11:-0.95536184 12:-0.92772791 13:-0.90417686 14:-0.83786305 15:-0.74907092 16:-0.68233521 17:-0.59876032 18:-0.45923829 19:-0.50408804 20:-0.51758031 21:-0.13262324 22:-0.13092656 23:-0.12866434 24:-0.17164666 25:-0.21576009 26:-0.22198122 27:-0.19426893 28:-0.14958994 29:-0.13036101 30:-0.13488546 31:-0.12640211 32:-0.091337585 33:-0.050051935 34:-0.019511865 35:0.02629824 36:0.093033948 37:0.1303607 38:0.17673636 39:0.20162086 40:0.24120984 41:0.67670423 42:0.68430044 43:0.69078909 44:0.60001748 45:0.56771151 46:0.55603756 47:0.60939432 48:0.67878386 49:0.69131661 50:0.68554554 51:0.70255762 52:0.74505274 53:0.80407299 54:0.79883932 55:0.8016674 56:0.86840311 57:0.85948172 58:0.81271101 59:0.90732976 60:1 
1 1 0 1:-0.94790181 2:-0.94980224 3:-0.94515133 4:-0.99925664 5:-1 6:-0.99799932 7:-0.9786792 8:-0.95359579 9:-0.95676722 10:-0.95681112 11:-0.93007437 12:-0.90728796 13:-0.84312717 14:-0.75721787 15:-0.69264887 16:-0.61178741 17:-0.47679526 18:-0.52018887 19:-0.53324309 20:-0.55440173 21:-0.15914287 22:-0.15695409 23:-0.1985409 24:-0.2412221 25:-0.24724124 26:-0.2204287 27:-0.1772003 28:-0.15859568 29:-0.16297324 30:-0.15476531 31:-0.12083923 32:-0.080894008 33:-0.051345486 34:-0.0070227031 35:0.057546289 36:0.09366115 37:0.13853113 38:0.1626077 39:0.20091134 40:0.22279913 41:0.62961606 42:0.63589405 43:0.54806953 44:0.51681244 45:0.50551751 46:0.55714193 47:0.6242786 48:0.63640444 49:0.63082074 50:0.64728049 51:0.68839591 52:0.74549994 53:0.7404362 54:0.74317246 55:0.80774145 56:0.79910971 57:0.75385752 58:0.84540427 59:0.93506577 60:1 
1 1 0 1:-0.9498758 2:-0.94523171 3:-0.99925773 4:-1 5:-0.99800225 6:-0.97871045 7:-0.9536638 8:-0.95683057 9:-0.95687441 10:-0.93017685 11:-0.90742383 12:-0.84335707 13:-0.75757366 14:-0.69309929 15:-0.61235633 16:-0.47756201 17:-0.52089202 18:-0.53392712 19:-0.55505475 20:-0.55580016 21:-0.15818957 22:-0.19971543 23:-0.24233408 24:-0.2483444 25:-0.22157115 26:-0.17840611 27:-0.15982875 28:-0.16419989 29:-0.156004 30:-0.12212763 31:-0.082240948 32:-0.052735729 33:-0.0084779007 34:0.055996467 35:0.092058401 36:0.13686262 37:0.16090391 38:0.19915142 39:0.22100714 40:0.22209992 41:0.63349666 42:0.54580085 43:0.51458957 44:0.50331119 45:0.55485995 46:0.62189823 47:0.63400631 48:0.62843079 49:0.64486642 50:0.68592158 51:0.74294193 52:0.73788561 53:0.74061786 54:0.80509223 55:0.79647313 56:0.75128726 57:0.84269985 58:0.93222995 59:0.99706902 60:1 
1 1 0 1:-0.94693533 2:-0.99928082 3:-1 4:-0.99806439 5:-0.97937268 6:-0.95510513 7:-0.9581734 8:-0.95821587 9:-0.93234877 10:-0.9103035 11:-0.8482296 12:-0.76511457 13:-0.70264574 14:-0.62441437 15:-0.49381296 16:-0.53579515 17:-0.54842477 18:-0.56889521 19:-0.56961743 20:-0.57888971 21:-0.22460907 22:-0.26590202 23:-0.27172539 24:-0.24578494 25:-0.20396259 26:-0.1859631 27:-0.19019827 28:-0.18225732 29:-0.14943472 30:-0.11078875 31:-0.082201315 32:-0.03932017 33:0.023148659 34:0.058088851 35:0.10149939 36:0.12479285 37:0.16185063 38:0.18302651 39:0.1840853 40:0.21055515 41:0.4977172 42:0.46747677 43:0.45654922 44:0.50649451 45:0.57144749 46:0.58317893 47:0.57777685 48:0.59370123 49:0.63347934 50:0.68872601 51:0.68382697 52:0.68647423 53:0.74894306 54:0.74059207 55:0.69681175 56:0.78538086 57:0.87212604 58:0.93494823 59:0.93778803 60:1 
0.303858330371371 1 0.19453821512441022 1:-0.96737215 2:-0.98929592 3:-0.99006942 4:-1 5:-0.92844715 6:-0.72878889 7:-0.65252605 8:-0.63145214 9:-0.61874446 10:-0.54045875 11:-0.44184573 12:-0.38343926 13:-0.33744542 14:-0.31385636 15:-0.18349453 16:-0.092850425 17:-0.081105922 18:0.041632968 19:0.19270805 20:0.10050371 21:-0.20666951 22:-0.18399022 23:-0.18285626 24:-0.15450714 25:-0.087036249 26:-0.0076587266 27:0.037699857 28:0.067749919 29:0.088161282 30:0.13351987 31:0.19872283 32:0.24578236 33:0.28660509 34:0.3245929 35:0.38469303 36:0.4272167 37:0.43458747 38:0.46860641 39:0.51113008 40:0.55025186 41:0.55403312 42:0.62131548 43:0.6243569 44:0.69098572 45:0.75437465 46:0.71347144 47:0.72792577 48:0.76695198 49:0.79506703 50:0.80749848 51:0.83929139 52:0.87500398 53:0.91065559 54:0.96304216 55:0.95288058 56:0.94728382 57:0.95028086 58:0.89557984 59:0.8295521 60:1 
0 1 0 1:-0.98963953 2:-0.9903882 3:-1 4:-0.93074407 5:-0.73749504 6:-0.66368031 7:-0.64328289 8:-0.63098315 9:-0.55521048 10:-0.45976304 11:-0.40323147 12:-0.35871408 13:-0.33588225 14:-0.20970517 15:-0.12197083 16:-0.11060334 17:0.0081955144 18:0.15442094 19:0.06517645 20:0.058047748 21:-0.21018495 22:-0.20908738 23:-0.1816483 24:-0.11634329 25:-0.039513868 26:0.0043886603 27:0.033474085 28:0.053230223 29:0.097132751 30:0.16024264 31:0.20579151 32:0.24530378 33:0.28207215 34:0.340243 35:0.38140162 36:0.38853578 37:0.42146268 38:0.4626213 39:0.50048723 40:0.52902387 41:0.56926964 42:0.57221343 43:0.63670339 44:0.69805748 45:0.6584673 46:0.67245763 47:0.71023106 48:0.73744359 49:0.74947598 50:0.78024831 51:0.81481449 52:0.84932165 53:0.90002656 54:0.89019117 55:0.88477407 56:0.8876749 57:0.83472985 58:0.77082166 59:0.93579801 60:1 
1 1 0.020331697376359422 1:-0.99046559 2:-1 3:-0.93130167 4:-0.73960853 5:-0.66638811 6:-0.64615491 7:-0.63395419 8:-0.55879159 9:-0.46411262 10:-0.4080362 11:-0.36387723 12:-0.34122923 13:-0.21606803 14:-0.12904006 15:-0.11776409 16:7.8282698e-05 17:0.14512641 18:0.056600451 19:0.049529144 20:0.066088443 21:-0.21545522 22:-0.18823706 23:-0.12345783 24:-0.04724698 25:-0.0036979215 26:0.02515333 27:0.044750406 28:0.088299464 29:0.15090124 30:0.19608338 31:0.23527754 32:0.27174987 33:0.32945237 34:0.37027962 35:0.37735634 36:0.41001813 37:0.45084537 38:0.48840644 39:0.51671332 40:0.53304422 41:0.55955515 42:0.62352589 43:0.684386 44:0.64511457 45:0.65899226 46:0.69646157 47:0.723455 48:0.73539052 49:0.76591509 50:0.80020297 51:0.8344323 52:0.88472897 53:0.87497278 54:0.86959929 55:0.87247676 56:0.81995798 57:0.75656434 58:0.92021242 59:0.9838975 60:1 
0.2776360375078864 0 0 1:-1 2:-0.91582301 3:-0.83829299 4:-0.8141481 5:-0.73984015 6:-0.72894194 7:-0.72041594 8:-0.72339104 9:-0.70530107 10:-0.63596157 11:-0.61349722 12:-0.6172131 13:-0.62539133 14:-0.74368375 15:-0.82489077 16:-0.78570948 17:-0.75107121 18:-0.87282002 19:-0.82246355 20:-0.84794702 21:-0.45350786 22:-0.42707378 23:-0.40063969 24:-0.38102731 25:-0.40490326 26:-0.41087224 27:-0.40149241 28:-0.38188002 29:-0.37164748 30:-0.35032967 31:-0.31877931 32:-0.31281033 33:-0.28637624 34:-0.24629877 35:-0.20195772 36:-0.16529109 37:-0.12777175 38:-0.053585781 39:0.012073068 40:0.076026492 41:0.092984283 42:0.061675456 43:0.037013603 44:0.052093473 45:-0.069966368 46:-0.092802546 47:-0.082568879 48:-0.040369006 49:-0.037993882 50:-0.064697768 51:-0.024061408 52:-0.0084075542 53:0.05263884 54:0.25108622 55:0.42097532 56:0.45512729 57:0.49552771 58:0.76564846 59:0.84660968 60:1 
1 0 0 1:-1 2:-0.92317989 3:-0.89925608 4:-0.82562853 5:-0.81483011 6:-0.80638218 7:-0.80933004 8:-0.79140571 9:-0.72270112 10:-0.70044246 11:-0.70412432 12:-0.71222766 13:-0.82943694 14:-0.90990039 15:-0.87107786 16:-0.83675676 17:-0.95739077 18:-0.90749538 19:-0.93274552 20:-0.92969663 21:-0.51572601 22:-0.48953397 23:-0.47010117 24:-0.4937585 25:-0.49967283 26:-0.49037888 27:-0.47094608 28:-0.46080722 29:-0.43968461 30:-0.40842315 31:-0.40250882 32:-0.37631678 33:-0.33660627 34:-0.29267124 35:-0.25634035 36:-0.21916455 37:-0.14565787 38:-0.080600225 39:-0.017232392 40:0.035151683 41:-0.031452022 42:-0.055888058 43:-0.040946268 44:-0.16188846 45:-0.18451554 46:-0.17437558 47:-0.13256211 48:-0.13020874 49:-0.15666811 50:-0.11640383 51:-0.10089332 52:-0.040405894 53:0.1562244 54:0.32455791 55:0.35839716 56:0.39842765 57:0.66607503 58:0.74629493 59:0.89828073 60:1 
1 0 0 1:-0.96687678 2:-0.94371357 3:-0.87242685 4:-0.86197175 5:-0.8537924 6:-0.85664654 7:-0.83929208 8:-0.77277179 9:-0.7512208 10:-0.7547856 11:-0.76263132 12:-0.87611418 13:-0.95401947 14:-0.91643122 15:-0.88320128 16:-1 17:-0.95169093 18:-0.97613829 19:-0.97318634 20:-0.93568713 21:-0.54701769 22:-0.52820271 23:-0.5511079 24:-0.5568342 25:-0.54783573 26:-0.52902075 27:-0.51920424 28:-0.49875318 29:-0.46848561 30:-0.46275931 31:-0.43739999 32:-0.39895199 33:-0.35641378 34:-0.32123795 35:-0.28524407 36:-0.21407437 37:-0.1510851 38:-0.089731904 39:-0.039013266 40:0.032156436 41:-0.1271586 42:-0.11269185 43:-0.22978895 44:-0.25169665 45:-0.24187907 46:-0.20139497 47:-0.19911641 48:-0.22473457 49:-0.18575041 50:-0.17073301 51:-0.11216865 52:0.078210206 53:0.24119192 54:0.27395533 55:0.31271314 56:0.57185126 57:0.64952074 58:0.79667448 59:0.89515981 60:1 
1 1 1 1:-0.98569696 2:-1 3:-0.99827295 4:-0.97633386 5:-0.94280595 6:-0.91103633 7:-0.87406346 8:-0.86487938 9:-0.83091087 10:-0.80081266 11:-0.78060706 12:-0.71519542 13:-0.67546151 14:-0.66372465 15:-0.6160814 16:-0.60303532 17:-0.57888484 18:-0.48872122 19:-0.38956612 20:-0.36988267 21:-0.51729886 22:-0.48140389 23:-0.45173072 24:-0.41009256 25:-0.37563339 26:-0.35505361 27:-0.33255944 28:-0.28661388 29:-0.23923253 30:-0.19950877 31:-0.13394063 32:-0.076030086 33:-0.025298536 34:0.05032019 35:0.11062373 36:0.15944088 37:0.20442924 38:0.25563939 39:0.29536315 40:0.31402853 41:-0.048900752 42:0.037192217 43:0.094811508 44:0.15614874 45:0.19153916 46:0.2009291 47:0.20894458 48:0.29165162 49:0.35244581 50:0.40179513 51:0.5127258 52:0.56313525 53:0.62486444 54:0.76436503 55:0.83732886 56:0.92191709 57:0.98774332 58:1 59:0.98029243 60:0.99793973 
0 1 0 1:-1 2:-0.7701275 3:-0.62546745 4:-0.50600506 5:-0.44501191 6:-0.39938645 7:-0.35695265 8:-0.29228792 9:-0.18944228 10:-0.11703789 11:-0.11703789 12:-0.12477275 13:-0.09993413 14:-0.081178578 15:-0.081127401 16:-0.083965992 17:-0.083085613 18:-0.080666162 19:-0.087852076 20:-0.14950386 21:0 22:0.065727901 23:0.11524892 24:0.16026803 25:0.17782549 26:0.19403236 27:0.20888867 28:0.22734651 29:0.2530074 30:0.26966447 31:0.26966447 32:0.26426218 33:0.25435797 34:0.24220281 35:0.24580434 36:0.25210702 37:0.25165683 38:0.25075644 39:0.25615874 40:0.28181963 41:1 42:0.90158331 43:0.85596529 44:0.82654113 45:0.80066288 46:0.78745118 47:0.77473 48:0.74698094 49:0.69545708 50:0.65636683 51:0.65636683 52:0.6532971 53:0.60865007 54:0.5655842 55:0.57273608 56:0.58818003 57:0.58639926 58:0.58217905 59:0.60016955 60:0.71314312 
0 1 0 1:-1 2:-0.82693172 3:-0.68400941 4:-0.61103847 5:-0.55645312 6:-0.50568621 7:-0.42832268 8:-0.3052803 9:-0.21865719 10:-0.21865719 11:-0.22791101 12:-0.1981946 13:-0.17575585 14:-0.17569462 15:-0.17909066 16:-0.17803739 17:-0.17514281 18:-0.18373989 19:-0.25749879 20:-0.26319653 21:0 22:0.059245918 23:0.11310584 24:0.13411122 25:0.15350079 26:0.17127456 27:0.19335713 28:0.22405729 29:0.24398546 30:0.24398546 31:0.23752227 32:0.22567309 33:0.21113091 34:0.2154397 35:0.22298009 36:0.22244149 37:0.2213643 38:0.22782749 39:0.25852764 40:0.28599621 41:1 42:0.94542356 43:0.9102211 44:0.87926091 45:0.8634547 46:0.84823534 47:0.81503695 48:0.75339488 49:0.70662812 50:0.70662812 51:0.70295556 52:0.64954078 53:0.59801767 54:0.60657403 55:0.62505084 56:0.62292038 57:0.6178714 58:0.63939486 59:0.77455408 60:0.83518894 
1 0 0 1:-0.37709878 2:-0.30185433 3:-0.30503016 4:-0.28917191 5:-0.28859188 6:-0.2854063 7:-0.28901326 8:-0.28139465 9:-0.27906725 10:-0.28221661 11:-0.2723891 12:-0.29841531 13:-0.26463012 14:-0.23773161 15:-0.31369269 16:-0.40124231 17:-0.73209044 18:-0.85139689 19:-0.96585619 20:-1 21:0.16466334 22:0.19262504 23:0.19469628 24:0.21437303 25:0.21540865 26:0.22990731 27:0.24233473 28:0.22990731 29:0.22887169 30:0.21230179 31:0.20298123 32:0.18951819 33:0.20194561 34:0.21023056 35:0.18641133 36:0.15637839 37:0.091134428 38:0.053852162 39:0.015534277 40:0 41:0.70642546 42:0.68710441 43:0.69442271 44:0.71791796 45:0.71940918 46:0.74522091 47:0.77368272 48:0.74120926 49:0.73681063 50:0.7068202 51:0.67835155 52:0.67745168 53:0.66852134 54:0.65819272 55:0.68651535 56:0.71399909 57:0.91435929 58:0.95910121 59:0.99692475 60:1 
1 0.20352093534707463 0 1:-0.25529385 2:-0.25831107 3:-0.24324484 4:-0.24269379 5:-0.23966731 6:-0.24309412 7:-0.23585601 8:-0.23364485 9:-0.23663692 10:-0.22730024 11:-0.2520266 12:-0.21992878 13:-0.19437368 14:-0.26654096 15:-0.349718 16:-0.66404224 17:-0.77739005 18:-0.8861328 19:-0.91857133 20:-1 21:0.21448923 22:0.21645702 23:0.23515104 24:0.23613493 25:0.24990947 26:0.26171622 27:0.24990947 28:0.24892558 29:0.23318325 30:0.22432819 31:0.21153754 32:0.22334429 33:0.23121546 34:0.20858586 35:0.18005289 36:0.11806747 37:0.082647227 38:0.046243091 39:0.031484658 40:4.485301e-14 41:0.68427231 42:0.69122511 43:0.71354692 44:0.71496366 45:0.73948625 46:0.76652656 47:0.73567496 48:0.73149601 49:0.70300342 50:0.67595661 51:0.67510169 52:0.66661736 53:0.65680459 54:0.68371268 55:0.70982377 56:0.90017718 57:0.94268451 58:0.97861898 59:0.98154064 60:1 
