svm_type c_svc
kernel_type rbf
gamma 0.058823529411764705
nr_class 9
total_sv 78
rho -0.37260510063514307 -0.12454845703218489 -0.61654164399637401 -0.81740916760560089 0.043697446578255306 -0.45865685809430368 -0.51679184114601362 -0.84571879979068132 0.49027470128471029 0.21580597226804024 -0.92102150370403268 0.46668646832169203 0.39209708571434027 -0.77693042159080505 -0.68618062138557434 0.15715385888811662 -0.76957552316708944 -0.11528158187866219 -0.33993908528547995 -0.84552946033170573 -0.42021835998178769 -0.7239407862471009 0.011975754735474424 -0.095986309274944226 -0.31801762112830839 -0.85737176740550036 0.71158271410894314 0.92539834030641688 -0.15505021810531616 -0.11426502466201782 -0.15869265941659408 -1.01528360678327 -0.32336225910743649 -0.78277769755550142 -0.72959929567963622 0.034542471170425471
label 1 5 2 4 7 3 6 8 9
nr_sv 20 4 20 11 2 12 5 2 2
SV
0 0 0.7171775304137159 0 0.06105750118929415 0 0 0 1:1 2:-0.17948718 3:-0.066666667 4:-1 
0.84203049384483031 0.58565731196450654 1 0 0 0 0 0.5606153362343641 1:1 2:0.73643411 3:0.71576227 4:0.5503876 5:0.71576227 6:0.19896641 7:-1 
0 0.58343940535352679 0 0.92954294710147978 0.71972304234377094 1 0 0.016399430276408333 1:1 2:-0.42857143 3:0.42857143 4:-1 
0.15807885349728359 0.027200198156679047 0 0 0.9763546135911858 0 0.7275790024451344 0 1:1 2:-0.38712446 3:-0.3751073 4:-0.9639485 5:-1 
0.26790875591906682 0 1 0 0 0 0 0 1:1 2:0.2109375 3:0.2890625 4:-1 
0 0 1 0.061007673714681028 0.2827662486745553 0 0 0 1:1 2:0.17241379 3:-0.31034483 4:-0.24137931 5:0.27586207 6:-1 
0.87268081948283938 1 0 0 1 0 0.79395655544836574 0 1:1 2:-0.42180095 3:-0.28909953 4:-1 
0 0 1 0.026728908408673147 0 0 0 0 1:1 2:0.94444444 3:0.77525253 4:0.93181818 5:0.31060606 6:-0.17676768 7:-1 
0.53376021146545616 0.78547187194996881 1 0.10350080717011768 0.051469969833845997 0.26896787719710491 0 0.80530380068988583 1:1 2:0.88679245 3:0.52201258 4:0.32914046 5:0.40041929 6:0.4129979 7:0.30398323 8:-0.060796646 9:-0.090146751 10:-1 11:-0.99580713 
0 1 0.046915766418130098 0.52448763887214478 0.76221157130228256 0.27453878566694706 0.14481786795397039 0.075000348452354329 1:1 2:0.13924051 3:-0.26582278 4:0.64556962 5:-1 
0 0 0 0 0 1 0 0 1:1 2:-0.46153846 3:-0.076923077 4:-0.43076923 5:-1 
0 0 0.76034170214952346 0 0 0 0 0 1:1 2:0.081967213 3:0.42076503 4:0.22404372 5:0.18032787 6:-0.89071038 7:-1 
0 0 0 0.0046715817477025389 0 0 0.01023229641758984 0 1:1 2:0.3372093 3:-0.55813953 4:0.058139535 5:-0.5 6:-1 
0 0 1 0 0 0 0 0.10256068609206781 1:1 2:0.40096618 3:0.42028986 4:0.47826087 5:-0.2173913 6:-0.36231884 7:-0.55555556 8:-1 9:-0.98067633 
0 0 0 0 0 0.31259088147931663 0 0 1:1 2:-0.24705882 3:0.15294118 4:-0.36470588 5:-0.88235294 6:-1 
0.82338636664071763 0 0.52159031491047647 0 0 0 0 0 1:1 2:0.024 3:0.632 4:-1 
0 0.2248859072792547 0 0.023125869262845638 0 1 0.11415681756535569 0 1:1 2:0.14814815 3:0.65432099 4:0.7037037 5:-0.30864198 6:-1 
0.43429130691203083 0.93600546584117461 1 0.32693457372235529 0.86088411556952005 0.41636567116007506 0.20925746016958408 0 1:1 2:0.56976744 3:-0.1627907 4:0.72093023 5:0.91860465 6:0.023255814 7:-0.56976744 8:-1 
0.067863192237775552 0.07370184254803408 0.95397468610815395 0 0 0.72753678449655634 0 0.44012039825491955 1:1 2:0.83643123 3:0.76951673 4:0.83643123 5:-1 
0 0 1 0 0 0 0 0 1:1 2:0.64359352 3:0.7083947 4:0.55817378 5:0.027982327 6:-0.013254786 7:-0.40500736 8:-0.82621502 9:-0.97054492 10:-0.81443299 11:-1 
-1 1 1 0.54703450399029696 1 1 0.53338145837055773 0.85960174330062267 1:-1 2:0.83333333 3:0.94444444 4:-0.55555556 5:-0.69444444 6:1 
-1 1 1 0.61206286861331349 1 1 1 0.14039825669937728 1:-0.92857143 2:-0.92857143 3:0.78571429 4:-1 5:1 
-1 1 1 0.84090262739638955 1 1 0.46661854162944227 1 1:0.69230769 2:0.38461538 3:-1 4:0.48717949 5:1 6:0.58974359 7:-0.79487179 
-1 1 1 0 1 1 0 0 1:-0.67567568 2:1 3:0.40540541 4:-1 5:0.027027027 6:0.91891892 
-0 -0 0 0 1 0.050180380685263253 0.45239834426288922 0 1:-1 2:-0.63369963 3:-0.56043956 4:1 
-0 -0 0.53638228174764035 0 0 0.1738975719214009 0 0.16048245017033377 1:-1 2:0.35445545 3:0.47722772 4:0.56435644 5:0.48118812 6:0.04950495 7:1 
-0.073323484658669766 -0.34796471691052538 0 0.27473768436463214 1 1 0.046680889853981451 0 1:-1 2:-0.26690391 3:0.42348754 4:-0.13879004 5:0.060498221 6:0.14590747 7:1 
-0 -0 0 0 1 0 0 0 1:-1 2:-0.89795918 3:0.020408163 4:-0.13265306 5:0.78571429 6:1 
-0.22489372616419637 -0.12474406495116669 0.22767431250850914 0.17213305625335787 1 0.58026803334220534 0.12399125682938537 0 1:-1 2:-0.5117773 3:-0.070663812 4:-0.04496788 5:0.32334047 6:0.11777302 7:-0.30192719 8:0.61456103 9:1 
-0.77527380377730193 -0.63411979275860686 0.83967086882029807 0.35871108874261298 1 0 0.33286218144572322 0 1:-1 2:-0.62162162 3:-0.31081081 4:-0.83783784 5:0.86486486 6:1 
-0.67297999773506378 -0 0 0.16793944935536986 1 0.53000091782852876 1 0 1:-1 2:-0.64835165 3:-0.86813187 4:-0.58241758 5:-0.27472527 6:0.18681319 7:1 8:0.72527473 
-0 -0 0 0 1 0 0 0 1:-1 2:-0.4375 3:-0.5625 4:0.16666667 5:1 
-0 -0 0 0 0 0 0 0.22939112547243992 1:-1 2:-0.63793103 3:0.44827586 4:0.75862069 5:0.5862069 6:0.81034483 7:1 
-0 -0 0 0 1 0 0 0 1:-1 2:-0.25314183 3:-0.23877917 4:-0.3464991 5:0.27109515 6:0.41113106 7:1 
-0.28383534601964355 -1 0.0047809925109565674 0 0 0 0 0.56926521689227416 1:-1 2:0.34911243 3:-0.16568047 4:-0.10650888 5:0.17751479 6:1 
-0.25314761941280478 -1 0 0 1 0 0.044067327608020762 0 1:-1 2:-0.065088757 3:-0.26627219 4:-0.32544379 5:0.017751479 6:1 
-0 -0 0 0 1 0 0 0 1:-1 2:-0.50904393 3:-0.5503876 4:1 
-0.93290802532546457 -0.89317142537970107 1 0 0 0.072015022795106298 0 0.34111943713800708 1:-1 2:0.063953488 3:0.60465116 4:0.56395349 5:1 
-0 -0 0 0 0.41782671180570136 0 0 0 1:-1 2:-0.93103448 3:0.08045977 4:-0.12643678 5:0.75862069 6:1 
-0 -0 0 0.26745360228179976 0 0 0 0 1:-1 2:-0.17142857 3:-0.71428571 4:1 
-0 -0 0 0 1 0 0 0.033302708782050425 1:-1 2:0.083969466 3:0.29770992 4:0.48091603 5:0.3740458 6:0.28244275 7:0.3740458 8:1 9:0.98473282 
-1 -0 1 0 0 1 0 0 1:-1 2:0.41772152 3:0.037974684 4:1 
-1 -0 1 0.75902511900222724 0 1 0 0.66643906154489474 1:-1 2:0.4375 3:0.046875 4:1 
-0 -0 0 0 0.58217328819429859 0.59363807342749553 0 0 1:-1 2:-0.77254902 3:-0.019607843 4:0.38431373 5:-0.20392157 6:1 
-1 -0 -0 0 0 0 0 0 1:1 2:0.41436464 3:0.044198895 4:-0.060773481 5:0.29281768 6:-0.59116022 7:-0.67955801 8:-0.51381215 9:-0.57458564 10:-0.71823204 11:-1 
-1 -0.76928728120955658 -1 0.51567532993426946 1 1 0.50360982992243375 0.37639079273539605 1:1 2:0.38258575 3:0.9525066 4:0.81002639 5:0.29815303 6:0.40897098 7:0.49340369 8:0.092348285 9:0.071240106 10:0.055408971 11:-0.45118734 12:-1 
-1 -0.36693921657163964 -1 0.16323336779268155 0.75931499567212735 0.45322787171081186 0.15305269210119432 0 1:0.96899225 2:0.13178295 3:0.10077519 4:0.6124031 5:1 6:-0.41085271 7:-0.84496124 8:-0.34883721 9:0.48837209 10:-1 
-1 -0 -0.30117428188778306 0 0 0 0 0.58127263891172287 1:1 2:0.82568807 3:0.93577982 4:0.87155963 5:0.85015291 6:0.55045872 7:0.23547401 8:-0.39755352 9:-0.23547401 10:-1 
-1 -1 -0.91812294574171271 0.72986029896659754 1 1 0.85599836586317268 0 1:1 2:0.48333333 3:0.60555556 4:-0.46111111 5:-0.033333333 6:-0.62777778 7:-1 
-1 -0.61672186343588375 -0.040319199669793027 0.024674639695850095 0 0 0 0 1:1 2:0.8729097 3:-0.016722408 4:-0.14381271 5:0.12374582 6:0.070234114 7:-0.53177258 8:-0.59866221 9:-0.69230769 10:-0.47157191 11:-1 
-1 -0 -0 0.18297051905553791 0.23114428188222538 0.87490203336342642 0 0 1:1 2:0.51219512 3:0.2097561 4:0.034146341 5:0.024390244 6:-0.35609756 7:0.22926829 8:-0.41463415 9:-0.41463415 10:-0.68780488 11:-0.51219512 12:-0.56097561 13:-1 
-1 -0 -0 0.0077055107175743875 0.32088585514132756 0 0.41448617106908059 0 1:1 2:0.80320366 3:-0.18535469 4:-0.10755149 5:-0.016018307 6:-0.17162471 7:-0.67505721 8:-0.80778032 9:-0.78947368 10:-1 
-1 -0.67335175069933606 -0.7258605278370821 0 0 0 0 0.41618883438524562 1:1 2:0.70854271 3:0.52763819 4:0.53768844 5:0.59798995 6:0.69849246 7:-0.11557789 8:-0.37688442 9:-0.52763819 10:-0.15577889 11:-0.27638191 12:-0.54773869 13:-1 
-1 -0.57369988808358396 -0 0.27135746296617297 0 1 0 0.54676816952173724 1:1 2:0.39130435 3:0.39130435 4:0.14285714 5:-0.031055901 6:0.19254658 7:-0.44099379 8:-0.40372671 9:-0.25465839 10:-1 
-1 -0 -0.62303150045103339 0.10452287087131613 0.041280063782462614 0.67187009492576188 0.072852941044118602 0.079379564445898318 1:1 2:0.48198198 3:0.34684685 4:0.45495495 5:0.39864865 6:-0.4009009 7:0.065315315 8:0.076576577 9:-0.90315315 10:-1 
-1 -1 -1 -1 1 1 1 1 1:-0.65753425 2:0.54109589 3:-1 4:1 
-1 -1 -1 -1 1 1 1 1 1:0.72903226 2:-0.67741935 3:1 4:-1 
-0.52258869228476756 -0 -1 -0.13888407880583584 -0.445479626149487 1 0.095955023727285024 0.23771748401479059 1:-1 2:-0.48901099 3:-0.54945055 4:-0.027472527 5:-0.010989011 6:0.14835165 7:1 
-0 -0.36196778392002155 -1 -0 -0 0.16458465611968803 0 0.79993055670820479 1:-1 2:-0.6 3:-0.15076923 4:-0.16307692 5:0.77230769 6:0.87076923 7:0.77230769 8:1 
-0.46420984235164298 -1 -1 -0.68051563428042805 -0.28897494680404473 0.074077544242490176 0 0 1:-1 2:-0.74814815 3:-0.14074074 4:-0.25925926 5:0.81481481 6:0.85925926 7:0.44444444 8:1 
-1 -1 -1 -0.46174235097809802 -0.40236996250658325 1 0 0.15397667063000159 1:-1 2:-0.38922156 3:-0.11377246 4:-0.31736527 5:0.005988024 6:0.43712575 7:0.4011976 8:-0.19760479 9:0.30538922 10:1 
-0 -0 -1 -0 -0 0 0 0 1:-1 2:-0.82692308 3:-0.35576923 4:-0.55769231 5:-0.25 6:0.25961538 7:0.31730769 8:0.41346154 9:0.39423077 10:0.35576923 11:0.55769231 12:1 
-0 -0 -1 -0.24795698034177407 -0.0050909633281701876 0.19876785306725012 0 0.26564193316759432 1:-1 2:-0.68831169 3:0.090909091 4:0.14285714 5:0.80519481 6:0.28571429 7:0.22077922 8:0.48051948 9:1 10:0.48051948 11:0.54545455 12:0.35064935 
-0 -0 -1 -0 -0 0.47329408998002331 0.50551082730345964 0 1:-1 2:-0.87586207 3:-0.51724138 4:0.062068966 5:-0.13103448 6:0.048275862 7:0.2137931 8:0.26896552 9:0.048275862 10:0.68275862 11:1 
-0.88944651401028196 -0.79736958476343733 -1 -0.70170438991854822 -0.26796230917271119 0.61069122249732666 0.33100838871737343 0.42209810527851094 1:-1 2:0.37055838 3:-0.79695431 4:-0.53299492 5:-0.23857868 6:0.16751269 7:0.63451777 8:-0.59390863 9:-0.23857868 10:0.11675127 11:0.72588832 12:0.78680203 13:1 14:0.93908629 15:1 
-0.83822201385776218 -0.63086335553435313 -1 -0.76891282701253882 -0.24421618675738654 1 0 0 1:-1 2:-0.5890411 3:-0.36073059 4:-0.44292237 5:0.10958904 6:-0.10045662 7:0.21461187 8:0.29223744 9:1 
-1 -0.20979927578218802 -1 -0.35290893514091981 -0.34590600528161713 0.47858463409322155 0.82068675656975087 0.12063525020089785 1:-1 2:-0.66153846 3:-0.63846154 4:-0.43846154 5:-0.21538462 6:-0.25384615 7:-0.21538462 8:0.10769231 9:0.5 10:0.13846154 11:1 
-0 -0 -1 -0 -0 0 0 0 1:-1 2:-0.74382022 3:-0.77078652 4:-0.087640449 5:0.029213483 6:0.24044944 7:0.82022472 8:0.73033708 9:1 
-0 -0 -1 -0 -0 0 0.2468390036821311 0 1:-1 2:-0.93852459 3:-0.32581967 4:-0.41393443 5:-0.036885246 6:0.25 7:0.40368852 8:0.90368852 9:0.37704918 10:0.60040984 11:0.76639344 12:0.83401639 13:0.96311475 14:0.91803279 15:1 
-1 -0.6826041215146339 -1 -1 -0.39006314904552197 -1 0 0.68605905717289062 1:0.89130435 2:-1 3:1 4:0.23913043 
-1 -0.31739587848536605 -1 -1 -0.13653557990895054 -1 0.26104952233776008 0 1:-1 2:0.02247191 3:0.31460674 4:1 5:-0.83146067 6:-0.35955056 7:0.66292135 
-1 -1 -1 -1 -0.74905391092400253 -1 0.18859687321106966 0.70592823560769979 1:-0.7704918 2:1 3:0.47540984 4:-0.14754098 5:-1 6:-0.18032787 
-1 -1 -1 -1 -0.046259289456151369 -1 0.90371856180491061 0 1:-0.73913043 2:-0.39130435 3:1 4:-0.47826087 5:-1 6:-0.69565217 7:0.26086957 
-1 -1 -1 -1 -0.67808807066537358 -1 0.64663504264625982 0.60801270721940959 1:1 2:-1 3:-0.37931034 4:0.65517241 5:0.72413793 6:-0.034482759 
-1 -1 -1 -1 -1 -1 -1 1 1:-1 2:-0.6819788 3:-0.92932862 4:-0.71731449 5:-0.29328622 6:-0.40636042 7:0.067137809 8:0.26501767 9:-0.12367491 10:0.32862191 11:1 
-1 -1 -1 -1 -1 -1 -1 0.92903238719686287 1:-0.98913043 2:-1 3:-0.30434783 4:-0.47826087 5:-0.41304348 6:0.23913043 7:0.34782609 8:-0.19565217 9:0.032608696 10:0.32608696 11:0.73913043 12:0.23913043 13:0.85869565 14:1 
-1 -1 -1 -1 -1 -1 -1 -0.92903238719686276 1:1 2:0.91836735 3:0.85157699 4:0.76623377 5:0.60296846 6:0.73283859 7:0.62152134 8:0.55473098 9:0.13172542 10:-0.2096475 11:0.10946197 12:-0.283859 13:-0.61410019 14:-0.81818182 15:-0.27272727 16:-0.58070501 17:-1 
-1 -1 -1 -1 -1 -1 -1 -1 1:1 2:0.39622642 3:0.58490566 4:0.71698113 5:-0.1509434 6:0.66037736 7:-0.50943396 8:-0.37735849 9:-0.73584906 10:-1 
