svm_type c_svc
kernel_type rbf
gamma 0.058823529411764705
nr_class 12
total_sv 123
rho 0.045027563029434135 0.18411547487653676 -0.54464769338672081 -0.19254976862988551 -0.27147925449985316 -0.91252039592329282 -0.56525203630897058 -0.85968128765870144 -0.90768403533133302 -0.78263798987293864 -0.90542286372476077 -0.73733560147900012 0.008689053716517894 -0.85417712517962674 -0.2499257658104323 -0.27399046234025792 -0.37745727992455902 -0.97934943437576294 -0.80638864567586799 -0.95213945568306213 -0.92236667121004168 -0.040332398871119432 -0.89063497703921479 0.038591864190330935 -0.12549956898976264 -0.29486833521425909 -0.9459653093932846 -0.80685484587224077 -0.91844780810283833 -0.90132358528755774 -0.07836602208617148 -0.0036742560306046142 -0.98642351792110483 -0.46828013495561088 -0.81377481124314344 -0.8413206934928894 -0.75189611740694939 -0.84776192946330842 0.6975204904670429 -0.056877832098731262 0.41625884175300598 -0.81997489929199219 -0.64208116027946893 -0.8218720555305481 -0.7771131694316864 -0.75033752766535 -0.58816452324390411 -1.0362993164951531 -0.91059153910907353 -0.93672608791750622 -0.96676471647871998 0.55775541067123424 -0.73151981165041768 -0.65305463859287738 -0.62414613995524437 -0.71079355681992229 -0.96233554992827486 -0.90488436564668895 -0.93515098094940186 -0.96505051295323641 0 0 0 0 0 0
label 2 1 4 3 9 6 8 5 7 12 11 10
nr_sv 34 35 16 17 3 7 3 4 1 1 1 1
SV
0 0 1 0 0 0 0 0 0 0 0 1:-1 2:0.095435685 3:-0.29460581 4:-0.053941909 5:0.75103734 6:1 
0 0 0 0 0 0 0 0 0.031414785264983126 0 0 1:-1 2:-0.77254902 3:-0.019607843 4:0.38431373 5:-0.20392157 6:1 
0.68964261714399444 1 0 0.96903573295963852 1 0 0 0 0.0047414086245091023 0 0 1:-1 2:0.4375 3:0.046875 4:1 
0 0 0 0 0.18050483756461824 0 0 0 0 0 0 1:-1 2:0.41772152 3:0.037974684 4:1 
0 0 1 0 0 0 0 0 0 0 0 1:-1 2:0.083969466 3:0.29770992 4:0.48091603 5:0.3740458 6:0.28244275 7:0.3740458 8:1 9:0.98473282 
0 0 0 0 0 0 0 0 0 0.16259619687107751 0 1:-1 2:-0.17142857 3:-0.71428571 4:1 
0 0 0.20403338493660386 0 0 0 0 0 0 0 0 1:-1 2:-0.93103448 3:0.08045977 4:-0.12643678 5:0.75862069 6:1 
0 0.71398384451266872 0 0 0 0 0.027129024914779191 0 0 0 0 1:-1 2:0.063953488 3:0.60465116 4:0.56395349 5:1 
0 0 0.38576365514029665 0 0 0 0.63753698827139449 0 0 0 0 1:-1 2:-0.065088757 3:-0.26627219 4:-0.32544379 5:0.017751479 6:1 
0 0 0 0.091414653072308269 0 0 0 0 0 0 0 1:-1 2:-0.63793103 3:0.44827586 4:0.75862069 5:0.5862069 6:0.81034483 7:1 
0 0 1 0 0 0 0 0 0 0 0 1:-1 2:-0.25314183 3:-0.23877917 4:-0.3464991 5:0.27109515 6:0.41113106 7:1 
0 0 0 0.19048271360070507 0 0 1 0 0 0.20904523540068226 0 1:-1 2:0.34911243 3:-0.16568047 4:-0.10650888 5:0.17751479 6:1 
0 0 1 0 0 0 0 0 0 0 0 1:-1 2:-0.4375 3:-0.5625 4:0.16666667 5:1 
0.58701327365927947 0.031732996340494563 1 0 0 0.13732523678512415 0.63066699287957606 0 0 0 0 1:-1 2:-0.62162162 3:-0.31081081 4:-0.83783784 5:0.86486486 6:1 
0 0 1 0 0 1 0 0 0 0 0 1:-1 2:-0.64835165 3:-0.86813187 4:-0.58241758 5:-0.27472527 6:0.18681319 7:1 8:0.72527473 
0 0 1 0 0 0 0 0 0.2911018964732191 0 0 1:-1 2:-0.5117773 3:-0.070663812 4:-0.04496788 5:0.32334047 6:0.11777302 7:-0.30192719 8:0.61456103 9:1 
0 0 0 0 0.61361340174103707 0 0 0.019287925253030934 0 0 0 1:-1 2:-0.26690391 3:0.42348754 4:-0.13879004 5:0.060498221 6:0.14590747 7:1 
0 0 1 0 0 0 0 0 0 0 0 1:-1 2:-0.89795918 3:0.020408163 4:-0.13265306 5:0.78571429 6:1 
0 0 0 0.39998720687683859 0 0 0 0 0 0 0 1:-1 2:0.35445545 3:0.47722772 4:0.56435644 5:0.48118812 6:0.04950495 7:1 
0 0 0 0 0 0 0 0 0.050211320815589204 0 0 1:-1 2:-0.63369963 3:-0.56043956 4:1 
1 1 0 0.86098228270484234 0.64755634928772987 0 1 0.0013434194484108087 0 0 0.6960363812744601 1:-1 2:0.31972789 3:0.55102041 4:0.19727891 5:1 
0 0 0 0 0 0 0 0.38777434729947446 0 0 0 1:-1 2:-0.59322034 3:0.3220339 4:-0.050847458 5:1 
0 0 1 0 0 0 0 0 0 0 0 1:-1 2:-0.53308824 3:-0.28676471 4:-0.60661765 5:-0.30882353 6:0.60661765 7:1 
0 0 0.6385645322410276 0 0.0615727181172743 0.035596934544923992 0 0 0 0 0 1:-1 2:-0.44206009 3:-0.19313305 4:0.038626609 5:-0.40772532 6:-0.29613734 7:0.10729614 8:1 
1 0.61418627093994693 1 0.071266913339666574 1 0.041170151506503778 0.59609501995016501 0.33077877800707206 0 0 0.15337352458996595 1:-1 2:-0.34591195 3:0.2327044 4:-0.64779874 5:-0.64779874 6:-0.018867925 7:0.54716981 8:1 
0 0 1 0 0 0 0 0 0 0 0 1:-1 2:-0.69230769 3:-0.43589744 4:0.1025641 5:-0.051282051 6:0.41025641 7:1 
0 0 0 0 0.49675269328934063 0 0 0 0.36497430793814345 0 0 1:-1 2:-0.73333333 3:0.6 4:0.6 5:1 
0 0 1 0 0 0.30258051649873652 0 0 0 0 0 1:-1 2:-0.45454545 3:0.36363636 4:0.57575758 5:0.48484848 6:-0.24242424 7:0.42424242 8:0.66666667 9:0.96969697 10:1 11:1 12:0.78787879 
0 0 1 0 0 0 0 0 0 0 0 1:-1 2:-0.95348837 3:0.069767442 4:0.62790698 5:0.39534884 6:0.58139535 7:1 
1 0.7235174086108922 0 0 0 0 0 0 0 0.23049306693526644 0 1:-1 2:0.46666667 3:-0.066666667 4:1 
0.36915840181740223 0.31018534632046663 0.77163842768207191 0.41683049744600054 1 0.4833271606647116 0 0.19471112567617826 0 0.28429076956616334 0 1:-1 2:-0.75 3:-0.041666667 4:-0.5 5:-0.54166667 6:1 
0 0 1 0 0 0 0 0 0 0 0 1:-1 2:-0.48529412 3:-0.058823529 4:0.35294118 5:0.23529412 6:0.39705882 7:0.5 8:0.55882353 9:0.80882353 10:0.83823529 11:1 
0 0 0 0 1 0 0 0 0 0 0 1:-1 2:-0.13513514 3:0.24324324 4:0.18918919 5:-0.45945946 6:0.40540541 7:1 
0.95188235575776703 0.70154400908165626 1 0 1 1 0.10857197398408525 0.066104404315833434 0.25755628088355592 0.11357473122681043 0.15059009413557398 1:-1 2:-0.75 3:-0.3125 4:-0.041666667 5:-0.3125 6:-0.5625 7:-0.47916667 8:-0.375 9:0.3125 10:1 
-0 1 0 0.15485027076541447 0 0 0 0 0 0 0 1:1 2:0.64359352 3:0.7083947 4:0.55817378 5:0.027982327 6:-0.013254786 7:-0.40500736 8:-0.82621502 9:-0.97054492 10:-0.81443299 11:-1 
-0.16889940233356163 0 0 0.42981528474530295 0.60598347515805484 0 0 0 0 0 0 1:1 2:0.83643123 3:0.76951673 4:0.83643123 5:-1 
-0.73126127191614676 1 1 0 0.4886072690038159 0.38833535897283239 0.46679171758260762 0 0.3863132770586965 0 0.028920588312701057 1:1 2:0.56976744 3:-0.1627907 4:0.72093023 5:0.91860465 6:0.023255814 7:-0.56976744 8:-1 
-0.036625901746448947 0.16170724987078608 0 0 1 0 0 0 0 0 0 1:1 2:0.14814815 3:0.65432099 4:0.7037037 5:-0.30864198 6:-1 
-0 1 0 0 0 0 0 0 0 0 0 1:1 2:0.40096618 3:0.42028986 4:0.47826087 5:-0.2173913 6:-0.36231884 7:-0.55555556 8:-1 9:-0.98067633 
-0 1 0 0 0 0 0 0 0 0 0 1:1 2:0.081967213 3:0.42076503 4:0.22404372 5:0.18032787 6:-0.89071038 7:-1 
-0 0.29700979015864359 0 0 0 0 0 0 0 0 0 1:1 2:-0.037288136 3:0.33559322 4:0.071186441 5:-0.31525424 6:-0.93220339 7:-1 
-0.21183875888683723 0 0 0 1 0 0 0 0.027830351025033322 0 0 1:1 2:-0.46153846 3:-0.076923077 4:-0.43076923 5:-1 
-0 0 0 0 0 0 0 0 0 0 0.099906953979710444 1:1 2:0.65638767 3:-0.066079295 4:-0.82378855 5:-0.50660793 6:-1 
-0 1 0 1 0.13109096426448147 0 0.50093330546097037 0 0 0 0 1:1 2:0.88679245 3:0.52201258 4:0.32914046 5:0.40041929 6:0.4129979 7:0.30398323 8:-0.060796646 9:-0.090146751 10:-1 11:-0.99580713 
-0 0 0 0 0 0 0 0 0 0.06999079064079726 0 1:1 2:0.5339233 3:-0.1740413 4:-0.15044248 5:-1 
-1 0.060527714773290692 1 0 0.39083775177425212 0 0 0 0 0.42036389466206453 0 1:1 2:0.13924051 3:-0.26582278 4:0.64556962 5:-1 
-0 0.35194064675021491 0 0 0 0 0 0 0 0 0 1:1 2:0.94444444 3:0.77525253 4:0.93181818 5:0.31060606 6:-0.17676768 7:-1 
-1 0.0087230782848216303 1 0 0 1 1 0 0 0 0 1:1 2:-0.42180095 3:-0.28909953 4:-1 
-0 0.10082091117267657 0 0 0 0 0 0 0 0 0 1:1 2:0.17241379 3:-0.31034483 4:-0.24137931 5:0.27586207 6:-1 
-0.63366808074938652 1 0 0.070851346286336811 1 0 0 0.90419174458804152 0.13798809060087508 0 0 1:1 2:-0.42857143 3:0.42857143 4:-1 
-0.24511000023745247 0 0.61196130513695923 0 0 0.96464211986868242 0 0 0 0 0 1:1 2:-0.38712446 3:-0.3751073 4:-0.9639485 5:-1 
-0.42772936366369041 1 0 0.48752943709497487 0.20505654491734784 0 0.82210041616599838 0 0 0 0 1:1 2:0.73643411 3:0.71576227 4:0.5503876 5:0.71576227 6:0.19896641 7:-1 
-0 0 0 0 0 0 0 0 0 0 0.014095665555121241 1:1 2:0.72727273 3:0.26363636 4:0.054545455 5:-0.10909091 6:-0.036363636 7:-0.43636364 8:-1 
-0 0.16237922753999509 0 0 0.27855778166145662 0.59221319853554322 0 0 0 0 0 1:1 2:-0.34824281 3:-0.022364217 4:-0.073482428 5:-0.79552716 6:-1 
-0 0.01892903678434214 0 0 0 0 0 0 0.2008945516676314 0 0 1:1 2:0.051359517 3:-0.003021148 4:0.63746224 5:-0.46827795 6:-0.78247734 7:-1 
-0 0 0 0 0 0 0 0 0 0.10674135820177044 0 1:1 2:0.32701422 3:-0.14691943 4:0.57345972 5:-0.17535545 6:-0.21327014 7:-1 
-0 0 0 0 0 0 0.86930453397597962 0 0 0 0.54005372738475788 1:1 2:0.51269036 3:0.54314721 4:-1 
-0 1 0 0 0 0 0 0 0 0 0 1:1 2:0.63667233 3:0.22241087 4:-0.10356537 5:-0.28692699 6:-0.14770798 7:-0.0084889643 8:-0.066213922 9:-0.28692699 10:-0.3106961 11:-0.62988115 12:-1 13:-0.9286927 
-0.5030438238824736 0.270489059716711 0 0 0 0 0 0 0 0 0.17423650380847305 1:1 2:0.80722892 3:0.61445783 4:0.63855422 5:0.6686747 6:-1 
-0 0.47368144563545928 0 0 0 0 0 0 0.086435102622214835 0 0.047479530510234597 1:1 2:0.064935065 3:0.12987013 4:-0.44155844 5:-0.75324675 6:-0.84415584 7:-0.92207792 8:-1 
-0 1 0 0 0 0 0 0 0 0 0 1:1 2:0.59036145 3:0.20481928 4:0.18875502 5:0.26639893 6:0.20481928 7:0.076305221 8:-0.10307898 9:-0.437751 10:-0.3601071 11:-1 
-0.15163938087286893 0 1 0 0.48972148329869503 0.054809322622941914 0.049677260018356019 0 0 0 0 1:1 2:-0.40766551 3:-0.18466899 4:-1 
-0 1 0 0.13374988284945266 0 0 0 0 0 0 0.095307030449001656 1:1 2:0.62264151 3:-0.27044025 4:-0.54716981 5:-0.24528302 6:-0.53459119 7:-0.69811321 8:-0.74842767 9:-0.93710692 10:-1 
-0 0 0 0 1 0 0.29119276679608791 0.095808255411958518 0 0 0 1:1 2:-0.2 3:0.7 4:-0.95 5:-1 
-0.48788066408957642 1 0.27952293325434857 0 0.41014472992189621 0 0 0 0.16053862702554886 0 0 1:1 2:0.84158416 3:0.65676568 4:0.42574257 5:0.42574257 6:0.089108911 7:0.25412541 8:0.35973597 9:0.12211221 10:-0.79537954 11:-1 
-0 0.50779381596140061 0 0 0 0 0 0 0 0 0 1:1 2:0.4887218 3:-0.022556391 4:-0.35338346 5:-0.30827068 6:-0.21804511 7:-0.5037594 8:-0.96992481 9:-1 
-0 0.5859980233516584 0 0 0 0 0 0 0 0.40290395649536781 0 1:1 2:0.15555556 3:-0.51111111 4:0.066666667 5:-0.33333333 6:-0.33333333 7:-1 
-0 1 0 0 0 0 0 0 0 0 0 1:1 2:0.79238754 3:0.41176471 4:0.16262976 5:-0.031141869 6:0.14186851 7:-0.12802768 8:-0.8200692 9:-1 
-0 1 0 0.72320377825851823 0 0 0 0 0 0 0 1:1 2:0.79238754 3:0.41176471 4:0.16262976 5:-0.031141869 6:0.14186851 7:-0.12802768 8:-0.8200692 9:-1 
-0 -1 0 0.51849231827630227 0 0 0 0 0 0 0 1:1 2:0.48198198 3:0.34684685 4:0.45495495 5:0.39864865 6:-0.4009009 7:0.065315315 8:0.076576577 9:-0.90315315 10:-1 
-0 -1 0 0.66945291113739391 1 0 0.05782247884035617 0.087720203418882703 0 0.24288224949870693 0 1:1 2:0.39130435 3:0.39130435 4:0.14285714 5:-0.031055901 6:0.19254658 7:-0.44099379 8:-0.40372671 9:-0.25465839 10:-1 
-0.51594557732226787 -1 0.30318362768050017 0.42638360113112206 0.29705043420620153 0 0.82797180200956655 0 0 0.094473195942115715 0 1:1 2:0.70854271 3:0.52763819 4:0.53768844 5:0.59798995 6:0.69849246 7:-0.11557789 8:-0.37688442 9:-0.52763819 10:-0.15577889 11:-0.27638191 12:-0.54773869 13:-1 
-0 -1 0 0 0 0 0 0 0 0 0.0053927765369556268 1:1 2:0.80320366 3:-0.18535469 4:-0.10755149 5:-0.016018307 6:-0.17162471 7:-0.67505721 8:-0.80778032 9:-0.78947368 10:-1 
-0 -1 0 0 0.240722236006921 0 0 0 0 0 0.026337215239192087 1:1 2:0.51219512 3:0.2097561 4:0.034146341 5:0.024390244 6:-0.35609756 7:0.22926829 8:-0.41463415 9:-0.41463415 10:-0.68780488 11:-0.51219512 12:-0.56097561 13:-1 
-0.2681077498878599 -1 0 0 1 0.10970996010913618 0.91874161704451174 0.21792307019377194 0 0.049470835585493048 0.52670869607927628 1:1 2:0.48333333 3:0.60555556 4:-0.46111111 5:-0.033333333 6:-0.62777778 7:-1 
-0 -1 0 0 0 0 0.29074178985698407 0 0 0 0.10123966392138853 1:1 2:0.8729097 3:-0.016722408 4:-0.14381271 5:0.12374582 6:0.070234114 7:-0.53177258 8:-0.59866221 9:-0.69230769 10:-0.47157191 11:-1 
-0.43344379221213952 -1 0 0.89810211786515226 0.45489572959013547 0 0.32284564371634777 0 0 0 0.097866243890033566 1:1 2:0.82568807 3:0.93577982 4:0.87155963 5:0.85015291 6:0.55045872 7:0.23547401 8:-0.39755352 9:-0.23547401 10:-1 
-1 -1 0.92821154855448573 0 0.33021247901498124 0.59497815608790772 0.2361778698531655 0 0.52225920396450032 0.0034435810472549571 0 1:0.96899225 2:0.13178295 3:0.10077519 4:0.6124031 5:1 6:-0.41085271 7:-0.84496124 8:-0.34883721 9:0.48837209 10:-1 
-1 -1 1 0.25073451117363388 1 0.28946560596744397 0.44530773628021214 0.18453609402141849 0.16217101398299502 0.019596198599329064 0 1:1 2:0.38258575 3:0.9525066 4:0.81002639 5:0.29815303 6:0.40897098 7:0.49340369 8:0.092348285 9:0.071240106 10:0.055408971 11:-0.45118734 12:-1 
-0 -1 0 0 0 0 0 0 0 0 0 1:1 2:0.41436464 3:0.044198895 4:-0.060773481 5:0.29281768 6:-0.59116022 7:-0.67955801 8:-0.51381215 9:-0.57458564 10:-0.71823204 11:-1 
-0 -1 0 0 0 0 0 0 0.0085037674839717435 0 0.04747563784813523 1:1 2:0.86619718 3:0.75352113 4:-0.15492958 5:0.028169014 6:0.26760563 7:-0.91549296 8:-0.8028169 9:-0.48591549 10:-0.3943662 11:-0.93661972 12:-1 
-0.87765275638385798 -1 0.4584967587150538 0.23683454041639551 1 0.93625450110653841 0 0 0.032395617379349394 0.53756728997220382 0 1:1 2:0.068965517 3:-0.068965517 4:0.44827586 5:-1 6:-0.48275862 7:-0.5862069 8:-0.5862069 9:-0.89655172 
-1 -1 1 0 1 1 0.67436794692910396 0.5098206323659269 0.012789949773873693 0 0.19497976648501858 1:1 2:0.028037383 3:0.14018692 4:-0.4953271 5:-0.47663551 6:-1 
-0 -1 0.31466953521174529 0 0.43447556849486768 0 0.22602311546975207 0 0.2618804474153098 0.052566649354896515 0 1:1 2:0.14 3:-0.184 4:-0.016 5:0.072 6:0.044 7:-0.448 8:-0.628 9:-0.56 10:-0.652 11:-1 
-0 -1 0 0 0 0 0 0 0 0 0 1:1 2:0.48148148 3:0.66666667 4:0.38888889 5:-0.14814815 6:-0.31481481 7:-0.75925926 8:-0.59259259 9:-0.62962963 10:-0.81481481 11:-1 
-1 -0 -0 0 0 0.39443671531139518 0 0.025491690696628537 0 0 0 1:-1 2:-0.93852459 3:-0.32581967 4:-0.41393443 5:-0.036885246 6:0.25 7:0.40368852 8:0.90368852 9:0.37704918 10:0.60040984 11:0.76639344 12:0.83401639 13:0.96311475 14:0.91803279 15:1 
-1 -0 -0 0 0 0 0 0 0 0 0 1:-1 2:-0.74382022 3:-0.77078652 4:-0.087640449 5:0.029213483 6:0.24044944 7:0.82022472 8:0.73033708 9:1 
-1 -0.8696147154932673 -0.45831726091557512 0.063276508304851195 1 1 0.053701774080203407 0.18718889410136533 0 0.18642399329516901 0.046806560294356474 1:-1 2:-0.66153846 3:-0.63846154 4:-0.43846154 5:-0.21538462 6:-0.25384615 7:-0.21538462 8:0.10769231 9:0.5 10:0.13846154 11:1 
-1 -0.95804010907819837 -0.82895514921276647 0 0.97741832840332088 0 0.38703945135046974 0.13031209512094993 0.47960882779710412 0 0.3103609268992672 1:-1 2:-0.5890411 3:-0.36073059 4:-0.44292237 5:0.10958904 6:-0.10045662 7:0.21461187 8:0.29223744 9:1 
-1 -0.82136059746263435 -0.66401323878371143 0.55834239773057026 0.73992103509638474 0.47002509437075435 0.54462837860321389 0.032926930360348577 0 0.098321011016671095 0.26314738324430537 1:-1 2:0.37055838 3:-0.79695431 4:-0.53299492 5:-0.23857868 6:0.16751269 7:0.63451777 8:-0.59390863 9:-0.23857868 10:0.11675127 11:0.72588832 12:0.78680203 13:1 14:0.93908629 15:1 
-1 -0 -0 0 0 0.37580870238650887 0 0 0 0 0 1:-1 2:-0.87586207 3:-0.51724138 4:0.062068966 5:-0.13103448 6:0.048275862 7:0.2137931 8:0.26896552 9:0.048275862 10:0.68275862 11:1 
-1 -0 -0 0 0 0 0 0 0 0 0 1:-1 2:-0.68831169 3:0.090909091 4:0.14285714 5:0.80519481 6:0.28571429 7:0.22077922 8:0.48051948 9:1 10:0.48051948 11:0.54545455 12:0.35064935 
-1 -0 -0 0 0 0.61905797311416966 0 0.029468699331323258 0 0 0 1:-1 2:-0.82692308 3:-0.35576923 4:-0.55769231 5:-0.25 6:0.25961538 7:0.31730769 8:0.41346154 9:0.39423077 10:0.35576923 11:0.55769231 12:1 
-1 -0.47654398570806833 -0 0 0.86238391642041312 0 0.78243943651766434 0.14878115867708652 0 0 0.21390040270762029 1:-1 2:-0.38922156 3:-0.11377246 4:-0.31736527 5:0.005988024 6:0.43712575 7:0.4011976 8:-0.19760479 9:0.30538922 10:1 
-1 -0 -0 0 0 0 0.61748191490646209 0.0070810575816362999 0 0 0 1:-1 2:-0.74814815 3:-0.14074074 4:-0.25925926 5:0.81481481 6:0.85925926 7:0.44444444 8:1 
-1 -0 -0 0 0 0 0 0 0 0 0 1:-1 2:-0.6 3:-0.15076923 4:-0.16307692 5:0.77230769 6:0.87076923 7:0.77230769 8:1 
-1 -0.18587810542437727 -0.026988903060724052 0 1 0.14067151481717186 0 0 0 0 0 1:-1 2:-0.48901099 3:-0.54945055 4:-0.027472527 5:-0.010989011 6:0.14835165 7:1 
-1 -0.51234152622537266 -1 0.88792196082549657 0.30853645180067324 0 0.34531555455414265 0 0.52039117220289588 0 0 1:-1 2:-0.36666667 3:-0.4 4:0.63333333 5:0.62222222 6:1 
-1 -1 -0.63121129232293782 1 1 0 1 0 0 0.71525499568815998 0.12283306063489909 1:-1 2:-0.05 3:-0.4 4:0.10714286 5:0.078571429 6:1 
-1 -0.067705198999389621 -0 0.093165853581562888 0 0 0.26939348998784385 0.37438493312303167 0 0 0.042951666219551612 1:-1 2:-0.65454545 3:-0.10909091 4:-0.58181818 5:0.63636364 6:0.50909091 7:1 
-1 -0 -0 0 0 0 0 0 0 0 0 1:-1 2:-0.37777778 3:-0.51111111 4:-0.33333333 5:0.11111111 6:0.6 7:1 8:0.73333333 9:0.86666667 10:0.95555556 11:1 
-1 -0 -0.39507562586607003 0.39729327955751914 1 0 0 0.064364541007629894 0 0 0 1:-1 2:-0.67164179 3:0.58208955 4:0.40298507 5:0.52238806 6:0.82089552 7:0.91044776 8:0.67164179 9:0.73134328 10:1 
-1 -1 -1 -1 1 0.55950271314347644 1 0 0.65482897293982534 0.86701839702549266 0 1:1 2:0.39622642 3:0.58490566 4:0.71698113 5:-0.1509434 6:0.66037736 7:-0.50943396 8:-0.37735849 9:-0.73584906 10:-1 
-1 -1 -1 -1 1 0.61260068273106494 1 0.23732303776688751 0.28108746481832619 0.13298160297450731 0.21763406020768167 1:1 2:0.91836735 3:0.85157699 4:0.76623377 5:0.60296846 6:0.73283859 7:0.62152134 8:0.55473098 9:0.13172542 10:-0.2096475 11:0.10946197 12:-0.283859 13:-0.61410019 14:-0.81818182 15:-0.27272727 16:-0.58070501 17:-1 
-1 -1 -1 -1 1 1 1 0.76267696223311243 0.064083562241848413 0 0.78236593979231839 1:1 2:0.5186722 3:0.7593361 4:0.16182573 5:0.19502075 6:-0.087136929 7:0.070539419 8:-0.5186722 9:-0.96680498 10:-1 
-1 -1 -1 -1 -0.77842497267365851 0.57678887415927527 1 0 0.41402891711669521 0.32496725389960052 0.089789101568344631 1:1 2:-1 3:-0.37931034 4:0.65517241 5:0.72413793 6:-0.034482759 
-1 -1 -0.75735644731310692 -1 -0 0.97135494173324344 0.63958376750089996 0.026239795153796697 0.06148862523504741 0 0.064064277567118522 1:-0.73913043 2:-0.39130435 3:1 4:-0.47826087 5:-1 6:-0.69565217 7:0.26086957 
-1 -1 -1 -1 -0.75163995292345798 0 1 0 0 0.33170639279195274 0.48924256418635137 1:-0.7704918 2:1 3:0.47540984 4:-0.14754098 5:-1 6:-0.18032787 
-1 -1 -1 -1 -0 0.4643319194635635 0 0 0.19734329852106783 0 0 1:-1 2:0.02247191 3:0.31460674 4:1 5:-0.83146067 6:-0.35955056 7:0.66292135 
-1 -1 -1 -0.88825973172079187 -0.99449808844656462 0 0 0.37400294970684178 0 0 0 1:0.89130435 2:-1 3:1 4:0.23913043 
-1 -1 -1 -1 -0.47543698595631884 0.50567174195120201 1 0.18274419347191773 0.3271391591271896 0 0.3443023901532169 1:-1 2:0.36842105 3:1 4:-0.46315789 5:0.53684211 6:0.97894737 
-1 -1 -1 -1 -0 0.48185252269271583 0.3604162324991001 0.41701306166744379 0 0.34332635330844674 0.012601666524968509 1:1 2:-0.92207792 3:0.19480519 4:-0.74025974 5:-1 
-1 -1 -0.93040822327102624 -1 -0.72478495238618657 -1 1 0.34752595695985883 0.26110173856322688 0.26797936414419871 0.096948461313446255 1:-0.98913043 2:-1 3:-0.30434783 4:-0.47826087 5:-0.41304348 6:0.23913043 7:0.34782609 8:-0.19565217 9:0.032608696 10:0.32608696 11:0.73913043 12:0.23913043 13:0.85869565 14:1 
-1 -1 -1 -1 -0.84084783906641025 -1 1 0.27718137929826203 0.075488896831085159 0.45982461786857864 0.5004192816896077 1:-1 2:-0.6819788 3:-0.92932862 4:-0.71731449 5:-0.29328622 6:-0.40636042 7:0.067137809 8:0.26501767 9:-0.12367491 10:0.32862191 11:1 
-1 -1 -1 -1 -0.60647060442194456 -1 1 0.37529266374187914 0.66340936460568789 0.2721960179872227 0.40263225699694599 1:-1 2:-0.91803279 3:-0.50819672 4:-0.6557377 5:-0.27868852 6:-0.40163934 7:-0.14754098 8:0.19672131 9:0.18852459 10:0.049180328 11:0.25409836 12:0.8852459 13:1 
-1 -1 -1 -1 -0.44532146361646074 -1 -0.075213277473938855 0 0 0 0.61252698164832586 1:-0.67567568 2:1 3:0.40540541 4:-1 5:0.027027027 6:0.91891892 
-1 -1 -1 -1 -1 -1 -0.92478672252606109 0.19049153642566938 0.40537301306793316 0.690165082572612 0.10274242068958177 1:0.69230769 2:0.38461538 3:-1 4:0.48717949 5:1 6:0.58974359 7:-0.79487179 
-1 -1 -1 -1 -0.55467853638353926 -1 -1 0.5896383129703352 0.45654560686670981 0 0.28473059766209252 1:-0.92857143 2:-0.92857143 3:0.78571429 4:-1 5:1 
-1 -1 -1 -1 -1 -1 -1 0.2198701506039954 0.13808138006535703 0.309834917427388 0 1:-1 2:0.83333333 3:0.94444444 4:-0.55555556 5:-0.69444444 6:1 
-1 -1 -1 -1 -1 -1 -1 -1 1 1 1 1:0.72903226 2:-0.67741935 3:1 4:-1 
-1 -1 -1 -1 -1 -1 -1 -1 -1 1 1 1:-0.75961538 2:-0.75961538 3:0.19230769 4:0.61538462 5:0.45192308 6:0.067307692 7:-0.97115385 8:-0.75961538 9:1 10:-0.15384615 11:-1 
-1 -1 -1 -1 -1 -1 -1 -1 -1 -1 1 1:1 2:0.33333333 3:-0.66666667 4:0.39393939 5:-0.96969697 6:0.8 7:-1 
-1 -1 -1 -1 -1 -1 -1 -1 -1 -1 -1 1:-0.42857143 2:1 3:0.58730159 4:-1 5:0.36507937 6:-0.61904762 7:-0.26984127 8:-0.46031746 
