svm_type c_svc
kernel_type rbf
gamma 0.058823529411764705
nr_class 8
total_sv 119
rho 0.060282560797972125 0.25387439781828203 -0.5163517775786155 -0.45750782179956184 0.51313750878398579 -0.91820354296415729 -0.99725463765941669 -0.58874963498016375 0.008689053716517894 -0.84820414543973721 0.26895967839009211 -0.27399046234025792 -0.97934943437576294 -0.1075860645426568 -0.88299680542582748 0.31435068676784489 -0.27955922397543437 -0.94598430092750441 -0.07836602208617148 0.54230403776747738 -0.98642351792110483 -0.81377481124314344 0.81070095809730514 -0.056877832098731262 -0.81997489929199219 -0.86001661081580383 -1.0606071826267167 -0.73151981165041768
label 2 1 4 3 6 0 5 10
nr_sv 33 32 16 17 3 14 3 1
SV
1 1 0 1 1 0 0 1:-1 2:1 3:0.28787879 4:0.72727273 
1 1 0 1 1 0.027230371625073715 0.59340375925859312 1:0.80952381 2:1 3:0.55844156 4:-1 
0 0.86527368979337205 0 0.059437416955629804 1 0 0 1:-1 2:0.4375 3:0.046875 4:1 
0 0 0 0 0.50842291260449302 0 0 1:-1 2:0.41772152 3:0.037974684 4:1 
0 0 1 0 0 0 0 1:-1 2:0.083969466 3:0.29770992 4:0.48091603 5:0.3740458 6:0.28244275 7:0.3740458 8:1 9:0.98473282 
0 0 0.0036245602751024441 0 0 0 0 1:-1 2:-0.17142857 3:-0.71428571 4:1 
0 0 0.77508437183001233 0 0 0 0.024603070071308325 1:-1 2:-0.93103448 3:0.08045977 4:-0.12643678 5:0.75862069 6:1 
0 0.49432958590038123 0 0 0.20021120666167921 0 0 1:-1 2:0.063953488 3:0.60465116 4:0.56395349 5:1 
0 0 1 0 0.98633083737006355 0 0 1:-1 2:-0.065088757 3:-0.26627219 4:-0.32544379 5:0.017751479 6:1 
0 0 0.025801208916697002 0.62027621087547558 0 0 0 1:-1 2:-0.63793103 3:0.44827586 4:0.75862069 5:0.5862069 6:0.81034483 7:1 
0 0 1 0 0 0 0 1:-1 2:-0.25314183 3:-0.23877917 4:-0.3464991 5:0.27109515 6:0.41113106 7:1 
0 0 0.085856113434166798 0 1 0 0 1:-1 2:0.34911243 3:-0.16568047 4:-0.10650888 5:0.17751479 6:1 
0 0 1 0 0 0 0 1:-1 2:-0.4375 3:-0.5625 4:0.16666667 5:1 
0.54877539276468057 0 1 0 0.43861399125726502 0.12748886273119781 0 1:-1 2:-0.62162162 3:-0.31081081 4:-0.83783784 5:0.86486486 6:1 
0.15841455097760976 0 1 0 0 1 0 1:-1 2:-0.64835165 3:-0.86813187 4:-0.58241758 5:-0.27472527 6:0.18681319 7:1 8:0.72527473 
0 0 1 0 0.68023776201191166 0 0 1:-1 2:-0.5117773 3:-0.070663812 4:-0.04496788 5:0.32334047 6:0.11777302 7:-0.30192719 8:0.61456103 9:1 
0 0 0 0 0.28171630101428541 0 0 1:-1 2:-0.26690391 3:0.42348754 4:-0.13879004 5:0.060498221 6:0.14590747 7:1 
0 0 1 0 0 0 0 1:-1 2:-0.89795918 3:0.020408163 4:-0.13265306 5:0.78571429 6:1 
0.84307666089934297 0.93558468588732291 0 0 1 0 0 1:-1 2:0.31972789 3:0.55102041 4:0.19727891 5:1 
0 0 0 0 0.70438890750769922 0 0.060639475854274746 1:-1 2:-0.59322034 3:0.3220339 4:-0.050847458 5:1 
0 0 1 0 0 0 0 1:-1 2:-0.53308824 3:-0.28676471 4:-0.60661765 5:-0.30882353 6:0.60661765 7:1 
0 0 0.70087355730886358 0 0 0.040559843817331888 0 1:-1 2:-0.44206009 3:-0.19313305 4:0.038626609 5:-0.40772532 6:-0.29613734 7:0.10729614 8:1 
0.77092840893881087 0.28796506308547326 1 0 1 0.024373231981987022 0.058752849793882109 1:-1 2:-0.34591195 3:0.2327044 4:-0.64779874 5:-0.64779874 6:-0.018867925 7:0.54716981 8:1 
0 0 1 0 0 0 0 1:-1 2:-0.69230769 3:-0.43589744 4:0.1025641 5:-0.051282051 6:0.41025641 7:1 
0 0.18945969375833546 0 0.20889720800373979 0.75095550653318444 0 0.10192019779952366 1:-1 2:-0.73333333 3:0.6 4:0.6 5:1 
0 0 1 0 0 0.29857851199429658 0 1:-1 2:-0.45454545 3:0.36363636 4:0.57575758 5:0.48484848 6:-0.24242424 7:0.42424242 8:0.66666667 9:0.96969697 10:1 11:1 12:0.78787879 
0 0 1 0 0 0 0 1:-1 2:-0.95348837 3:0.069767442 4:0.62790698 5:0.39534884 6:0.58139535 7:1 
0 0 0 0.11138916416515481 0 0 0 1:-1 2:-0.52 3:0.36 4:0.22666667 5:0.57333333 6:1 
0.8004143931746428 0 0 0 0 0 0 1:-1 2:0.46666667 3:-0.066666667 4:1 
0.48693964484532487 0.4969702479865587 0.40876018823515792 0 1 0.48176917785011297 0.14933904124059408 1:-1 2:-0.75 3:-0.041666667 4:-0.5 5:-0.54166667 6:1 
0 0 1 0 0 0 0 1:-1 2:-0.48529412 3:-0.058823529 4:0.35294118 5:0.23529412 6:0.39705882 7:0.5 8:0.55882353 9:0.80882353 10:0.83823529 11:1 
0 0 0 0 0.98481506543312491 0 0 1:-1 2:-0.13513514 3:0.24324324 4:0.18918919 5:-0.45945946 6:0.40540541 7:1 
1 1 1 0 1 1 0.01134160598182397 1:-1 2:-0.75 3:-0.3125 4:-0.041666667 5:-0.3125 6:-0.5625 7:-0.47916667 8:-0.375 9:0.3125 10:1 
-0.49560009332096056 0 0 0 0 0 0 1:1 2:0.80451128 3:0.81954887 4:-1 
-0.61361285818235212 0 0 0.430129991662828 0.62714963512162025 0 0 1:1 2:0.83643123 3:0.76951673 4:0.83643123 5:-1 
-0.71002804446473389 1 1 0 1 0.38833535897283239 0 1:1 2:0.56976744 3:-0.1627907 4:0.72093023 5:0.91860465 6:0.023255814 7:-0.56976744 8:-1 
-0 0 0 0 0.47112386762174985 0 0 1:1 2:0.14814815 3:0.65432099 4:0.7037037 5:-0.30864198 6:-1 
-0 0.21894642182623369 0 0 0 0 0 1:1 2:-0.18666667 3:-0.10666667 4:-0.93333333 5:-0.93333333 6:-1 
-0 1 0 0 0 0 0 1:1 2:0.40096618 3:0.42028986 4:0.47826087 5:-0.2173913 6:-0.36231884 7:-0.55555556 8:-1 9:-0.98067633 
-0 0.7007851339967659 0 0 0 0 0 1:1 2:0.081967213 3:0.42076503 4:0.22404372 5:0.18032787 6:-0.89071038 7:-1 
-0 0.82850625186492344 0 0 0 0 0 1:1 2:-0.037288136 3:0.33559322 4:0.071186441 5:-0.31525424 6:-0.93220339 7:-1 
-0 0.028698366747608853 0 0 1 0 0 1:1 2:-0.46153846 3:-0.076923077 4:-0.43076923 5:-1 
-0 1 0 1 0.98432738386502239 0 0 1:1 2:0.88679245 3:0.52201258 4:0.32914046 5:0.40041929 6:0.4129979 7:0.30398323 8:-0.060796646 9:-0.090146751 10:-1 11:-0.99580713 
-0.61325948884562276 0.047514334309830715 1 0 1 0 0 1:1 2:0.13924051 3:-0.26582278 4:0.64556962 5:-1 
-0 0.60993889096135268 0 0 0.031435283719529528 0 0 1:1 2:0.94444444 3:0.77525253 4:0.93181818 5:0.31060606 6:-0.17676768 7:-1 
-1 0 1 0 1 1 0 1:1 2:-0.42180095 3:-0.28909953 4:-1 
-0.33007238575010051 0.78445048368079218 0 0.043740559573715157 1 0 0.90419174458804152 1:1 2:-0.42857143 3:0.42857143 4:-1 
-0.62484890640192858 0.10906824933762728 0.61196130513695923 0 0.1337066860292449 0.96464211986868242 0 1:1 2:-0.38712446 3:-0.3751073 4:-0.9639485 5:-1 
-0.50495886256004063 1 0 0.50134908446904802 1 0 0 1:1 2:0.73643411 3:0.71576227 4:0.5503876 5:0.71576227 6:0.19896641 7:-1 
-0 0.44642072699932955 0 0 0 0 0 1:1 2:0.72727273 3:0.26363636 4:0.054545455 5:-0.10909091 6:-0.036363636 7:-0.43636364 8:-1 
-0 0 0 0 0 0.59221319853554322 0 1:1 2:-0.34824281 3:-0.022364217 4:-0.073482428 5:-0.79552716 6:-1 
-0 0.048797565526607488 0 0 0.82265422935154497 0 0 1:1 2:0.051359517 3:-0.003021148 4:0.63746224 5:-0.46827795 6:-0.78247734 7:-1 
-0 0 0 0 0.061216929370915982 0 0 1:1 2:0.32701422 3:-0.14691943 4:0.57345972 5:-0.17535545 6:-0.21327014 7:-1 
-0 1 0 0 0 0 0 1:1 2:0.63667233 3:0.22241087 4:-0.10356537 5:-0.28692699 6:-0.14770798 7:-0.0084889643 8:-0.066213922 9:-0.28692699 10:-0.3106961 11:-0.62988115 12:-1 13:-0.9286927 
-0.55744585943675062 0 0 0 0 0 0 1:1 2:0.80722892 3:0.61445783 4:0.63855422 5:0.6686747 6:-1 
-0 1 0 0 0.05822721277209806 0 0 1:1 2:0.064935065 3:0.12987013 4:-0.44155844 5:-0.75324675 6:-0.84415584 7:-0.92207792 8:-1 
-0 1 0 0 0 0 0 1:1 2:0.59036145 3:0.20481928 4:0.18875502 5:0.26639893 6:0.20481928 7:0.076305221 8:-0.10307898 9:-0.437751 10:-0.3601071 11:-1 
-0.60358436095488133 0 1 0 1 0.054809322622941914 0 1:1 2:-0.40766551 3:-0.18466899 4:-1 
-0 1 0 0.17341372687572504 0 0 0 1:1 2:0.62264151 3:-0.27044025 4:-0.54716981 5:-0.24528302 6:-0.53459119 7:-0.69811321 8:-0.74842767 9:-0.93710692 10:-1 
-0 0 0 0 1 0 0.095808255411958518 1:1 2:-0.2 3:0.7 4:-0.95 5:-1 
-0.5551381916830409 1 0.27952293325434857 0.039400075342288877 0.088654518898950221 0 0 1:1 2:0.84158416 3:0.65676568 4:0.42574257 5:0.42574257 6:0.089108911 7:0.25412541 8:0.35973597 9:0.12211221 10:-0.79537954 11:-1 
-0 1 0 0 0 0 0 1:1 2:0.4887218 3:-0.022556391 4:-0.35338346 5:-0.30827068 6:-0.21804511 7:-0.5037594 8:-0.96992481 9:-1 
-0 0.39113044876928893 0 0 0 0 0 1:1 2:0.15555556 3:-0.51111111 4:0.066666667 5:-0.33333333 6:-0.33333333 7:-1 
-0 1 0 0 0 0 0 1:1 2:0.79238754 3:0.41176471 4:0.16262976 5:-0.031141869 6:0.14186851 7:-0.12802768 8:-0.8200692 9:-1 
-0 0.78574312597963925 0 0.81196656207639484 0 0 0 1:1 2:0.79238754 3:0.41176471 4:0.16262976 5:-0.031141869 6:0.14186851 7:-0.12802768 8:-0.8200692 9:-1 
-1 -1 1 0 1 1 0 1:0.36862745 2:0.31372549 3:-0.20784314 4:-0.76862745 5:-0.96078431 6:-0.75294118 7:-1 8:-0.77254902 9:-0.019607843 10:0.38431373 11:-0.20392157 12:1 
-0 -1 0 0.96006058865221444 1 0 0.087447963306740137 1:1 2:0.39130435 3:0.39130435 4:0.14285714 5:-0.031055901 6:0.19254658 7:-0.44099379 8:-0.40372671 9:-0.25465839 10:-1 
-0.84262642518721076 -1 0.35646235532501486 0.43219299555960372 1 0 0 1:1 2:0.70854271 3:0.52763819 4:0.53768844 5:0.59798995 6:0.69849246 7:-0.11557789 8:-0.37688442 9:-0.52763819 10:-0.15577889 11:-0.27638191 12:-0.54773869 13:-1 
-0 -1 0 0 0 0 0 1:1 2:0.80320366 3:-0.18535469 4:-0.10755149 5:-0.016018307 6:-0.17162471 7:-0.67505721 8:-0.80778032 9:-0.78947368 10:-1 
-0 -1 0 0 0.18909242268711632 0 0 1:1 2:0.51219512 3:0.2097561 4:0.034146341 5:0.024390244 6:-0.35609756 7:0.22926829 8:-0.41463415 9:-0.41463415 10:-0.68780488 11:-0.51219512 12:-0.56097561 13:-1 
-0.67589851766965503 -1 0 0 1 0 0.21884236175353075 1:1 2:0.48333333 3:0.60555556 4:-0.46111111 5:-0.033333333 6:-0.62777778 7:-1 
-0 -1 0 0 0.071498678700859797 0 0 1:1 2:0.8729097 3:-0.016722408 4:-0.14381271 5:0.12374582 6:0.070234114 7:-0.53177258 8:-0.59866221 9:-0.69230769 10:-0.47157191 11:-1 
-0.7628711152242259 -1 0.13858269052627042 1 0.59986880997193226 0 0 1:1 2:0.82568807 3:0.93577982 4:0.87155963 5:0.85015291 6:0.55045872 7:0.23547401 8:-0.39755352 9:-0.23547401 10:-1 
-0.70293243272161254 -1 0.83451973266791968 0 1 0.40458473416766827 0 1:0.96899225 2:0.13178295 3:0.10077519 4:0.6124031 5:1 6:-0.41085271 7:-0.84496124 8:-0.34883721 9:0.48837209 10:-1 
-1 -1 1 0.28738466344229974 1 0.44451106599485668 0.1849937906137071 1:1 2:0.38258575 3:0.9525066 4:0.81002639 5:0.29815303 6:0.40897098 7:0.49340369 8:0.092348285 9:0.071240106 10:0.055408971 11:-0.45118734 12:-1 
-0 -1 0 0 0 0 0 1:1 2:0.41436464 3:0.044198895 4:-0.060773481 5:0.29281768 6:-0.59116022 7:-0.67955801 8:-0.51381215 9:-0.57458564 10:-0.71823204 11:-1 
-0 -1 0 0 0 0 0 1:1 2:0.86619718 3:0.75352113 4:-0.15492958 5:0.028169014 6:0.26760563 7:-0.91549296 8:-0.8028169 9:-0.48591549 10:-0.3943662 11:-0.93661972 12:-1 
-0.28525447560873923 -1 0 0.32036175234588221 1 0.15090419983747502 0 1:1 2:0.068965517 3:-0.068965517 4:0.44827586 5:-1 6:-0.48275862 7:-0.5862069 8:-0.5862069 9:-0.89655172 
-1 -1 1 0 1 1 0.50871588432602199 1:1 2:0.028037383 3:0.14018692 4:-0.4953271 5:-0.47663551 6:-1 
-0 -1 0 0 1 0 0 1:1 2:0.14 3:-0.184 4:-0.016 5:0.072 6:0.044 7:-0.448 8:-0.628 9:-0.56 10:-0.652 11:-1 
-0 -1 0 0 0 0 0 1:1 2:0.48148148 3:0.66666667 4:0.38888889 5:-0.14814815 6:-0.31481481 7:-0.75925926 8:-0.59259259 9:-0.62962963 10:-0.81481481 11:-1 
-1 -0 -0 0 0 0.39443671531139518 0.025491690696628537 1:-1 2:-0.93852459 3:-0.32581967 4:-0.41393443 5:-0.036885246 6:0.25 7:0.40368852 8:0.90368852 9:0.37704918 10:0.60040984 11:0.76639344 12:0.83401639 13:0.96311475 14:0.91803279 15:1 
-1 -0 -0 0 0 0 0 1:-1 2:-0.74382022 3:-0.77078652 4:-0.087640449 5:0.029213483 6:0.24044944 7:0.82022472 8:0.73033708 9:1 
-1 -0.8696147154932673 -0.66034090156800829 0.063276508304851195 1 1 0.18718889410136533 1:-1 2:-0.66153846 3:-0.63846154 4:-0.43846154 5:-0.21538462 6:-0.25384615 7:-0.21538462 8:0.10769231 9:0.5 10:0.13846154 11:1 
-1 -0.95804010907819837 -0.94536579486775318 0 1 0 0.13031209512094993 1:-1 2:-0.5890411 3:-0.36073059 4:-0.44292237 5:0.10958904 6:-0.10045662 7:0.21461187 8:0.29223744 9:1 
-1 -0.82136059746263435 -0.84216112815818411 0.55834239773057026 1 0.47002509437075435 0.032926930360348577 1:-1 2:0.37055838 3:-0.79695431 4:-0.53299492 5:-0.23857868 6:0.16751269 7:0.63451777 8:-0.59390863 9:-0.23857868 10:0.11675127 11:0.72588832 12:0.78680203 13:1 14:0.93908629 15:1 
-1 -0 -0 0 0 0.37580870238650887 0 1:-1 2:-0.87586207 3:-0.51724138 4:0.062068966 5:-0.13103448 6:0.048275862 7:0.2137931 8:0.26896552 9:0.048275862 10:0.68275862 11:1 
-1 -0 -0 0 0.43192668044292076 0 0 1:-1 2:-0.68831169 3:0.090909091 4:0.14285714 5:0.80519481 6:0.28571429 7:0.22077922 8:0.48051948 9:1 10:0.48051948 11:0.54545455 12:0.35064935 
-1 -0 -0 0 0 0.61905797311416966 0.029468699331323258 1:-1 2:-0.82692308 3:-0.35576923 4:-0.55769231 5:-0.25 6:0.25961538 7:0.31730769 8:0.41346154 9:0.39423077 10:0.35576923 11:0.55769231 12:1 
-1 -0.47654398570806833 -0 0 1 0 0.14878115867708652 1:-1 2:-0.38922156 3:-0.11377246 4:-0.31736527 5:0.005988024 6:0.43712575 7:0.4011976 8:-0.19760479 9:0.30538922 10:1 
-1 -0 -0 0 0.63816151630773832 0 0.0070810575816362999 1:-1 2:-0.74814815 3:-0.14074074 4:-0.25925926 5:0.81481481 6:0.85925926 7:0.44444444 8:1 
-1 -0 -0 0 0 0 0 1:-1 2:-0.6 3:-0.15076923 4:-0.16307692 5:0.77230769 6:0.87076923 7:0.77230769 8:1 
-1 -0.18587810542437727 -0 0 0.88245982372182397 0.14067151481717186 0 1:-1 2:-0.48901099 3:-0.54945055 4:-0.027472527 5:-0.010989011 6:0.14835165 7:1 
-1 -0.51234152622537266 -0.68526050352244039 0.88792196082549657 1 0 0 1:-1 2:-0.36666667 3:-0.4 4:0.63333333 5:0.62222222 6:1 
-1 -1 -0.76836628998620604 1 1 0 0 1:-1 2:-0.05 3:-0.4 4:0.10714286 5:0.078571429 6:1 
-1 -0.067705198999389621 -0 0.093165853581562888 1 0 0.37438493312303167 1:-1 2:-0.65454545 3:-0.10909091 4:-0.58181818 5:0.63636364 6:0.50909091 7:1 
-1 -0 -0 0 0 0 0 1:-1 2:-0.37777778 3:-0.51111111 4:-0.33333333 5:0.11111111 6:0.6 7:1 8:0.73333333 9:0.86666667 10:0.95555556 11:1 
-1 -0 -0.42807016041661289 0.39729327955751914 1 0 0.064364541007629894 1:-1 2:-0.67164179 3:0.58208955 4:0.40298507 5:0.52238806 6:0.82089552 7:0.91044776 8:0.67164179 9:0.73134328 10:1 
-1 -1 -1 -1 1 0.55950271314347644 0 1:1 2:0.39622642 3:0.58490566 4:0.71698113 5:-0.1509434 6:0.66037736 7:-0.50943396 8:-0.37735849 9:-0.73584906 10:-1 
-1 -1 -1 -1 1 0.61260068273106494 0.23732303776688751 1:1 2:0.91836735 3:0.85157699 4:0.76623377 5:0.60296846 6:0.73283859 7:0.62152134 8:0.55473098 9:0.13172542 10:-0.2096475 11:0.10946197 12:-0.283859 13:-0.61410019 14:-0.81818182 15:-0.27272727 16:-0.58070501 17:-1 
-1 -1 -1 -1 1 1 0.76267696223311243 1:1 2:0.5186722 3:0.7593361 4:0.16182573 5:0.19502075 6:-0.087136929 7:0.070539419 8:-0.5186722 9:-0.96680498 10:-1 
-1 -1 -1 -1 -0 0 0 1:1 2:-1 3:-0.37931034 4:0.65517241 5:0.72413793 6:-0.034482759 
-1 -1 -0.4207891418692058 -1 -0 0.34744279820738933 0 1:-0.73913043 2:-0.39130435 3:1 4:-0.47826087 5:-1 6:-0.69565217 7:0.26086957 
-1 -1 -1 -0.33570776968872318 -0 0 0 1:-0.7704918 2:1 3:0.47540984 4:-0.14754098 5:-1 6:-0.18032787 
-1 -0.91806506354721096 -0.43967076949070255 -1 -0.13339755935037986 0.72874999831406762 0 1:-1 2:0.02247191 3:0.31460674 4:1 5:-0.83146067 6:-0.35955056 7:0.66292135 
-1 -1 -1 -0 -1 0 0.31690357475321268 1:0.89130435 2:-1 3:1 4:0.23913043 
-1 -0 -0 -1 -0.14334099122126914 0 0 1:-1 2:0.36842105 3:1 4:-0.46315789 5:0.53684211 6:0.97894737 
-0.53569249039370659 -1 -1 -0.61684025078375981 -0 0.58272531052228116 0.37560114035549785 1:1 2:-0.92207792 3:0.19480519 4:-0.74025974 5:-1 
-1 -1 -1 -1 -0 0.048117000843554261 0 1:-0.67567568 2:1 3:0.40540541 4:-1 5:0.027027027 6:0.91891892 
-1 -1 -1 -1 -0.64692660930915957 0.29296489211270771 0 1:0.69230769 2:0.38461538 3:-1 4:0.48717949 5:1 6:0.58974359 7:-0.79487179 
-1 -0.36043068320346511 -0 -1 -0 1 0.19946679889214655 1:-0.92857143 2:-0.92857143 3:0.78571429 4:-1 5:1 
-1 -0 -0 -1 -0.22778480098841983 0 0 1:-1 2:0.83333333 3:0.94444444 4:-0.55555556 5:-0.69444444 6:1 
-1 -1 -1 -1 -0 0 0 1:-0.75961538 2:-0.75961538 3:0.19230769 4:0.61538462 5:0.45192308 6:0.067307692 7:-0.97115385 8:-0.75961538 9:1 10:-0.15384615 11:-1 
-1 -1 -1 -0 -0.4968711212654916 0 0 1:1 2:0.33333333 3:-0.66666667 4:0.39393939 5:-0.96969697 6:0.8 7:-1 
-1 -1 -1 -0 -0.35167891786528011 0 0.10802848599914294 1:-0.42857143 2:1 3:0.58730159 4:-1 5:0.36507937 6:-0.61904762 7:-0.26984127 8:-0.46031746 
-1 -1 -1 -1 -0.72478495238618657 -1 0.34752595695985883 1:-0.98913043 2:-1 3:-0.30434783 4:-0.47826087 5:-0.41304348 6:0.23913043 7:0.34782609 8:-0.19565217 9:0.032608696 10:0.32608696 11:0.73913043 12:0.23913043 13:0.85869565 14:1 
-1 -1 -1 -1 -0.84084783906641025 -1 0.27718137929826203 1:-1 2:-0.6819788 3:-0.92932862 4:-0.71731449 5:-0.29328622 6:-0.40636042 7:0.067137809 8:0.26501767 9:-0.12367491 10:0.32862191 11:1 
-1 -1 -1 -1 -0.60647060442194456 -1 0.37529266374187914 1:-1 2:-0.91803279 3:-0.50819672 4:-0.6557377 5:-0.27868852 6:-0.40163934 7:-0.14754098 8:0.19672131 9:0.18852459 10:0.049180328 11:0.25409836 12:0.8852459 13:1 
-1 -1 -1 -1 -1 -1 -1 1:0.72903226 2:-0.67741935 3:1 4:-1 
