svm_type c_svc
kernel_type rbf
gamma 0.055555555555555552
nr_class 10
total_sv 87
rho -0.55433737474924449 -0.14793199236186408 -0.74639434643635627 -0.96635622954193268 0.096101519485537704 -0.60574759738280459 -0.83320204396057618 -0.85723833767831015 -0.77285924553871155 0.72581636878508038 0.40378972890711945 -0.92653904120963759 0.76629781725225443 0.41562488675117493 -0.410148024559021 -0.82655085441736631 -0.78626167774200439 0.18643686012107616 -0.94062868295630087 -0.10198929829953368 -0.55443643007115828 -0.49175615645260179 -0.84092650874119823 -0.91529427521634354 -0.8519512992883348 0.030530708852527219 -0.26664510066969455 -0.79829923236454436 -0.79577783444108374 -0.43876244984877344 0.95718454698661282 0.931180854604855 0.59929896486090628 -0.025694459676742554 -0.14978820085525513 -0.45690861591652848 -0.32237874473175959 -0.85174948485397373 -1.0151691623858277 -0.65074530243873596 -0.81800653931882372 -0.79318570426466928 -0.63855140286572942 -0.15536889433860779 0.0011679977178573608
label 1 5 2 4 7 3 6 9 10 8
nr_sv 23 4 22 11 2 13 5 3 2 2
SV
0 0 0.22558633354035582 0 0.43273304271574425 0 0 0 0 1:1 2:-0.17948718 3:-0.066666667 4:-1 
0.68016718445656854 0.66567852009910999 1 0 0.19576134329658545 0 0.95430576043841564 0 0 1:1 2:0.73643411 3:0.71576227 4:0.5503876 5:0.71576227 6:0.19896641 7:-1 
0 0.70399971138697726 0 0.33798606933091829 1 1 0 1 0 1:1 2:-0.42857143 3:0.42857143 4:-1 
0 0.87939323056573071 0 0 1 0 0 0.088039481945667686 0.58861877523553163 1:1 2:-0.38712446 3:-0.3751073 4:-0.9639485 5:-1 
1 0 1 0 0 0 0 0 0 1:1 2:0.2109375 3:0.2890625 4:-1 
0 0 0 0.038959933822905732 0 0 0 0 0 1:1 2:0.79746835 3:0.51898734 4:0.67088608 5:-0.72151899 6:-1 
0 0 0 0 0 0.85999719281906328 0.53238308628504571 0 0 1:1 2:0.50318471 3:0.59235669 4:0.044585987 5:-1 
0 0 1 0 0.69696092006028876 0 0 0 0 1:1 2:0.17241379 3:-0.31034483 4:-0.24137931 5:0.27586207 6:-1 
0 1 0.29716540460881152 0 1 0 0 0 0.41138122476446837 1:1 2:-0.42180095 3:-0.28909953 4:-1 
0 0 1 0.027108220388560075 0 0 0 0 0 1:1 2:0.94444444 3:0.77525253 4:0.93181818 5:0.31060606 6:-0.17676768 7:-1 
0.33419499671098452 0.86171200063281217 1 0.038882058522432296 0 0.20419339953700702 1 0.33988858512988013 0 1:1 2:0.88679245 3:0.52201258 4:0.32914046 5:0.40041929 6:0.4129979 7:0.30398323 8:-0.060796646 9:-0.090146751 10:-1 11:-0.99580713 
0 0 0.445426292928217 0.0445004125055646 0 0 0 0 0 1:1 2:0.5339233 3:-0.1740413 4:-0.15044248 5:-1 
0 1 0 0 0.70787913381274636 0.27030110620142417 0.1684441239734922 0 0 1:1 2:0.13924051 3:-0.26582278 4:0.64556962 5:-1 
0 0 0.87047086826549924 0 0 0 0 0 0 1:1 2:0.65638767 3:-0.066079295 4:-0.82378855 5:-0.50660793 6:-1 
1 1 0.22504139314313623 0.87166274199414795 1 1 0.22018812187634604 0.48840898273546501 1 1:-1 2:-0.50904393 3:-0.5503876 4:1 
0 0 0.61601719798095789 0 0 0 0 0 0 1:1 2:0.081967213 3:0.42076503 4:0.22404372 5:0.18032787 6:-0.89071038 7:-1 
0 0 0 0.014384813627108035 0 0 0 0 0 1:1 2:0.3372093 3:-0.55813953 4:0.058139535 5:-0.5 6:-1 
0 0 1 0 0 0 0 0 0 1:1 2:0.40096618 3:0.42028986 4:0.47826087 5:-0.2173913 6:-0.36231884 7:-0.55555556 8:-1 9:-0.98067633 
0 0 0 0 0 0.50807687659225864 0 0 0 1:1 2:-0.24705882 3:0.15294118 4:-0.36470588 5:-0.88235294 6:-1 
0.90454777303168954 0 0.32029250953302246 0.56220909556649301 0 0.064485759663637468 0 0.083662950188987173 0 1:1 2:0.024 3:0.632 4:-1 
0 0.39590416705554371 0 0 0.10384644676345396 1 0.0069476858692202395 0 0 1:1 2:0.14814815 3:0.65432099 4:0.7037037 5:-0.30864198 6:-1 
0.081090045800757293 0.88673151164120589 1 0.064306654241870043 0.65250972862109935 0.022881310442065379 0 0 0 1:1 2:0.56976744 3:-0.1627907 4:0.72093023 5:0.91860465 6:0.023255814 7:-0.56976744 8:-1 
0 0 1 0 0 0.070064354744544088 0.11773122155748017 0 0 1:1 2:0.64359352 3:0.7083947 4:0.55817378 5:0.027982327 6:-0.013254786 7:-0.40500736 8:-0.82621502 9:-0.97054492 10:-0.81443299 11:-1 
-1 1 1 0.54622326434772805 1 1 1 0.51689761264143708 0.53434862292798224 1:-1 2:0.83333333 3:0.94444444 4:-0.55555556 5:-0.69444444 6:1 
-1 1 1 0.61063379577890931 1 1 0.54883690069964863 0.77254794012297601 1 1:-0.92857143 2:-0.92857143 3:0.78571429 4:-1 5:1 
-1 1 1 0.84314293987336275 1 1 1 0.71055444723558692 0.46565137707201765 1:0.69230769 2:0.38461538 3:-1 4:0.48717949 5:1 6:0.58974359 7:-0.79487179 
-1 1 1 0 1 1 0.45116309930035137 0 0 1:-0.67567568 2:1 3:0.40540541 4:-1 5:0.027027027 6:0.91891892 
-0 -0 0 0 1 0.13141906293287106 0 0 0.37576979569876107 1:-1 2:-0.63369963 3:-0.56043956 4:1 
-0 -0 0.51088084914077903 0.030636082067971235 0.094465437592543375 0.22406300560085024 0.60302948437494264 0 0 1:-1 2:0.35445545 3:0.47722772 4:0.56435644 5:0.48118812 6:0.04950495 7:1 
-0.15960744892893061 -0 0 0 1 1 0 0.027302589696647131 0 1:-1 2:-0.26690391 3:0.42348754 4:-0.13879004 5:0.060498221 6:0.14590747 7:1 
-0 -0 0 0 0.66493050742445092 0 0 0 0 1:-1 2:-0.89795918 3:0.020408163 4:-0.13265306 5:0.78571429 6:1 
-0.35624937329373585 -0 0.045540842580480786 0 1 0.43775780462782871 0 0 0.065591956769660884 1:-1 2:-0.5117773 3:-0.070663812 4:-0.04496788 5:0.32334047 6:0.11777302 7:-0.30192719 8:0.61456103 9:1 
-0.88842556215670532 -0.75762947895410759 0.92725102809758353 0.15084403763841664 1 0 0 0.18320100053822783 0.33844433134575003 1:-1 2:-0.62162162 3:-0.31081081 4:-0.83783784 5:0.86486486 6:1 
-0.72188383265630252 -0 0 0 1 0.1057823067095974 0 0 0.9025978236306299 1:-1 2:-0.64835165 3:-0.86813187 4:-0.58241758 5:-0.27472527 6:0.18681319 7:1 8:0.72527473 
-0 -0 0 0.21787915769363514 1 0 0 0 0 1:-1 2:-0.4375 3:-0.5625 4:0.16666667 5:1 
-0 -0 0 0 0 0 0.1459168070710973 0.21777205737172875 0 1:-1 2:-0.63793103 3:0.44827586 4:0.75862069 5:0.5862069 6:0.81034483 7:1 
-0 -0 0 0 1 0 0 0 0 1:-1 2:-0.25314183 3:-0.23877917 4:-0.3464991 5:0.27109515 6:0.41113106 7:1 
-0.18426078194542661 -1 0 0 0 0 0 0 0 1:-1 2:0.34911243 3:-0.16568047 4:-0.10650888 5:0.17751479 6:1 
-0.30300477522586911 -0.45828680269551308 0 0 1 0 0 0 0 1:-1 2:-0.065088757 3:-0.26627219 4:-0.32544379 5:0.017751479 6:1 
-1 -0.8352234530339635 1 0.86794579016113982 1 1 1 1 0.31759609255519816 1:1 2:-0.46153846 3:-0.076923077 4:-0.43076923 5:-1 
-1 -0.94886026531641587 1 0.15676166494674709 0 0.10943245507442523 0.63874769920718255 0.15513009491221127 0 1:-1 2:0.063953488 3:0.60465116 4:0.56395349 5:1 
-0 -0 0 0 1 0 0 0.2500492764116729 0 1:-1 2:-0.93103448 3:0.08045977 4:-0.12643678 5:0.75862069 6:1 
-0.73336145603410274 -0 0 0.076602071921342926 1 0 0 0 0 1:-1 2:-0.17142857 3:-0.71428571 4:1 
-0 -0 0 0 0 0 0.15829082881386061 0 0 1:-1 2:-0.34444444 3:0.28888889 4:0.22222222 5:0.75555556 6:1 
-0 -0 0 0 1 0 0 0.1665449810695121 0 1:-1 2:0.083969466 3:0.29770992 4:0.48091603 5:0.3740458 6:0.28244275 7:0.3740458 8:1 9:0.98473282 
-0.046625911140307091 -0 0 0 0 0 0 0 0 1:-1 2:-0.04 3:-0.34 4:1 
-1 -0 1 0 0 0.76450322808102644 0 0 0 1:-1 2:0.41772152 3:0.037974684 4:1 
-1 -0 1 0.49933119557074718 0 1 0.4540151805329169 0 0 1:-1 2:0.4375 3:0.046875 4:1 
-0 -0 0 0 0.24060405498300561 0.22704213697340081 0 0 0 1:-1 2:-0.77254902 3:-0.019607843 4:0.38431373 5:-0.20392157 6:1 
-1 -0 -0 0 0 0 0 0 0 1:1 2:0.41436464 3:0.044198895 4:-0.060773481 5:0.29281768 6:-0.59116022 7:-0.67955801 8:-0.51381215 9:-0.57458564 10:-0.71823204 11:-1 
-1 -0.29394065723269447 -0.94895361141041024 0.34250170511864425 1 0.39359345526676764 0 0.13150894196179957 0.38669178814274402 1:0.96899225 2:0.13178295 3:0.10077519 4:0.6124031 5:1 6:-0.41085271 7:-0.84496124 8:-0.34883721 9:0.48837209 10:-1 
-1 -0.63376887219773137 -1 0.1700897908238122 0 0.45523249910279318 1 0.012022509537708139 0.082445038122205147 1:1 2:0.82568807 3:0.93577982 4:0.87155963 5:0.85015291 6:0.55045872 7:0.23547401 8:-0.39755352 9:-0.23547401 10:-1 
-1 -0.7351291004813334 -0.90138441954600212 0.040309378870409723 1 1 0.023268986428896962 0 0.11747184837490994 1:1 2:0.48333333 3:0.60555556 4:-0.46111111 5:-0.033333333 6:-0.62777778 7:-1 
-1 -0.3575405180154852 -0.091136993858818766 0 0 0 0 0 0 1:1 2:0.8729097 3:-0.016722408 4:-0.14381271 5:0.12374582 6:0.070234114 7:-0.53177258 8:-0.59866221 9:-0.69230769 10:-0.47157191 11:-1 
-1 -0.9796208520727554 -1 0.92048609891727784 1 1 0.28137545033674433 0.93162842468625084 1 1:1 2:-0.18666667 3:-0.10666667 4:-0.93333333 5:-0.93333333 6:-1 
-1 -0 -0.05003974526413045 0 0 0.46022152689684903 0 0 0 1:1 2:0.51219512 3:0.2097561 4:0.034146341 5:0.024390244 6:-0.35609756 7:0.22926829 8:-0.41463415 9:-0.41463415 10:-0.68780488 11:-0.51219512 12:-0.56097561 13:-1 
-1 -0 -0 0 0 0 0 0 0.062801828183811234 1:1 2:0.80320366 3:-0.18535469 4:-0.10755149 5:-0.016018307 6:-0.17162471 7:-0.67505721 8:-0.80778032 9:-0.78947368 10:-1 
-1 -1 -1 0.45577861034021094 0.74405273231344005 0.52842214629824558 1 0.92484012381424152 0.25492863138235095 1:1 2:0.70854271 3:0.52763819 4:0.53768844 5:0.59798995 6:0.69849246 7:-0.11557789 8:-0.37688442 9:-0.52763819 10:-0.15577889 11:-0.27638191 12:-0.54773869 13:-1 
-1 -0 -0 0.052166129912917976 0.3431093409512519 0.53253906119559524 0.44648062594219246 0 0 1:1 2:0.39130435 3:0.39130435 4:0.14285714 5:-0.031055901 6:0.19254658 7:-0.44099379 8:-0.40372671 9:-0.25465839 10:-1 
-1 -0 -0.49215794973948157 0.018668286016727022 0.44938774717378371 0.6299913112397495 0.24887493729216634 0 0.095660865793978728 1:1 2:0.48198198 3:0.34684685 4:0.45495495 5:0.39864865 6:-0.4009009 7:0.065315315 8:0.076576577 9:-0.90315315 10:-1 
-1 -1 -1 -1 1 1 1 1 1 1:-0.65753425 2:0.54109589 3:-1 4:1 
-1 -1 -1 -1 1 1 1 1 1 1:0.72903226 2:-0.67741935 3:1 4:-1 
-1 -0 -1 -0.32787155131805301 -0.55687740610976455 1 0.3686961514591694 0 0.095013166056103104 1:-1 2:-0.48901099 3:-0.54945055 4:-0.027472527 5:-0.010989011 6:0.14835165 7:1 
-0 -0.35783009937247701 -1 -0 -0 0.1938223798930914 1 0.62658186213533895 0 1:-1 2:-0.6 3:-0.15076923 4:-0.16307692 5:0.77230769 6:0.87076923 7:0.77230769 8:1 
-0.80800294423702668 -1 -1 -0.7709712234853624 -0.22170812837033654 0 0.0574111576021454 0 0 1:-1 2:-0.74814815 3:-0.14074074 4:-0.25925926 5:0.81481481 6:0.85925926 7:0.44444444 8:1 
-1 -1 -1 -0.20062285968404173 -0.21633633626942522 1 0.19835450212616135 0.48852003157090979 0 1:-1 2:-0.38922156 3:-0.11377246 4:-0.31736527 5:0.005988024 6:0.43712575 7:0.4011976 8:-0.19760479 9:0.30538922 10:1 
-0 -0 -1 -0 -0 0 0 0 0 1:-1 2:-0.82692308 3:-0.35576923 4:-0.55769231 5:-0.25 6:0.25961538 7:0.31730769 8:0.41346154 9:0.39423077 10:0.35576923 11:0.55769231 12:1 
-0 -0 -1 -0 -0.010690423954184096 0.077236213364053674 0.11275080328187712 0 0 1:-1 2:-0.68831169 3:0.090909091 4:0.14285714 5:0.80519481 6:0.28571429 7:0.22077922 8:0.48051948 9:1 10:0.48051948 11:0.54545455 12:0.35064935 
-0 -0 -1 -0 -0 0.51465015985683393 0 0 0.50688181335582128 1:-1 2:-0.87586207 3:-0.51724138 4:0.062068966 5:-0.13103448 6:0.048275862 7:0.2137931 8:0.26896552 9:0.048275862 10:0.68275862 11:1 
-1 -1 -1 -1 -0.88391923608399381 1 1 0.88489810629375132 0 1:1 2:-0.037288136 3:0.33559322 4:0.071186441 5:-0.31525424 6:-0.93220339 7:-1 
-0.98168767103289156 -0.57273207816759197 -1 -0.81460256071822057 -0.11046846921229592 0.4081136267791125 0.26278738553064673 0 0.33185409683452077 1:-1 2:0.37055838 3:-0.79695431 4:-0.53299492 5:-0.23857868 6:0.16751269 7:0.63451777 8:-0.59390863 9:-0.23857868 10:0.11675127 11:0.72588832 12:0.78680203 13:1 14:0.93908629 15:1 
-1 -0.069437822459930923 -1 -0.83959988866794932 -0 0.80617762010690863 0 0 0 1:-1 2:-0.5890411 3:-0.36073059 4:-0.44292237 5:0.10958904 6:-0.10045662 7:0.21461187 8:0.29223744 9:1 
-1 -0 -1 -0.58288173656484865 -0 0 0 0 0.82040165245505936 1:-1 2:-0.66153846 3:-0.63846154 4:-0.43846154 5:-0.21538462 6:-0.25384615 7:-0.21538462 8:0.10769231 9:0.5 10:0.13846154 11:1 
-0 -0 -1 -0 -0 0 0 0 0 1:-1 2:-0.74382022 3:-0.77078652 4:-0.087640449 5:0.029213483 6:0.24044944 7:0.82022472 8:0.73033708 9:1 
-0 -0 -1 -0 -0 0 0 0 0.24584927129849579 1:-1 2:-0.93852459 3:-0.32581967 4:-0.41393443 5:-0.036885246 6:0.25 7:0.40368852 8:0.90368852 9:0.37704918 10:0.60040984 11:0.76639344 12:0.83401639 13:0.96311475 14:0.91803279 15:1 
-1 -0.68491907394573448 -1 -1 -0.37052500472296368 -1 1 0.94457009491097177 0 1:0.89130435 2:-1 3:1 4:0.23913043 
-1 -0.31508092605426552 -1 -1 -0.12450559585268724 -1 0 0 0.25570811266402838 1:-1 2:0.02247191 3:0.31460674 4:1 5:-0.83146067 6:-0.35955056 7:0.66292135 
-1 -1 -1 -1 -0.76190926396093528 -1 1 0.44474085693885063 0.18441196678967661 1:-0.7704918 2:1 3:0.47540984 4:-0.14754098 5:-1 6:-0.18032787 
-1 -1 -1 -1 -0.047589269245329933 -1 0 0.12567574108346186 0.91331779859685502 1:-0.73913043 2:-0.39130435 3:1 4:-0.47826087 5:-1 6:-0.69565217 7:0.26086957 
-1 -1 -1 -1 -0.69547086621808407 -1 1 0.4850133070667158 0.64656212194943996 1:1 2:-1 3:-0.37931034 4:0.65517241 5:0.72413793 6:-0.034482759 
-1 -1 -1 -1 -0.81889968305867111 -1 -1 0.94933406574331081 0.7080763570037697 1:1 2:0.38258575 3:0.9525066 4:0.81002639 5:0.29815303 6:0.40897098 7:0.49340369 8:0.092348285 9:0.071240106 10:0.055408971 11:-0.45118734 12:-1 
-1 -1 -1 -1 -0.24211469963751392 -1 -1 0.53300508460676366 0.2919236429962303 1:1 2:0.91836735 3:0.85157699 4:0.76623377 5:0.60296846 6:0.73283859 7:0.62152134 8:0.55473098 9:0.13172542 10:-0.2096475 11:0.10946197 12:-0.283859 13:-0.61410019 14:-0.81818182 15:-0.27272727 16:-0.58070501 17:-1 
-1 -1 -1 -1 -0.93898561730381491 -1 -1 0.51766084964992554 1 1:1 2:0.39622642 3:0.58490566 4:0.71698113 5:-0.1509434 6:0.66037736 7:-0.50943396 8:-0.37735849 9:-0.73584906 10:-1 
-1 -1 -1 -1 -1 -1 -1 -1 1 1:0.14285714 2:-1 3:1 4:0 5:0 6:0.42857143 
-1 -1 -1 -1 -1 -1 -1 -1 1 1:1 2:0.1092437 3:-0.35014006 4:-0.70868347 5:0.086834734 6:0.42857143 7:0.5070028 8:0.3837535 9:0.33333333 10:0.3837535 11:-1 12:-0.6302521 13:-0.85434174 14:-0.67507003 15:-0.66946779 16:-0.42296919 17:-0.73109244 18:-0.75910364 
-1 -1 -1 -1 -1 -1 -1 -1 -1 1:-1 2:-0.6819788 3:-0.92932862 4:-0.71731449 5:-0.29328622 6:-0.40636042 7:0.067137809 8:0.26501767 9:-0.12367491 10:0.32862191 11:1 
-1 -1 -1 -1 -1 -1 -1 -1 -1 1:-0.98913043 2:-1 3:-0.30434783 4:-0.47826087 5:-0.41304348 6:0.23913043 7:0.34782609 8:-0.19565217 9:0.032608696 10:0.32608696 11:0.73913043 12:0.23913043 13:0.85869565 14:1 
